
J48 pruned tree
------------------

avg_length_token <= 4.090909
|   2nd_person <= 0
|   |   adverbs <= 0
|   |   |   common_nouns <= 0
|   |   |   |   proper_nouns <= 0: 0 (246.0/71.0)
|   |   |   |   proper_nouns > 0
|   |   |   |   |   1st_person <= 0
|   |   |   |   |   |   ellipses <= 0: 4 (43.0/18.0)
|   |   |   |   |   |   ellipses > 0: 0 (5.0/1.0)
|   |   |   |   |   1st_person > 0: 0 (7.0/1.0)
|   |   |   common_nouns > 0
|   |   |   |   1st_person <= 1
|   |   |   |   |   wh_words <= 0
|   |   |   |   |   |   3rd_person <= 1
|   |   |   |   |   |   |   dashes <= 0
|   |   |   |   |   |   |   |   proper_nouns <= 0
|   |   |   |   |   |   |   |   |   ellipses <= 0
|   |   |   |   |   |   |   |   |   |   future_tense_verb <= 0
|   |   |   |   |   |   |   |   |   |   |   upper_case_words <= 0
|   |   |   |   |   |   |   |   |   |   |   |   3rd_person <= 0
|   |   |   |   |   |   |   |   |   |   |   |   |   commas <= 1
|   |   |   |   |   |   |   |   |   |   |   |   |   |   1st_person <= 0
|   |   |   |   |   |   |   |   |   |   |   |   |   |   |   coord_conjunction <= 0: 0 (568.0/268.0)
|   |   |   |   |   |   |   |   |   |   |   |   |   |   |   coord_conjunction > 0: 4 (77.0/35.0)
|   |   |   |   |   |   |   |   |   |   |   |   |   |   1st_person > 0
|   |   |   |   |   |   |   |   |   |   |   |   |   |   |   coord_conjunction <= 0
|   |   |   |   |   |   |   |   |   |   |   |   |   |   |   |   num_sentences <= 1: 0 (224.0/106.0)
|   |   |   |   |   |   |   |   |   |   |   |   |   |   |   |   num_sentences > 1
|   |   |   |   |   |   |   |   |   |   |   |   |   |   |   |   |   common_nouns <= 4
|   |   |   |   |   |   |   |   |   |   |   |   |   |   |   |   |   |   past_tense_verb <= 0
|   |   |   |   |   |   |   |   |   |   |   |   |   |   |   |   |   |   |   avg_length_sentences <= 3.75: 0 (2.0)
|   |   |   |   |   |   |   |   |   |   |   |   |   |   |   |   |   |   |   avg_length_sentences > 3.75
|   |   |   |   |   |   |   |   |   |   |   |   |   |   |   |   |   |   |   |   common_nouns <= 2: 4 (5.0/1.0)
|   |   |   |   |   |   |   |   |   |   |   |   |   |   |   |   |   |   |   |   common_nouns > 2
|   |   |   |   |   |   |   |   |   |   |   |   |   |   |   |   |   |   |   |   |   avg_length_sentences <= 5.25: 4 (4.0)
|   |   |   |   |   |   |   |   |   |   |   |   |   |   |   |   |   |   |   |   |   avg_length_sentences > 5.25: 0 (8.0)
|   |   |   |   |   |   |   |   |   |   |   |   |   |   |   |   |   |   past_tense_verb > 0
|   |   |   |   |   |   |   |   |   |   |   |   |   |   |   |   |   |   |   common_nouns <= 2: 0 (2.0)
|   |   |   |   |   |   |   |   |   |   |   |   |   |   |   |   |   |   |   common_nouns > 2: 4 (3.0/1.0)
|   |   |   |   |   |   |   |   |   |   |   |   |   |   |   |   |   common_nouns > 4: 4 (9.0/1.0)
|   |   |   |   |   |   |   |   |   |   |   |   |   |   |   coord_conjunction > 0
|   |   |   |   |   |   |   |   |   |   |   |   |   |   |   |   avg_length_sentences <= 11.5
|   |   |   |   |   |   |   |   |   |   |   |   |   |   |   |   |   avg_length_sentences <= 9.5: 0 (19.0/5.0)
|   |   |   |   |   |   |   |   |   |   |   |   |   |   |   |   |   avg_length_sentences > 9.5: 4 (9.0/1.0)
|   |   |   |   |   |   |   |   |   |   |   |   |   |   |   |   avg_length_sentences > 11.5: 0 (13.0/1.0)
|   |   |   |   |   |   |   |   |   |   |   |   |   commas > 1
|   |   |   |   |   |   |   |   |   |   |   |   |   |   coord_conjunction <= 0
|   |   |   |   |   |   |   |   |   |   |   |   |   |   |   common_nouns <= 5
|   |   |   |   |   |   |   |   |   |   |   |   |   |   |   |   commas <= 2
|   |   |   |   |   |   |   |   |   |   |   |   |   |   |   |   |   past_tense_verb <= 0
|   |   |   |   |   |   |   |   |   |   |   |   |   |   |   |   |   |   1st_person <= 0: 0 (35.0/13.0)
|   |   |   |   |   |   |   |   |   |   |   |   |   |   |   |   |   |   1st_person > 0
|   |   |   |   |   |   |   |   |   |   |   |   |   |   |   |   |   |   |   avg_length_sentences <= 7.5: 4 (5.0)
|   |   |   |   |   |   |   |   |   |   |   |   |   |   |   |   |   |   |   avg_length_sentences > 7.5: 0 (11.0/4.0)
|   |   |   |   |   |   |   |   |   |   |   |   |   |   |   |   |   past_tense_verb > 0
|   |   |   |   |   |   |   |   |   |   |   |   |   |   |   |   |   |   common_nouns <= 3: 4 (7.0/1.0)
|   |   |   |   |   |   |   |   |   |   |   |   |   |   |   |   |   |   common_nouns > 3: 0 (3.0)
|   |   |   |   |   |   |   |   |   |   |   |   |   |   |   |   commas > 2: 4 (5.0/1.0)
|   |   |   |   |   |   |   |   |   |   |   |   |   |   |   common_nouns > 5: 0 (15.0/2.0)
|   |   |   |   |   |   |   |   |   |   |   |   |   |   coord_conjunction > 0
|   |   |   |   |   |   |   |   |   |   |   |   |   |   |   avg_length_token <= 3.962963: 0 (19.0/3.0)
|   |   |   |   |   |   |   |   |   |   |   |   |   |   |   avg_length_token > 3.962963
|   |   |   |   |   |   |   |   |   |   |   |   |   |   |   |   common_nouns <= 3: 0 (3.0/1.0)
|   |   |   |   |   |   |   |   |   |   |   |   |   |   |   |   common_nouns > 3: 4 (5.0)
|   |   |   |   |   |   |   |   |   |   |   |   3rd_person > 0
|   |   |   |   |   |   |   |   |   |   |   |   |   avg_length_sentences <= 5.75: 4 (31.0/7.0)
|   |   |   |   |   |   |   |   |   |   |   |   |   avg_length_sentences > 5.75
|   |   |   |   |   |   |   |   |   |   |   |   |   |   num_sentences <= 1
|   |   |   |   |   |   |   |   |   |   |   |   |   |   |   1st_person <= 0
|   |   |   |   |   |   |   |   |   |   |   |   |   |   |   |   past_tense_verb <= 0: 0 (48.0/18.0)
|   |   |   |   |   |   |   |   |   |   |   |   |   |   |   |   past_tense_verb > 0
|   |   |   |   |   |   |   |   |   |   |   |   |   |   |   |   |   coord_conjunction <= 0
|   |   |   |   |   |   |   |   |   |   |   |   |   |   |   |   |   |   commas <= 1
|   |   |   |   |   |   |   |   |   |   |   |   |   |   |   |   |   |   |   avg_length_token <= 3.869565
|   |   |   |   |   |   |   |   |   |   |   |   |   |   |   |   |   |   |   |   avg_length_token <= 3.541667: 0 (8.0/3.0)
|   |   |   |   |   |   |   |   |   |   |   |   |   |   |   |   |   |   |   |   avg_length_token > 3.541667: 4 (5.0)
|   |   |   |   |   |   |   |   |   |   |   |   |   |   |   |   |   |   |   avg_length_token > 3.869565: 0 (5.0)
|   |   |   |   |   |   |   |   |   |   |   |   |   |   |   |   |   |   commas > 1: 4 (3.0)
|   |   |   |   |   |   |   |   |   |   |   |   |   |   |   |   |   coord_conjunction > 0: 0 (5.0/2.0)
|   |   |   |   |   |   |   |   |   |   |   |   |   |   |   1st_person > 0
|   |   |   |   |   |   |   |   |   |   |   |   |   |   |   |   modern_slang <= 0
|   |   |   |   |   |   |   |   |   |   |   |   |   |   |   |   |   coord_conjunction <= 1
|   |   |   |   |   |   |   |   |   |   |   |   |   |   |   |   |   |   past_tense_verb <= 0
|   |   |   |   |   |   |   |   |   |   |   |   |   |   |   |   |   |   |   avg_length_sentences <= 14.5
|   |   |   |   |   |   |   |   |   |   |   |   |   |   |   |   |   |   |   |   avg_length_token <= 3.055556: 0 (3.0)
|   |   |   |   |   |   |   |   |   |   |   |   |   |   |   |   |   |   |   |   avg_length_token > 3.055556: 4 (13.0/2.0)
|   |   |   |   |   |   |   |   |   |   |   |   |   |   |   |   |   |   |   avg_length_sentences > 14.5: 0 (5.0/1.0)
|   |   |   |   |   |   |   |   |   |   |   |   |   |   |   |   |   |   past_tense_verb > 0
|   |   |   |   |   |   |   |   |   |   |   |   |   |   |   |   |   |   |   common_nouns <= 4: 0 (7.0)
|   |   |   |   |   |   |   |   |   |   |   |   |   |   |   |   |   |   |   common_nouns > 4: 4 (2.0)
|   |   |   |   |   |   |   |   |   |   |   |   |   |   |   |   |   coord_conjunction > 1: 4 (2.0)
|   |   |   |   |   |   |   |   |   |   |   |   |   |   |   |   modern_slang > 0: 0 (2.0)
|   |   |   |   |   |   |   |   |   |   |   |   |   |   num_sentences > 1
|   |   |   |   |   |   |   |   |   |   |   |   |   |   |   commas <= 1
|   |   |   |   |   |   |   |   |   |   |   |   |   |   |   |   1st_person <= 0
|   |   |   |   |   |   |   |   |   |   |   |   |   |   |   |   |   common_nouns <= 5: 0 (6.0/1.0)
|   |   |   |   |   |   |   |   |   |   |   |   |   |   |   |   |   common_nouns > 5: 4 (3.0)
|   |   |   |   |   |   |   |   |   |   |   |   |   |   |   |   1st_person > 0: 4 (4.0/1.0)
|   |   |   |   |   |   |   |   |   |   |   |   |   |   |   commas > 1: 4 (3.0)
|   |   |   |   |   |   |   |   |   |   |   upper_case_words > 0
|   |   |   |   |   |   |   |   |   |   |   |   past_tense_verb <= 0
|   |   |   |   |   |   |   |   |   |   |   |   |   1st_person <= 0
|   |   |   |   |   |   |   |   |   |   |   |   |   |   avg_length_token <= 3.277778: 0 (23.0/8.0)
|   |   |   |   |   |   |   |   |   |   |   |   |   |   avg_length_token > 3.277778
|   |   |   |   |   |   |   |   |   |   |   |   |   |   |   3rd_person <= 0
|   |   |   |   |   |   |   |   |   |   |   |   |   |   |   |   num_sentences <= 1
|   |   |   |   |   |   |   |   |   |   |   |   |   |   |   |   |   coord_conjunction <= 0
|   |   |   |   |   |   |   |   |   |   |   |   |   |   |   |   |   |   upper_case_words <= 3
|   |   |   |   |   |   |   |   |   |   |   |   |   |   |   |   |   |   |   common_nouns <= 2: 4 (21.0/3.0)
|   |   |   |   |   |   |   |   |   |   |   |   |   |   |   |   |   |   |   common_nouns > 2
|   |   |   |   |   |   |   |   |   |   |   |   |   |   |   |   |   |   |   |   common_nouns <= 3
|   |   |   |   |   |   |   |   |   |   |   |   |   |   |   |   |   |   |   |   |   avg_length_sentences <= 6.5: 0 (4.0/1.0)
|   |   |   |   |   |   |   |   |   |   |   |   |   |   |   |   |   |   |   |   |   avg_length_sentences > 6.5: 4 (6.0)
|   |   |   |   |   |   |   |   |   |   |   |   |   |   |   |   |   |   |   |   common_nouns > 3
|   |   |   |   |   |   |   |   |   |   |   |   |   |   |   |   |   |   |   |   |   avg_length_token <= 3.842105: 0 (4.0)
|   |   |   |   |   |   |   |   |   |   |   |   |   |   |   |   |   |   |   |   |   avg_length_token > 3.842105: 4 (4.0)
|   |   |   |   |   |   |   |   |   |   |   |   |   |   |   |   |   |   upper_case_words > 3: 0 (6.0/2.0)
|   |   |   |   |   |   |   |   |   |   |   |   |   |   |   |   |   coord_conjunction > 0: 4 (3.0)
|   |   |   |   |   |   |   |   |   |   |   |   |   |   |   |   num_sentences > 1
|   |   |   |   |   |   |   |   |   |   |   |   |   |   |   |   |   avg_length_sentences <= 3.5: 0 (2.0)
|   |   |   |   |   |   |   |   |   |   |   |   |   |   |   |   |   avg_length_sentences > 3.5
|   |   |   |   |   |   |   |   |   |   |   |   |   |   |   |   |   |   avg_length_token <= 3.6: 0 (2.0)
|   |   |   |   |   |   |   |   |   |   |   |   |   |   |   |   |   |   avg_length_token > 3.6: 4 (7.0/1.0)
|   |   |   |   |   |   |   |   |   |   |   |   |   |   |   3rd_person > 0: 4 (8.0/1.0)
|   |   |   |   |   |   |   |   |   |   |   |   |   1st_person > 0
|   |   |   |   |   |   |   |   |   |   |   |   |   |   num_sentences <= 1: 0 (11.0/2.0)
|   |   |   |   |   |   |   |   |   |   |   |   |   |   num_sentences > 1: 4 (6.0/1.0)
|   |   |   |   |   |   |   |   |   |   |   |   past_tense_verb > 0
|   |   |   |   |   |   |   |   |   |   |   |   |   1st_person <= 0: 0 (14.0/3.0)
|   |   |   |   |   |   |   |   |   |   |   |   |   1st_person > 0: 4 (5.0)
|   |   |   |   |   |   |   |   |   |   future_tense_verb > 0
|   |   |   |   |   |   |   |   |   |   |   num_sentences <= 2
|   |   |   |   |   |   |   |   |   |   |   |   1st_person <= 0
|   |   |   |   |   |   |   |   |   |   |   |   |   future_tense_verb <= 2: 4 (26.0/5.0)
|   |   |   |   |   |   |   |   |   |   |   |   |   future_tense_verb > 2
|   |   |   |   |   |   |   |   |   |   |   |   |   |   num_sentences <= 1
|   |   |   |   |   |   |   |   |   |   |   |   |   |   |   avg_length_sentences <= 7.5: 4 (8.0)
|   |   |   |   |   |   |   |   |   |   |   |   |   |   |   avg_length_sentences > 7.5: 0 (19.0/7.0)
|   |   |   |   |   |   |   |   |   |   |   |   |   |   num_sentences > 1
|   |   |   |   |   |   |   |   |   |   |   |   |   |   |   common_nouns <= 5: 0 (4.0/1.0)
|   |   |   |   |   |   |   |   |   |   |   |   |   |   |   common_nouns > 5: 4 (2.0)
|   |   |   |   |   |   |   |   |   |   |   |   1st_person > 0
|   |   |   |   |   |   |   |   |   |   |   |   |   upper_case_words <= 2
|   |   |   |   |   |   |   |   |   |   |   |   |   |   3rd_person <= 0
|   |   |   |   |   |   |   |   |   |   |   |   |   |   |   num_sentences <= 1
|   |   |   |   |   |   |   |   |   |   |   |   |   |   |   |   common_nouns <= 1: 0 (7.0/2.0)
|   |   |   |   |   |   |   |   |   |   |   |   |   |   |   |   common_nouns > 1: 4 (16.0/4.0)
|   |   |   |   |   |   |   |   |   |   |   |   |   |   |   num_sentences > 1: 0 (3.0/1.0)
|   |   |   |   |   |   |   |   |   |   |   |   |   |   3rd_person > 0: 0 (3.0/1.0)
|   |   |   |   |   |   |   |   |   |   |   |   |   upper_case_words > 2: 0 (3.0)
|   |   |   |   |   |   |   |   |   |   |   num_sentences > 2
|   |   |   |   |   |   |   |   |   |   |   |   common_nouns <= 3: 4 (3.0/1.0)
|   |   |   |   |   |   |   |   |   |   |   |   common_nouns > 3: 0 (4.0)
|   |   |   |   |   |   |   |   |   ellipses > 0
|   |   |   |   |   |   |   |   |   |   commas <= 0
|   |   |   |   |   |   |   |   |   |   |   upper_case_words <= 0
|   |   |   |   |   |   |   |   |   |   |   |   ellipses <= 1: 0 (191.0/72.0)
|   |   |   |   |   |   |   |   |   |   |   |   ellipses > 1
|   |   |   |   |   |   |   |   |   |   |   |   |   avg_length_sentences <= 5.166667: 4 (11.0/3.0)
|   |   |   |   |   |   |   |   |   |   |   |   |   avg_length_sentences > 5.166667: 0 (17.0/4.0)
|   |   |   |   |   |   |   |   |   |   |   upper_case_words > 0
|   |   |   |   |   |   |   |   |   |   |   |   future_tense_verb <= 0
|   |   |   |   |   |   |   |   |   |   |   |   |   avg_length_token <= 3.55: 4 (10.0/1.0)
|   |   |   |   |   |   |   |   |   |   |   |   |   avg_length_token > 3.55: 0 (9.0/1.0)
|   |   |   |   |   |   |   |   |   |   |   |   future_tense_verb > 0: 0 (2.0)
|   |   |   |   |   |   |   |   |   |   commas > 0
|   |   |   |   |   |   |   |   |   |   |   future_tense_verb <= 0
|   |   |   |   |   |   |   |   |   |   |   |   avg_length_sentences <= 6.25: 4 (6.0)
|   |   |   |   |   |   |   |   |   |   |   |   avg_length_sentences > 6.25
|   |   |   |   |   |   |   |   |   |   |   |   |   past_tense_verb <= 1: 0 (15.0/5.0)
|   |   |   |   |   |   |   |   |   |   |   |   |   past_tense_verb > 1: 4 (2.0)
|   |   |   |   |   |   |   |   |   |   |   future_tense_verb > 0: 4 (2.0)
|   |   |   |   |   |   |   |   proper_nouns > 0
|   |   |   |   |   |   |   |   |   3rd_person <= 0
|   |   |   |   |   |   |   |   |   |   ellipses <= 0
|   |   |   |   |   |   |   |   |   |   |   future_tense_verb <= 0
|   |   |   |   |   |   |   |   |   |   |   |   proper_nouns <= 2
|   |   |   |   |   |   |   |   |   |   |   |   |   coord_conjunction <= 0
|   |   |   |   |   |   |   |   |   |   |   |   |   |   proper_nouns <= 1
|   |   |   |   |   |   |   |   |   |   |   |   |   |   |   avg_length_sentences <= 3.75: 4 (6.0)
|   |   |   |   |   |   |   |   |   |   |   |   |   |   |   avg_length_sentences > 3.75
|   |   |   |   |   |   |   |   |   |   |   |   |   |   |   |   1st_person <= 0
|   |   |   |   |   |   |   |   |   |   |   |   |   |   |   |   |   upper_case_words <= 1
|   |   |   |   |   |   |   |   |   |   |   |   |   |   |   |   |   |   commas <= 1: 4 (63.0/24.0)
|   |   |   |   |   |   |   |   |   |   |   |   |   |   |   |   |   |   commas > 1
|   |   |   |   |   |   |   |   |   |   |   |   |   |   |   |   |   |   |   num_sentences <= 1
|   |   |   |   |   |   |   |   |   |   |   |   |   |   |   |   |   |   |   |   common_nouns <= 2: 4 (2.0)
|   |   |   |   |   |   |   |   |   |   |   |   |   |   |   |   |   |   |   |   common_nouns > 2
|   |   |   |   |   |   |   |   |   |   |   |   |   |   |   |   |   |   |   |   |   upper_case_words <= 0: 0 (2.0)
|   |   |   |   |   |   |   |   |   |   |   |   |   |   |   |   |   |   |   |   |   upper_case_words > 0: 4 (3.0/1.0)
|   |   |   |   |   |   |   |   |   |   |   |   |   |   |   |   |   |   |   num_sentences > 1: 0 (2.0)
|   |   |   |   |   |   |   |   |   |   |   |   |   |   |   |   |   upper_case_words > 1: 0 (7.0/2.0)
|   |   |   |   |   |   |   |   |   |   |   |   |   |   |   |   1st_person > 0
|   |   |   |   |   |   |   |   |   |   |   |   |   |   |   |   |   num_sentences <= 1: 4 (24.0/7.0)
|   |   |   |   |   |   |   |   |   |   |   |   |   |   |   |   |   num_sentences > 1: 0 (5.0/1.0)
|   |   |   |   |   |   |   |   |   |   |   |   |   |   proper_nouns > 1
|   |   |   |   |   |   |   |   |   |   |   |   |   |   |   1st_person <= 0: 4 (21.0/6.0)
|   |   |   |   |   |   |   |   |   |   |   |   |   |   |   1st_person > 0
|   |   |   |   |   |   |   |   |   |   |   |   |   |   |   |   upper_case_words <= 0
|   |   |   |   |   |   |   |   |   |   |   |   |   |   |   |   |   avg_length_token <= 3.592593: 4 (2.0)
|   |   |   |   |   |   |   |   |   |   |   |   |   |   |   |   |   avg_length_token > 3.592593: 0 (4.0)
|   |   |   |   |   |   |   |   |   |   |   |   |   |   |   |   upper_case_words > 0: 4 (2.0)
|   |   |   |   |   |   |   |   |   |   |   |   |   coord_conjunction > 0
|   |   |   |   |   |   |   |   |   |   |   |   |   |   avg_length_token <= 3.322581: 0 (11.0/2.0)
|   |   |   |   |   |   |   |   |   |   |   |   |   |   avg_length_token > 3.322581
|   |   |   |   |   |   |   |   |   |   |   |   |   |   |   commas <= 1
|   |   |   |   |   |   |   |   |   |   |   |   |   |   |   |   avg_length_token <= 3.689655: 4 (12.0/1.0)
|   |   |   |   |   |   |   |   |   |   |   |   |   |   |   |   avg_length_token > 3.689655
|   |   |   |   |   |   |   |   |   |   |   |   |   |   |   |   |   proper_nouns <= 1
|   |   |   |   |   |   |   |   |   |   |   |   |   |   |   |   |   |   common_nouns <= 1: 0 (2.0)
|   |   |   |   |   |   |   |   |   |   |   |   |   |   |   |   |   |   common_nouns > 1
|   |   |   |   |   |   |   |   |   |   |   |   |   |   |   |   |   |   |   common_nouns <= 3
|   |   |   |   |   |   |   |   |   |   |   |   |   |   |   |   |   |   |   |   avg_length_sentences <= 13.5: 4 (6.0/2.0)
|   |   |   |   |   |   |   |   |   |   |   |   |   |   |   |   |   |   |   |   avg_length_sentences > 13.5: 0 (2.0)
|   |   |   |   |   |   |   |   |   |   |   |   |   |   |   |   |   |   |   common_nouns > 3: 4 (2.0)
|   |   |   |   |   |   |   |   |   |   |   |   |   |   |   |   |   proper_nouns > 1: 0 (5.0)
|   |   |   |   |   |   |   |   |   |   |   |   |   |   |   commas > 1: 4 (6.0)
|   |   |   |   |   |   |   |   |   |   |   |   proper_nouns > 2: 4 (15.0/3.0)
|   |   |   |   |   |   |   |   |   |   |   future_tense_verb > 0
|   |   |   |   |   |   |   |   |   |   |   |   commas <= 1: 4 (14.0/3.0)
|   |   |   |   |   |   |   |   |   |   |   |   commas > 1: 0 (3.0/1.0)
|   |   |   |   |   |   |   |   |   |   ellipses > 0
|   |   |   |   |   |   |   |   |   |   |   upper_case_words <= 0
|   |   |   |   |   |   |   |   |   |   |   |   ellipses <= 3: 0 (26.0/10.0)
|   |   |   |   |   |   |   |   |   |   |   |   ellipses > 3: 4 (2.0)
|   |   |   |   |   |   |   |   |   |   |   upper_case_words > 0
|   |   |   |   |   |   |   |   |   |   |   |   avg_length_token <= 3.482759: 0 (2.0)
|   |   |   |   |   |   |   |   |   |   |   |   avg_length_token > 3.482759: 4 (6.0)
|   |   |   |   |   |   |   |   |   3rd_person > 0
|   |   |   |   |   |   |   |   |   |   upper_case_words <= 0
|   |   |   |   |   |   |   |   |   |   |   past_tense_verb <= 1
|   |   |   |   |   |   |   |   |   |   |   |   future_tense_verb <= 2
|   |   |   |   |   |   |   |   |   |   |   |   |   future_tense_verb <= 0
|   |   |   |   |   |   |   |   |   |   |   |   |   |   past_tense_verb <= 0
|   |   |   |   |   |   |   |   |   |   |   |   |   |   |   1st_person <= 0
|   |   |   |   |   |   |   |   |   |   |   |   |   |   |   |   coord_conjunction <= 1
|   |   |   |   |   |   |   |   |   |   |   |   |   |   |   |   |   coord_conjunction <= 0
|   |   |   |   |   |   |   |   |   |   |   |   |   |   |   |   |   |   commas <= 3: 0 (8.0/2.0)
|   |   |   |   |   |   |   |   |   |   |   |   |   |   |   |   |   |   commas > 3: 4 (2.0)
|   |   |   |   |   |   |   |   |   |   |   |   |   |   |   |   |   coord_conjunction > 0: 4 (4.0)
|   |   |   |   |   |   |   |   |   |   |   |   |   |   |   |   coord_conjunction > 1: 0 (2.0)
|   |   |   |   |   |   |   |   |   |   |   |   |   |   |   1st_person > 0: 4 (2.0)
|   |   |   |   |   |   |   |   |   |   |   |   |   |   past_tense_verb > 0: 0 (10.0/1.0)
|   |   |   |   |   |   |   |   |   |   |   |   |   future_tense_verb > 0: 0 (3.0)
|   |   |   |   |   |   |   |   |   |   |   |   future_tense_verb > 2: 4 (3.0)
|   |   |   |   |   |   |   |   |   |   |   past_tense_verb > 1: 4 (3.0)
|   |   |   |   |   |   |   |   |   |   upper_case_words > 0: 0 (8.0/1.0)
|   |   |   |   |   |   |   dashes > 0
|   |   |   |   |   |   |   |   avg_length_token <= 3.85
|   |   |   |   |   |   |   |   |   commas <= 1
|   |   |   |   |   |   |   |   |   |   past_tense_verb <= 0
|   |   |   |   |   |   |   |   |   |   |   3rd_person <= 0
|   |   |   |   |   |   |   |   |   |   |   |   upper_case_words <= 0
|   |   |   |   |   |   |   |   |   |   |   |   |   num_sentences <= 1
|   |   |   |   |   |   |   |   |   |   |   |   |   |   proper_nouns <= 1
|   |   |   |   |   |   |   |   |   |   |   |   |   |   |   dashes <= 1
|   |   |   |   |   |   |   |   |   |   |   |   |   |   |   |   1st_person <= 0
|   |   |   |   |   |   |   |   |   |   |   |   |   |   |   |   |   proper_nouns <= 0
|   |   |   |   |   |   |   |   |   |   |   |   |   |   |   |   |   |   avg_length_sentences <= 5: 4 (3.0)
|   |   |   |   |   |   |   |   |   |   |   |   |   |   |   |   |   |   avg_length_sentences > 5
|   |   |   |   |   |   |   |   |   |   |   |   |   |   |   |   |   |   |   avg_length_token <= 3.44: 0 (7.0)
|   |   |   |   |   |   |   |   |   |   |   |   |   |   |   |   |   |   |   avg_length_token > 3.44
|   |   |   |   |   |   |   |   |   |   |   |   |   |   |   |   |   |   |   |   avg_length_sentences <= 11.5: 4 (6.0/1.0)
|   |   |   |   |   |   |   |   |   |   |   |   |   |   |   |   |   |   |   |   avg_length_sentences > 11.5: 0 (2.0)
|   |   |   |   |   |   |   |   |   |   |   |   |   |   |   |   |   proper_nouns > 0: 4 (2.0)
|   |   |   |   |   |   |   |   |   |   |   |   |   |   |   |   1st_person > 0: 0 (3.0)
|   |   |   |   |   |   |   |   |   |   |   |   |   |   |   dashes > 1: 4 (2.0)
|   |   |   |   |   |   |   |   |   |   |   |   |   |   proper_nouns > 1: 0 (2.0)
|   |   |   |   |   |   |   |   |   |   |   |   |   num_sentences > 1: 0 (7.0/1.0)
|   |   |   |   |   |   |   |   |   |   |   |   upper_case_words > 0: 0 (4.0/2.0)
|   |   |   |   |   |   |   |   |   |   |   3rd_person > 0
|   |   |   |   |   |   |   |   |   |   |   |   1st_person <= 0
|   |   |   |   |   |   |   |   |   |   |   |   |   avg_length_sentences <= 12.5: 4 (6.0/2.0)
|   |   |   |   |   |   |   |   |   |   |   |   |   avg_length_sentences > 12.5: 0 (2.0)
|   |   |   |   |   |   |   |   |   |   |   |   1st_person > 0: 4 (4.0)
|   |   |   |   |   |   |   |   |   |   past_tense_verb > 0: 0 (9.0/1.0)
|   |   |   |   |   |   |   |   |   commas > 1
|   |   |   |   |   |   |   |   |   |   commas <= 3
|   |   |   |   |   |   |   |   |   |   |   avg_length_token <= 3.0625: 0 (2.0)
|   |   |   |   |   |   |   |   |   |   |   avg_length_token > 3.0625: 4 (8.0)
|   |   |   |   |   |   |   |   |   |   commas > 3: 0 (3.0/1.0)
|   |   |   |   |   |   |   |   avg_length_token > 3.85
|   |   |   |   |   |   |   |   |   parentheses <= 1: 4 (35.0/4.0)
|   |   |   |   |   |   |   |   |   parentheses > 1: 0 (3.0/1.0)
|   |   |   |   |   |   3rd_person > 1
|   |   |   |   |   |   |   coord_conjunction <= 1: 4 (46.0/14.0)
|   |   |   |   |   |   |   coord_conjunction > 1: 0 (5.0/1.0)
|   |   |   |   |   wh_words > 0
|   |   |   |   |   |   commas <= 0
|   |   |   |   |   |   |   proper_nouns <= 0
|   |   |   |   |   |   |   |   upper_case_words <= 2
|   |   |   |   |   |   |   |   |   upper_case_words <= 0
|   |   |   |   |   |   |   |   |   |   3rd_person <= 0
|   |   |   |   |   |   |   |   |   |   |   ellipses <= 0: 0 (95.0/24.0)
|   |   |   |   |   |   |   |   |   |   |   ellipses > 0
|   |   |   |   |   |   |   |   |   |   |   |   past_tense_verb <= 0: 4 (10.0/3.0)
|   |   |   |   |   |   |   |   |   |   |   |   past_tense_verb > 0: 0 (4.0)
|   |   |   |   |   |   |   |   |   |   3rd_person > 0
|   |   |   |   |   |   |   |   |   |   |   future_tense_verb <= 0
|   |   |   |   |   |   |   |   |   |   |   |   past_tense_verb <= 1
|   |   |   |   |   |   |   |   |   |   |   |   |   coord_conjunction <= 0: 4 (13.0/5.0)
|   |   |   |   |   |   |   |   |   |   |   |   |   coord_conjunction > 0: 0 (6.0/1.0)
|   |   |   |   |   |   |   |   |   |   |   |   past_tense_verb > 1: 4 (2.0)
|   |   |   |   |   |   |   |   |   |   |   future_tense_verb > 0: 0 (3.0)
|   |   |   |   |   |   |   |   |   upper_case_words > 0
|   |   |   |   |   |   |   |   |   |   3rd_person <= 0: 4 (8.0/2.0)
|   |   |   |   |   |   |   |   |   |   3rd_person > 0
|   |   |   |   |   |   |   |   |   |   |   past_tense_verb <= 1: 4 (2.0)
|   |   |   |   |   |   |   |   |   |   |   past_tense_verb > 1: 0 (2.0)
|   |   |   |   |   |   |   |   upper_case_words > 2: 0 (8.0)
|   |   |   |   |   |   |   proper_nouns > 0
|   |   |   |   |   |   |   |   future_tense_verb <= 0
|   |   |   |   |   |   |   |   |   num_sentences <= 1: 4 (10.0/2.0)
|   |   |   |   |   |   |   |   |   num_sentences > 1: 0 (8.0/1.0)
|   |   |   |   |   |   |   |   future_tense_verb > 0: 4 (5.0/2.0)
|   |   |   |   |   |   commas > 0
|   |   |   |   |   |   |   modern_slang <= 0
|   |   |   |   |   |   |   |   avg_length_token <= 3.565217
|   |   |   |   |   |   |   |   |   wh_words <= 1: 4 (13.0/1.0)
|   |   |   |   |   |   |   |   |   wh_words > 1: 0 (3.0/1.0)
|   |   |   |   |   |   |   |   avg_length_token > 3.565217
|   |   |   |   |   |   |   |   |   dashes <= 0
|   |   |   |   |   |   |   |   |   |   1st_person <= 0
|   |   |   |   |   |   |   |   |   |   |   3rd_person <= 0: 4 (3.0)
|   |   |   |   |   |   |   |   |   |   |   3rd_person > 0: 0 (4.0/1.0)
|   |   |   |   |   |   |   |   |   |   1st_person > 0: 0 (7.0)
|   |   |   |   |   |   |   |   |   dashes > 0: 4 (2.0)
|   |   |   |   |   |   |   modern_slang > 0: 0 (2.0)
|   |   |   |   1st_person > 1
|   |   |   |   |   1st_person <= 2
|   |   |   |   |   |   commas <= 1
|   |   |   |   |   |   |   3rd_person <= 0
|   |   |   |   |   |   |   |   wh_words <= 0
|   |   |   |   |   |   |   |   |   past_tense_verb <= 0
|   |   |   |   |   |   |   |   |   |   coord_conjunction <= 0
|   |   |   |   |   |   |   |   |   |   |   parentheses <= 0
|   |   |   |   |   |   |   |   |   |   |   |   upper_case_words <= 0
|   |   |   |   |   |   |   |   |   |   |   |   |   num_sentences <= 1
|   |   |   |   |   |   |   |   |   |   |   |   |   |   proper_nouns <= 0
|   |   |   |   |   |   |   |   |   |   |   |   |   |   |   avg_length_token <= 3.642857
|   |   |   |   |   |   |   |   |   |   |   |   |   |   |   |   avg_length_sentences <= 6.5: 4 (3.0)
|   |   |   |   |   |   |   |   |   |   |   |   |   |   |   |   avg_length_sentences > 6.5: 0 (15.0/1.0)
|   |   |   |   |   |   |   |   |   |   |   |   |   |   |   avg_length_token > 3.642857: 4 (10.0/4.0)
|   |   |   |   |   |   |   |   |   |   |   |   |   |   proper_nouns > 0: 0 (3.0)
|   |   |   |   |   |   |   |   |   |   |   |   |   num_sentences > 1
|   |   |   |   |   |   |   |   |   |   |   |   |   |   avg_length_sentences <= 9: 4 (7.0/1.0)
|   |   |   |   |   |   |   |   |   |   |   |   |   |   avg_length_sentences > 9: 0 (2.0)
|   |   |   |   |   |   |   |   |   |   |   |   upper_case_words > 0
|   |   |   |   |   |   |   |   |   |   |   |   |   common_nouns <= 1: 0 (2.0)
|   |   |   |   |   |   |   |   |   |   |   |   |   common_nouns > 1: 4 (4.0)
|   |   |   |   |   |   |   |   |   |   |   parentheses > 0: 4 (2.0)
|   |   |   |   |   |   |   |   |   |   coord_conjunction > 0: 0 (17.0/3.0)
|   |   |   |   |   |   |   |   |   past_tense_verb > 0
|   |   |   |   |   |   |   |   |   |   avg_length_sentences <= 14.5: 0 (29.0/1.0)
|   |   |   |   |   |   |   |   |   |   avg_length_sentences > 14.5
|   |   |   |   |   |   |   |   |   |   |   coord_conjunction <= 0: 0 (3.0/1.0)
|   |   |   |   |   |   |   |   |   |   |   coord_conjunction > 0: 4 (2.0)
|   |   |   |   |   |   |   |   wh_words > 0: 0 (13.0)
|   |   |   |   |   |   |   3rd_person > 0
|   |   |   |   |   |   |   |   parentheses <= 1
|   |   |   |   |   |   |   |   |   past_tense_verb <= 1
|   |   |   |   |   |   |   |   |   |   past_tense_verb <= 0
|   |   |   |   |   |   |   |   |   |   |   coord_conjunction <= 0: 4 (7.0/1.0)
|   |   |   |   |   |   |   |   |   |   |   coord_conjunction > 0
|   |   |   |   |   |   |   |   |   |   |   |   proper_nouns <= 1: 0 (6.0/1.0)
|   |   |   |   |   |   |   |   |   |   |   |   proper_nouns > 1: 4 (2.0)
|   |   |   |   |   |   |   |   |   |   past_tense_verb > 0
|   |   |   |   |   |   |   |   |   |   |   num_sentences <= 1: 0 (5.0)
|   |   |   |   |   |   |   |   |   |   |   num_sentences > 1: 4 (3.0/1.0)
|   |   |   |   |   |   |   |   |   past_tense_verb > 1: 4 (4.0/1.0)
|   |   |   |   |   |   |   |   parentheses > 1: 0 (3.0)
|   |   |   |   |   |   commas > 1
|   |   |   |   |   |   |   wh_words <= 0
|   |   |   |   |   |   |   |   common_nouns <= 1: 0 (4.0)
|   |   |   |   |   |   |   |   common_nouns > 1
|   |   |   |   |   |   |   |   |   upper_case_words <= 1
|   |   |   |   |   |   |   |   |   |   upper_case_words <= 0
|   |   |   |   |   |   |   |   |   |   |   proper_nouns <= 0
|   |   |   |   |   |   |   |   |   |   |   |   num_sentences <= 3
|   |   |   |   |   |   |   |   |   |   |   |   |   coord_conjunction <= 0
|   |   |   |   |   |   |   |   |   |   |   |   |   |   3rd_person <= 0: 4 (8.0/1.0)
|   |   |   |   |   |   |   |   |   |   |   |   |   |   3rd_person > 0: 0 (5.0/2.0)
|   |   |   |   |   |   |   |   |   |   |   |   |   coord_conjunction > 0: 0 (10.0/1.0)
|   |   |   |   |   |   |   |   |   |   |   |   num_sentences > 3: 4 (2.0)
|   |   |   |   |   |   |   |   |   |   |   proper_nouns > 0: 4 (10.0/2.0)
|   |   |   |   |   |   |   |   |   |   upper_case_words > 0: 4 (6.0)
|   |   |   |   |   |   |   |   |   upper_case_words > 1: 0 (4.0/1.0)
|   |   |   |   |   |   |   wh_words > 0
|   |   |   |   |   |   |   |   coord_conjunction <= 0
|   |   |   |   |   |   |   |   |   common_nouns <= 2: 4 (3.0)
|   |   |   |   |   |   |   |   |   common_nouns > 2: 0 (2.0)
|   |   |   |   |   |   |   |   coord_conjunction > 0: 4 (3.0)
|   |   |   |   |   1st_person > 2: 0 (61.0/14.0)
|   |   adverbs > 0
|   |   |   parentheses <= 0
|   |   |   |   dashes <= 0
|   |   |   |   |   avg_length_token <= 3.5625
|   |   |   |   |   |   wh_words <= 0
|   |   |   |   |   |   |   1st_person <= 3
|   |   |   |   |   |   |   |   3rd_person <= 0
|   |   |   |   |   |   |   |   |   commas <= 3
|   |   |   |   |   |   |   |   |   |   ellipses <= 1
|   |   |   |   |   |   |   |   |   |   |   upper_case_words <= 1
|   |   |   |   |   |   |   |   |   |   |   |   upper_case_words <= 0
|   |   |   |   |   |   |   |   |   |   |   |   |   proper_nouns <= 0
|   |   |   |   |   |   |   |   |   |   |   |   |   |   adverbs <= 2
|   |   |   |   |   |   |   |   |   |   |   |   |   |   |   commas <= 0
|   |   |   |   |   |   |   |   |   |   |   |   |   |   |   |   common_nouns <= 5
|   |   |   |   |   |   |   |   |   |   |   |   |   |   |   |   |   adverbs <= 1
|   |   |   |   |   |   |   |   |   |   |   |   |   |   |   |   |   |   ellipses <= 0
|   |   |   |   |   |   |   |   |   |   |   |   |   |   |   |   |   |   |   num_sentences <= 1
|   |   |   |   |   |   |   |   |   |   |   |   |   |   |   |   |   |   |   |   past_tense_verb <= 0: 0 (187.0/41.0)
|   |   |   |   |   |   |   |   |   |   |   |   |   |   |   |   |   |   |   |   past_tense_verb > 0
|   |   |   |   |   |   |   |   |   |   |   |   |   |   |   |   |   |   |   |   |   modern_slang <= 0
|   |   |   |   |   |   |   |   |   |   |   |   |   |   |   |   |   |   |   |   |   |   common_nouns <= 1
|   |   |   |   |   |   |   |   |   |   |   |   |   |   |   |   |   |   |   |   |   |   |   avg_length_sentences <= 4.5: 4 (2.0)
|   |   |   |   |   |   |   |   |   |   |   |   |   |   |   |   |   |   |   |   |   |   |   avg_length_sentences > 4.5: 0 (23.0/3.0)
|   |   |   |   |   |   |   |   |   |   |   |   |   |   |   |   |   |   |   |   |   |   common_nouns > 1
|   |   |   |   |   |   |   |   |   |   |   |   |   |   |   |   |   |   |   |   |   |   |   coord_conjunction <= 0
|   |   |   |   |   |   |   |   |   |   |   |   |   |   |   |   |   |   |   |   |   |   |   |   avg_length_token <= 2.894737: 4 (3.0)
|   |   |   |   |   |   |   |   |   |   |   |   |   |   |   |   |   |   |   |   |   |   |   |   avg_length_token > 2.894737
|   |   |   |   |   |   |   |   |   |   |   |   |   |   |   |   |   |   |   |   |   |   |   |   |   1st_person <= 0: 0 (7.0/1.0)
|   |   |   |   |   |   |   |   |   |   |   |   |   |   |   |   |   |   |   |   |   |   |   |   |   1st_person > 0
|   |   |   |   |   |   |   |   |   |   |   |   |   |   |   |   |   |   |   |   |   |   |   |   |   |   avg_length_sentences <= 9.5: 0 (2.0)
|   |   |   |   |   |   |   |   |   |   |   |   |   |   |   |   |   |   |   |   |   |   |   |   |   |   avg_length_sentences > 9.5: 4 (4.0/1.0)
|   |   |   |   |   |   |   |   |   |   |   |   |   |   |   |   |   |   |   |   |   |   |   coord_conjunction > 0: 4 (5.0/2.0)
|   |   |   |   |   |   |   |   |   |   |   |   |   |   |   |   |   |   |   |   |   modern_slang > 0: 4 (4.0/1.0)
|   |   |   |   |   |   |   |   |   |   |   |   |   |   |   |   |   |   |   num_sentences > 1
|   |   |   |   |   |   |   |   |   |   |   |   |   |   |   |   |   |   |   |   past_tense_verb <= 0
|   |   |   |   |   |   |   |   |   |   |   |   |   |   |   |   |   |   |   |   |   avg_length_sentences <= 7.25
|   |   |   |   |   |   |   |   |   |   |   |   |   |   |   |   |   |   |   |   |   |   1st_person <= 0
|   |   |   |   |   |   |   |   |   |   |   |   |   |   |   |   |   |   |   |   |   |   |   common_nouns <= 2: 0 (8.0/2.0)
|   |   |   |   |   |   |   |   |   |   |   |   |   |   |   |   |   |   |   |   |   |   |   common_nouns > 2: 4 (6.0/1.0)
|   |   |   |   |   |   |   |   |   |   |   |   |   |   |   |   |   |   |   |   |   |   1st_person > 0: 4 (9.0/1.0)
|   |   |   |   |   |   |   |   |   |   |   |   |   |   |   |   |   |   |   |   |   avg_length_sentences > 7.25: 0 (4.0)
|   |   |   |   |   |   |   |   |   |   |   |   |   |   |   |   |   |   |   |   past_tense_verb > 0
|   |   |   |   |   |   |   |   |   |   |   |   |   |   |   |   |   |   |   |   |   avg_length_sentences <= 7.333333: 0 (18.0)
|   |   |   |   |   |   |   |   |   |   |   |   |   |   |   |   |   |   |   |   |   avg_length_sentences > 7.333333
|   |   |   |   |   |   |   |   |   |   |   |   |   |   |   |   |   |   |   |   |   |   avg_length_token <= 3.241379: 4 (2.0)
|   |   |   |   |   |   |   |   |   |   |   |   |   |   |   |   |   |   |   |   |   |   avg_length_token > 3.241379: 0 (3.0)
|   |   |   |   |   |   |   |   |   |   |   |   |   |   |   |   |   |   ellipses > 0: 0 (64.0/11.0)
|   |   |   |   |   |   |   |   |   |   |   |   |   |   |   |   |   adverbs > 1
|   |   |   |   |   |   |   |   |   |   |   |   |   |   |   |   |   |   1st_person <= 0
|   |   |   |   |   |   |   |   |   |   |   |   |   |   |   |   |   |   |   past_tense_verb <= 0: 0 (45.0/7.0)
|   |   |   |   |   |   |   |   |   |   |   |   |   |   |   |   |   |   |   past_tense_verb > 0
|   |   |   |   |   |   |   |   |   |   |   |   |   |   |   |   |   |   |   |   past_tense_verb <= 1
|   |   |   |   |   |   |   |   |   |   |   |   |   |   |   |   |   |   |   |   |   avg_length_token <= 3.225806: 0 (4.0)
|   |   |   |   |   |   |   |   |   |   |   |   |   |   |   |   |   |   |   |   |   avg_length_token > 3.225806: 4 (11.0/2.0)
|   |   |   |   |   |   |   |   |   |   |   |   |   |   |   |   |   |   |   |   past_tense_verb > 1: 0 (3.0)
|   |   |   |   |   |   |   |   |   |   |   |   |   |   |   |   |   |   1st_person > 0: 0 (52.0/5.0)
|   |   |   |   |   |   |   |   |   |   |   |   |   |   |   |   common_nouns > 5
|   |   |   |   |   |   |   |   |   |   |   |   |   |   |   |   |   1st_person <= 1
|   |   |   |   |   |   |   |   |   |   |   |   |   |   |   |   |   |   modern_slang <= 0
|   |   |   |   |   |   |   |   |   |   |   |   |   |   |   |   |   |   |   avg_length_sentences <= 8.5: 4 (3.0/1.0)
|   |   |   |   |   |   |   |   |   |   |   |   |   |   |   |   |   |   |   avg_length_sentences > 8.5: 0 (16.0/1.0)
|   |   |   |   |   |   |   |   |   |   |   |   |   |   |   |   |   |   modern_slang > 0
|   |   |   |   |   |   |   |   |   |   |   |   |   |   |   |   |   |   |   common_nouns <= 7: 4 (4.0)
|   |   |   |   |   |   |   |   |   |   |   |   |   |   |   |   |   |   |   common_nouns > 7: 0 (4.0)
|   |   |   |   |   |   |   |   |   |   |   |   |   |   |   |   |   1st_person > 1
|   |   |   |   |   |   |   |   |   |   |   |   |   |   |   |   |   |   avg_length_token <= 3.454545: 4 (9.0/1.0)
|   |   |   |   |   |   |   |   |   |   |   |   |   |   |   |   |   |   avg_length_token > 3.454545: 0 (3.0/1.0)
|   |   |   |   |   |   |   |   |   |   |   |   |   |   |   commas > 0
|   |   |   |   |   |   |   |   |   |   |   |   |   |   |   |   modern_slang <= 0: 0 (59.0/16.0)
|   |   |   |   |   |   |   |   |   |   |   |   |   |   |   |   modern_slang > 0
|   |   |   |   |   |   |   |   |   |   |   |   |   |   |   |   |   1st_person <= 2: 4 (10.0/1.0)
|   |   |   |   |   |   |   |   |   |   |   |   |   |   |   |   |   1st_person > 2: 0 (3.0)
|   |   |   |   |   |   |   |   |   |   |   |   |   |   adverbs > 2
|   |   |   |   |   |   |   |   |   |   |   |   |   |   |   num_sentences <= 2: 0 (52.0/3.0)
|   |   |   |   |   |   |   |   |   |   |   |   |   |   |   num_sentences > 2
|   |   |   |   |   |   |   |   |   |   |   |   |   |   |   |   commas <= 1
|   |   |   |   |   |   |   |   |   |   |   |   |   |   |   |   |   common_nouns <= 3: 0 (3.0)
|   |   |   |   |   |   |   |   |   |   |   |   |   |   |   |   |   common_nouns > 3
|   |   |   |   |   |   |   |   |   |   |   |   |   |   |   |   |   |   avg_length_token <= 3.541667: 4 (5.0)
|   |   |   |   |   |   |   |   |   |   |   |   |   |   |   |   |   |   avg_length_token > 3.541667: 0 (2.0)
|   |   |   |   |   |   |   |   |   |   |   |   |   |   |   |   commas > 1: 0 (3.0)
|   |   |   |   |   |   |   |   |   |   |   |   |   proper_nouns > 0
|   |   |   |   |   |   |   |   |   |   |   |   |   |   coord_conjunction <= 0
|   |   |   |   |   |   |   |   |   |   |   |   |   |   |   avg_length_sentences <= 6.5
|   |   |   |   |   |   |   |   |   |   |   |   |   |   |   |   avg_length_token <= 3.428571: 0 (11.0)
|   |   |   |   |   |   |   |   |   |   |   |   |   |   |   |   avg_length_token > 3.428571
|   |   |   |   |   |   |   |   |   |   |   |   |   |   |   |   |   common_nouns <= 3: 4 (2.0)
|   |   |   |   |   |   |   |   |   |   |   |   |   |   |   |   |   common_nouns > 3: 0 (2.0)
|   |   |   |   |   |   |   |   |   |   |   |   |   |   |   avg_length_sentences > 6.5
|   |   |   |   |   |   |   |   |   |   |   |   |   |   |   |   future_tense_verb <= 0
|   |   |   |   |   |   |   |   |   |   |   |   |   |   |   |   |   common_nouns <= 5
|   |   |   |   |   |   |   |   |   |   |   |   |   |   |   |   |   |   proper_nouns <= 1
|   |   |   |   |   |   |   |   |   |   |   |   |   |   |   |   |   |   |   past_tense_verb <= 1
|   |   |   |   |   |   |   |   |   |   |   |   |   |   |   |   |   |   |   |   past_tense_verb <= 0
|   |   |   |   |   |   |   |   |   |   |   |   |   |   |   |   |   |   |   |   |   num_sentences <= 1
|   |   |   |   |   |   |   |   |   |   |   |   |   |   |   |   |   |   |   |   |   |   1st_person <= 0
|   |   |   |   |   |   |   |   |   |   |   |   |   |   |   |   |   |   |   |   |   |   |   modern_slang <= 0: 0 (12.0/2.0)
|   |   |   |   |   |   |   |   |   |   |   |   |   |   |   |   |   |   |   |   |   |   |   modern_slang > 0: 4 (3.0/1.0)
|   |   |   |   |   |   |   |   |   |   |   |   |   |   |   |   |   |   |   |   |   |   1st_person > 0
|   |   |   |   |   |   |   |   |   |   |   |   |   |   |   |   |   |   |   |   |   |   |   modern_slang <= 0: 4 (7.0/2.0)
|   |   |   |   |   |   |   |   |   |   |   |   |   |   |   |   |   |   |   |   |   |   |   modern_slang > 0: 0 (2.0)
|   |   |   |   |   |   |   |   |   |   |   |   |   |   |   |   |   |   |   |   |   num_sentences > 1
|   |   |   |   |   |   |   |   |   |   |   |   |   |   |   |   |   |   |   |   |   |   avg_length_token <= 3.28: 4 (2.0)
|   |   |   |   |   |   |   |   |   |   |   |   |   |   |   |   |   |   |   |   |   |   avg_length_token > 3.28: 0 (2.0)
|   |   |   |   |   |   |   |   |   |   |   |   |   |   |   |   |   |   |   |   past_tense_verb > 0
|   |   |   |   |   |   |   |   |   |   |   |   |   |   |   |   |   |   |   |   |   common_nouns <= 1: 0 (2.0)
|   |   |   |   |   |   |   |   |   |   |   |   |   |   |   |   |   |   |   |   |   common_nouns > 1: 4 (2.0)
|   |   |   |   |   |   |   |   |   |   |   |   |   |   |   |   |   |   |   past_tense_verb > 1: 0 (2.0)
|   |   |   |   |   |   |   |   |   |   |   |   |   |   |   |   |   |   proper_nouns > 1
|   |   |   |   |   |   |   |   |   |   |   |   |   |   |   |   |   |   |   1st_person <= 1
|   |   |   |   |   |   |   |   |   |   |   |   |   |   |   |   |   |   |   |   avg_length_token <= 3.545455: 0 (5.0/1.0)
|   |   |   |   |   |   |   |   |   |   |   |   |   |   |   |   |   |   |   |   avg_length_token > 3.545455: 4 (2.0)
|   |   |   |   |   |   |   |   |   |   |   |   |   |   |   |   |   |   |   1st_person > 1: 4 (2.0)
|   |   |   |   |   |   |   |   |   |   |   |   |   |   |   |   |   common_nouns > 5: 4 (3.0)
|   |   |   |   |   |   |   |   |   |   |   |   |   |   |   |   future_tense_verb > 0: 4 (6.0/1.0)
|   |   |   |   |   |   |   |   |   |   |   |   |   |   coord_conjunction > 0: 0 (22.0/3.0)
|   |   |   |   |   |   |   |   |   |   |   |   upper_case_words > 0
|   |   |   |   |   |   |   |   |   |   |   |   |   proper_nouns <= 0
|   |   |   |   |   |   |   |   |   |   |   |   |   |   1st_person <= 1
|   |   |   |   |   |   |   |   |   |   |   |   |   |   |   past_tense_verb <= 0
|   |   |   |   |   |   |   |   |   |   |   |   |   |   |   |   common_nouns <= 1: 4 (9.0/2.0)
|   |   |   |   |   |   |   |   |   |   |   |   |   |   |   |   common_nouns > 1
|   |   |   |   |   |   |   |   |   |   |   |   |   |   |   |   |   num_sentences <= 3: 0 (26.0/10.0)
|   |   |   |   |   |   |   |   |   |   |   |   |   |   |   |   |   num_sentences > 3: 4 (2.0)
|   |   |   |   |   |   |   |   |   |   |   |   |   |   |   past_tense_verb > 0
|   |   |   |   |   |   |   |   |   |   |   |   |   |   |   |   common_nouns <= 4: 0 (9.0)
|   |   |   |   |   |   |   |   |   |   |   |   |   |   |   |   common_nouns > 4: 4 (5.0/1.0)
|   |   |   |   |   |   |   |   |   |   |   |   |   |   1st_person > 1: 0 (14.0/2.0)
|   |   |   |   |   |   |   |   |   |   |   |   |   proper_nouns > 0
|   |   |   |   |   |   |   |   |   |   |   |   |   |   avg_length_token <= 3.541667
|   |   |   |   |   |   |   |   |   |   |   |   |   |   |   common_nouns <= 4: 0 (15.0)
|   |   |   |   |   |   |   |   |   |   |   |   |   |   |   common_nouns > 4
|   |   |   |   |   |   |   |   |   |   |   |   |   |   |   |   modern_slang <= 0: 0 (4.0)
|   |   |   |   |   |   |   |   |   |   |   |   |   |   |   |   modern_slang > 0: 4 (2.0)
|   |   |   |   |   |   |   |   |   |   |   |   |   |   avg_length_token > 3.541667: 4 (3.0/1.0)
|   |   |   |   |   |   |   |   |   |   |   upper_case_words > 1
|   |   |   |   |   |   |   |   |   |   |   |   num_sentences <= 2
|   |   |   |   |   |   |   |   |   |   |   |   |   1st_person <= 1
|   |   |   |   |   |   |   |   |   |   |   |   |   |   1st_person <= 0
|   |   |   |   |   |   |   |   |   |   |   |   |   |   |   upper_case_words <= 2
|   |   |   |   |   |   |   |   |   |   |   |   |   |   |   |   avg_length_sentences <= 4.75: 4 (2.0)
|   |   |   |   |   |   |   |   |   |   |   |   |   |   |   |   avg_length_sentences > 4.75: 0 (5.0/1.0)
|   |   |   |   |   |   |   |   |   |   |   |   |   |   |   upper_case_words > 2: 4 (6.0/1.0)
|   |   |   |   |   |   |   |   |   |   |   |   |   |   1st_person > 0: 0 (3.0/1.0)
|   |   |   |   |   |   |   |   |   |   |   |   |   1st_person > 1: 4 (2.0)
|   |   |   |   |   |   |   |   |   |   |   |   num_sentences > 2
|   |   |   |   |   |   |   |   |   |   |   |   |   avg_length_token <= 3.333333: 0 (6.0)
|   |   |   |   |   |   |   |   |   |   |   |   |   avg_length_token > 3.333333: 4 (3.0/1.0)
|   |   |   |   |   |   |   |   |   |   ellipses > 1
|   |   |   |   |   |   |   |   |   |   |   avg_length_sentences <= 4.833333: 4 (3.0/1.0)
|   |   |   |   |   |   |   |   |   |   |   avg_length_sentences > 4.833333: 0 (23.0)
|   |   |   |   |   |   |   |   |   commas > 3
|   |   |   |   |   |   |   |   |   |   future_tense_verb <= 1
|   |   |   |   |   |   |   |   |   |   |   ellipses <= 1
|   |   |   |   |   |   |   |   |   |   |   |   coord_conjunction <= 0
|   |   |   |   |   |   |   |   |   |   |   |   |   avg_length_token <= 3.458333: 4 (7.0)
|   |   |   |   |   |   |   |   |   |   |   |   |   avg_length_token > 3.458333: 0 (4.0)
|   |   |   |   |   |   |   |   |   |   |   |   coord_conjunction > 0
|   |   |   |   |   |   |   |   |   |   |   |   |   avg_length_sentences <= 31: 0 (17.0/2.0)
|   |   |   |   |   |   |   |   |   |   |   |   |   avg_length_sentences > 31: 4 (2.0)
|   |   |   |   |   |   |   |   |   |   |   ellipses > 1: 4 (2.0)
|   |   |   |   |   |   |   |   |   |   future_tense_verb > 1: 4 (3.0)
|   |   |   |   |   |   |   |   3rd_person > 0
|   |   |   |   |   |   |   |   |   coord_conjunction <= 0
|   |   |   |   |   |   |   |   |   |   modern_slang <= 0
|   |   |   |   |   |   |   |   |   |   |   proper_nouns <= 0
|   |   |   |   |   |   |   |   |   |   |   |   adverbs <= 3
|   |   |   |   |   |   |   |   |   |   |   |   |   commas <= 1
|   |   |   |   |   |   |   |   |   |   |   |   |   |   3rd_person <= 1
|   |   |   |   |   |   |   |   |   |   |   |   |   |   |   common_nouns <= 4
|   |   |   |   |   |   |   |   |   |   |   |   |   |   |   |   past_tense_verb <= 0
|   |   |   |   |   |   |   |   |   |   |   |   |   |   |   |   |   ellipses <= 0
|   |   |   |   |   |   |   |   |   |   |   |   |   |   |   |   |   |   num_sentences <= 1
|   |   |   |   |   |   |   |   |   |   |   |   |   |   |   |   |   |   |   avg_length_token <= 2.666667: 4 (3.0)
|   |   |   |   |   |   |   |   |   |   |   |   |   |   |   |   |   |   |   avg_length_token > 2.666667
|   |   |   |   |   |   |   |   |   |   |   |   |   |   |   |   |   |   |   |   adverbs <= 1: 0 (28.0/8.0)
|   |   |   |   |   |   |   |   |   |   |   |   |   |   |   |   |   |   |   |   adverbs > 1
|   |   |   |   |   |   |   |   |   |   |   |   |   |   |   |   |   |   |   |   |   avg_length_token <= 3.366667: 0 (2.0)
|   |   |   |   |   |   |   |   |   |   |   |   |   |   |   |   |   |   |   |   |   avg_length_token > 3.366667: 4 (2.0)
|   |   |   |   |   |   |   |   |   |   |   |   |   |   |   |   |   |   num_sentences > 1
|   |   |   |   |   |   |   |   |   |   |   |   |   |   |   |   |   |   |   adverbs <= 1
|   |   |   |   |   |   |   |   |   |   |   |   |   |   |   |   |   |   |   |   avg_length_token <= 3.322581: 0 (3.0/1.0)
|   |   |   |   |   |   |   |   |   |   |   |   |   |   |   |   |   |   |   |   avg_length_token > 3.322581: 4 (4.0)
|   |   |   |   |   |   |   |   |   |   |   |   |   |   |   |   |   |   |   adverbs > 1
|   |   |   |   |   |   |   |   |   |   |   |   |   |   |   |   |   |   |   |   avg_length_token <= 2.95: 4 (3.0)
|   |   |   |   |   |   |   |   |   |   |   |   |   |   |   |   |   |   |   |   avg_length_token > 2.95: 0 (6.0/1.0)
|   |   |   |   |   |   |   |   |   |   |   |   |   |   |   |   |   ellipses > 0
|   |   |   |   |   |   |   |   |   |   |   |   |   |   |   |   |   |   avg_length_token <= 3.407407: 0 (6.0)
|   |   |   |   |   |   |   |   |   |   |   |   |   |   |   |   |   |   avg_length_token > 3.407407
|   |   |   |   |   |   |   |   |   |   |   |   |   |   |   |   |   |   |   common_nouns <= 2: 0 (2.0)
|   |   |   |   |   |   |   |   |   |   |   |   |   |   |   |   |   |   |   common_nouns > 2: 4 (4.0)
|   |   |   |   |   |   |   |   |   |   |   |   |   |   |   |   past_tense_verb > 0
|   |   |   |   |   |   |   |   |   |   |   |   |   |   |   |   |   num_sentences <= 1
|   |   |   |   |   |   |   |   |   |   |   |   |   |   |   |   |   |   common_nouns <= 2
|   |   |   |   |   |   |   |   |   |   |   |   |   |   |   |   |   |   |   avg_length_sentences <= 6.5: 0 (2.0)
|   |   |   |   |   |   |   |   |   |   |   |   |   |   |   |   |   |   |   avg_length_sentences > 6.5: 4 (9.0/1.0)
|   |   |   |   |   |   |   |   |   |   |   |   |   |   |   |   |   |   common_nouns > 2: 0 (5.0/2.0)
|   |   |   |   |   |   |   |   |   |   |   |   |   |   |   |   |   num_sentences > 1
|   |   |   |   |   |   |   |   |   |   |   |   |   |   |   |   |   |   common_nouns <= 2: 0 (2.0)
|   |   |   |   |   |   |   |   |   |   |   |   |   |   |   |   |   |   common_nouns > 2: 4 (4.0/1.0)
|   |   |   |   |   |   |   |   |   |   |   |   |   |   |   common_nouns > 4: 0 (23.0/5.0)
|   |   |   |   |   |   |   |   |   |   |   |   |   |   3rd_person > 1
|   |   |   |   |   |   |   |   |   |   |   |   |   |   |   num_sentences <= 2
|   |   |   |   |   |   |   |   |   |   |   |   |   |   |   |   num_sentences <= 1: 0 (11.0/1.0)
|   |   |   |   |   |   |   |   |   |   |   |   |   |   |   |   num_sentences > 1: 4 (2.0)
|   |   |   |   |   |   |   |   |   |   |   |   |   |   |   num_sentences > 2: 0 (2.0)
|   |   |   |   |   |   |   |   |   |   |   |   |   commas > 1
|   |   |   |   |   |   |   |   |   |   |   |   |   |   num_sentences <= 2
|   |   |   |   |   |   |   |   |   |   |   |   |   |   |   ellipses <= 0
|   |   |   |   |   |   |   |   |   |   |   |   |   |   |   |   num_sentences <= 1
|   |   |   |   |   |   |   |   |   |   |   |   |   |   |   |   |   past_tense_verb <= 1
|   |   |   |   |   |   |   |   |   |   |   |   |   |   |   |   |   |   common_nouns <= 3
|   |   |   |   |   |   |   |   |   |   |   |   |   |   |   |   |   |   |   3rd_person <= 1
|   |   |   |   |   |   |   |   |   |   |   |   |   |   |   |   |   |   |   |   1st_person <= 0: 0 (4.0/1.0)
|   |   |   |   |   |   |   |   |   |   |   |   |   |   |   |   |   |   |   |   1st_person > 0: 4 (5.0/1.0)
|   |   |   |   |   |   |   |   |   |   |   |   |   |   |   |   |   |   |   3rd_person > 1: 4 (2.0)
|   |   |   |   |   |   |   |   |   |   |   |   |   |   |   |   |   |   common_nouns > 3: 0 (5.0)
|   |   |   |   |   |   |   |   |   |   |   |   |   |   |   |   |   past_tense_verb > 1: 4 (2.0)
|   |   |   |   |   |   |   |   |   |   |   |   |   |   |   |   num_sentences > 1: 4 (3.0)
|   |   |   |   |   |   |   |   |   |   |   |   |   |   |   ellipses > 0: 0 (2.0)
|   |   |   |   |   |   |   |   |   |   |   |   |   |   num_sentences > 2: 4 (6.0)
|   |   |   |   |   |   |   |   |   |   |   |   adverbs > 3: 0 (8.0)
|   |   |   |   |   |   |   |   |   |   |   proper_nouns > 0
|   |   |   |   |   |   |   |   |   |   |   |   past_tense_verb <= 1
|   |   |   |   |   |   |   |   |   |   |   |   |   adverbs <= 2
|   |   |   |   |   |   |   |   |   |   |   |   |   |   3rd_person <= 1
|   |   |   |   |   |   |   |   |   |   |   |   |   |   |   ellipses <= 0
|   |   |   |   |   |   |   |   |   |   |   |   |   |   |   |   proper_nouns <= 1: 0 (11.0/1.0)
|   |   |   |   |   |   |   |   |   |   |   |   |   |   |   |   proper_nouns > 1: 4 (2.0)
|   |   |   |   |   |   |   |   |   |   |   |   |   |   |   ellipses > 0: 4 (2.0)
|   |   |   |   |   |   |   |   |   |   |   |   |   |   3rd_person > 1: 4 (2.0)
|   |   |   |   |   |   |   |   |   |   |   |   |   adverbs > 2: 0 (4.0)
|   |   |   |   |   |   |   |   |   |   |   |   past_tense_verb > 1: 0 (5.0)
|   |   |   |   |   |   |   |   |   |   modern_slang > 0
|   |   |   |   |   |   |   |   |   |   |   future_tense_verb <= 0
|   |   |   |   |   |   |   |   |   |   |   |   3rd_person <= 1: 4 (31.0/11.0)
|   |   |   |   |   |   |   |   |   |   |   |   3rd_person > 1
|   |   |   |   |   |   |   |   |   |   |   |   |   adverbs <= 3: 0 (6.0)
|   |   |   |   |   |   |   |   |   |   |   |   |   adverbs > 3: 4 (2.0)
|   |   |   |   |   |   |   |   |   |   |   future_tense_verb > 0: 0 (6.0/3.0)
|   |   |   |   |   |   |   |   |   coord_conjunction > 0
|   |   |   |   |   |   |   |   |   |   num_sentences <= 2
|   |   |   |   |   |   |   |   |   |   |   3rd_person <= 2: 0 (116.0/27.0)
|   |   |   |   |   |   |   |   |   |   |   3rd_person > 2
|   |   |   |   |   |   |   |   |   |   |   |   common_nouns <= 4: 4 (5.0/1.0)
|   |   |   |   |   |   |   |   |   |   |   |   common_nouns > 4: 0 (4.0)
|   |   |   |   |   |   |   |   |   |   num_sentences > 2
|   |   |   |   |   |   |   |   |   |   |   ellipses <= 1
|   |   |   |   |   |   |   |   |   |   |   |   coord_conjunction <= 1
|   |   |   |   |   |   |   |   |   |   |   |   |   upper_case_words <= 3
|   |   |   |   |   |   |   |   |   |   |   |   |   |   modern_slang <= 0
|   |   |   |   |   |   |   |   |   |   |   |   |   |   |   proper_nouns <= 1
|   |   |   |   |   |   |   |   |   |   |   |   |   |   |   |   avg_length_sentences <= 8.666667
|   |   |   |   |   |   |   |   |   |   |   |   |   |   |   |   |   ellipses <= 0
|   |   |   |   |   |   |   |   |   |   |   |   |   |   |   |   |   |   1st_person <= 1: 0 (5.0/1.0)
|   |   |   |   |   |   |   |   |   |   |   |   |   |   |   |   |   |   1st_person > 1: 4 (2.0)
|   |   |   |   |   |   |   |   |   |   |   |   |   |   |   |   |   ellipses > 0: 0 (2.0)
|   |   |   |   |   |   |   |   |   |   |   |   |   |   |   |   avg_length_sentences > 8.666667: 4 (4.0)
|   |   |   |   |   |   |   |   |   |   |   |   |   |   |   proper_nouns > 1: 4 (2.0)
|   |   |   |   |   |   |   |   |   |   |   |   |   |   modern_slang > 0: 0 (5.0/1.0)
|   |   |   |   |   |   |   |   |   |   |   |   |   upper_case_words > 3: 4 (2.0)
|   |   |   |   |   |   |   |   |   |   |   |   coord_conjunction > 1
|   |   |   |   |   |   |   |   |   |   |   |   |   avg_length_token <= 3.388889: 0 (3.0)
|   |   |   |   |   |   |   |   |   |   |   |   |   avg_length_token > 3.388889: 4 (2.0)
|   |   |   |   |   |   |   |   |   |   |   ellipses > 1: 0 (5.0)
|   |   |   |   |   |   |   1st_person > 3: 0 (31.0/4.0)
|   |   |   |   |   |   wh_words > 0
|   |   |   |   |   |   |   3rd_person <= 1
|   |   |   |   |   |   |   |   future_tense_verb <= 0: 0 (155.0/20.0)
|   |   |   |   |   |   |   |   future_tense_verb > 0
|   |   |   |   |   |   |   |   |   modern_slang <= 0: 0 (12.0/1.0)
|   |   |   |   |   |   |   |   |   modern_slang > 0
|   |   |   |   |   |   |   |   |   |   proper_nouns <= 0: 4 (4.0)
|   |   |   |   |   |   |   |   |   |   proper_nouns > 0: 0 (3.0)
|   |   |   |   |   |   |   3rd_person > 1
|   |   |   |   |   |   |   |   upper_case_words <= 0
|   |   |   |   |   |   |   |   |   coord_conjunction <= 1
|   |   |   |   |   |   |   |   |   |   adverbs <= 1
|   |   |   |   |   |   |   |   |   |   |   commas <= 3
|   |   |   |   |   |   |   |   |   |   |   |   avg_length_sentences <= 8.25: 4 (3.0)
|   |   |   |   |   |   |   |   |   |   |   |   avg_length_sentences > 8.25: 0 (5.0)
|   |   |   |   |   |   |   |   |   |   |   commas > 3: 4 (2.0)
|   |   |   |   |   |   |   |   |   |   adverbs > 1: 0 (9.0)
|   |   |   |   |   |   |   |   |   coord_conjunction > 1: 4 (3.0/1.0)
|   |   |   |   |   |   |   |   upper_case_words > 0: 4 (4.0)
|   |   |   |   |   avg_length_token > 3.5625
|   |   |   |   |   |   proper_nouns <= 0
|   |   |   |   |   |   |   adverbs <= 1
|   |   |   |   |   |   |   |   past_tense_verb <= 1
|   |   |   |   |   |   |   |   |   future_tense_verb <= 0
|   |   |   |   |   |   |   |   |   |   1st_person <= 0
|   |   |   |   |   |   |   |   |   |   |   past_tense_verb <= 0
|   |   |   |   |   |   |   |   |   |   |   |   commas <= 0
|   |   |   |   |   |   |   |   |   |   |   |   |   coord_conjunction <= 0
|   |   |   |   |   |   |   |   |   |   |   |   |   |   upper_case_words <= 0
|   |   |   |   |   |   |   |   |   |   |   |   |   |   |   ellipses <= 0
|   |   |   |   |   |   |   |   |   |   |   |   |   |   |   |   modern_slang <= 0
|   |   |   |   |   |   |   |   |   |   |   |   |   |   |   |   |   3rd_person <= 0: 0 (148.0/56.0)
|   |   |   |   |   |   |   |   |   |   |   |   |   |   |   |   |   3rd_person > 0
|   |   |   |   |   |   |   |   |   |   |   |   |   |   |   |   |   |   avg_length_token <= 3.681818: 0 (6.0/1.0)
|   |   |   |   |   |   |   |   |   |   |   |   |   |   |   |   |   |   avg_length_token > 3.681818: 4 (29.0/11.0)
|   |   |   |   |   |   |   |   |   |   |   |   |   |   |   |   modern_slang > 0
|   |   |   |   |   |   |   |   |   |   |   |   |   |   |   |   |   common_nouns <= 0: 0 (2.0)
|   |   |   |   |   |   |   |   |   |   |   |   |   |   |   |   |   common_nouns > 0: 4 (18.0/8.0)
|   |   |   |   |   |   |   |   |   |   |   |   |   |   |   ellipses > 0: 0 (35.0/12.0)
|   |   |   |   |   |   |   |   |   |   |   |   |   |   upper_case_words > 0
|   |   |   |   |   |   |   |   |   |   |   |   |   |   |   upper_case_words <= 3
|   |   |   |   |   |   |   |   |   |   |   |   |   |   |   |   modern_slang <= 0: 0 (20.0/2.0)
|   |   |   |   |   |   |   |   |   |   |   |   |   |   |   |   modern_slang > 0
|   |   |   |   |   |   |   |   |   |   |   |   |   |   |   |   |   avg_length_token <= 3.842105: 0 (3.0)
|   |   |   |   |   |   |   |   |   |   |   |   |   |   |   |   |   avg_length_token > 3.842105: 4 (2.0)
|   |   |   |   |   |   |   |   |   |   |   |   |   |   |   upper_case_words > 3: 4 (5.0)
|   |   |   |   |   |   |   |   |   |   |   |   |   coord_conjunction > 0
|   |   |   |   |   |   |   |   |   |   |   |   |   |   avg_length_token <= 3.65
|   |   |   |   |   |   |   |   |   |   |   |   |   |   |   3rd_person <= 0
|   |   |   |   |   |   |   |   |   |   |   |   |   |   |   |   avg_length_sentences <= 11.5: 4 (6.0/1.0)
|   |   |   |   |   |   |   |   |   |   |   |   |   |   |   |   avg_length_sentences > 11.5: 0 (2.0)
|   |   |   |   |   |   |   |   |   |   |   |   |   |   |   3rd_person > 0: 4 (3.0)
|   |   |   |   |   |   |   |   |   |   |   |   |   |   avg_length_token > 3.65
|   |   |   |   |   |   |   |   |   |   |   |   |   |   |   avg_length_sentences <= 7.75
|   |   |   |   |   |   |   |   |   |   |   |   |   |   |   |   num_sentences <= 5
|   |   |   |   |   |   |   |   |   |   |   |   |   |   |   |   |   modern_slang <= 0
|   |   |   |   |   |   |   |   |   |   |   |   |   |   |   |   |   |   avg_length_sentences <= 5.25: 0 (2.0)
|   |   |   |   |   |   |   |   |   |   |   |   |   |   |   |   |   |   avg_length_sentences > 5.25: 4 (7.0)
|   |   |   |   |   |   |   |   |   |   |   |   |   |   |   |   |   modern_slang > 0: 0 (2.0/1.0)
|   |   |   |   |   |   |   |   |   |   |   |   |   |   |   |   num_sentences > 5: 0 (2.0)
|   |   |   |   |   |   |   |   |   |   |   |   |   |   |   avg_length_sentences > 7.75
|   |   |   |   |   |   |   |   |   |   |   |   |   |   |   |   3rd_person <= 1: 0 (29.0/1.0)
|   |   |   |   |   |   |   |   |   |   |   |   |   |   |   |   3rd_person > 1
|   |   |   |   |   |   |   |   |   |   |   |   |   |   |   |   |   avg_length_sentences <= 12: 0 (3.0)
|   |   |   |   |   |   |   |   |   |   |   |   |   |   |   |   |   avg_length_sentences > 12: 4 (2.0)
|   |   |   |   |   |   |   |   |   |   |   |   commas > 0
|   |   |   |   |   |   |   |   |   |   |   |   |   num_sentences <= 2
|   |   |   |   |   |   |   |   |   |   |   |   |   |   upper_case_words <= 1
|   |   |   |   |   |   |   |   |   |   |   |   |   |   |   wh_words <= 0
|   |   |   |   |   |   |   |   |   |   |   |   |   |   |   |   coord_conjunction <= 1
|   |   |   |   |   |   |   |   |   |   |   |   |   |   |   |   |   3rd_person <= 0
|   |   |   |   |   |   |   |   |   |   |   |   |   |   |   |   |   |   avg_length_token <= 3.916667
|   |   |   |   |   |   |   |   |   |   |   |   |   |   |   |   |   |   |   upper_case_words <= 0
|   |   |   |   |   |   |   |   |   |   |   |   |   |   |   |   |   |   |   |   avg_length_sentences <= 7.5: 4 (5.0/1.0)
|   |   |   |   |   |   |   |   |   |   |   |   |   |   |   |   |   |   |   |   avg_length_sentences > 7.5
|   |   |   |   |   |   |   |   |   |   |   |   |   |   |   |   |   |   |   |   |   avg_length_token <= 3.608696: 4 (2.0)
|   |   |   |   |   |   |   |   |   |   |   |   |   |   |   |   |   |   |   |   |   avg_length_token > 3.608696: 0 (9.0/2.0)
|   |   |   |   |   |   |   |   |   |   |   |   |   |   |   |   |   |   |   upper_case_words > 0: 0 (3.0/1.0)
|   |   |   |   |   |   |   |   |   |   |   |   |   |   |   |   |   |   avg_length_token > 3.916667: 4 (8.0/1.0)
|   |   |   |   |   |   |   |   |   |   |   |   |   |   |   |   |   3rd_person > 0: 0 (10.0/2.0)
|   |   |   |   |   |   |   |   |   |   |   |   |   |   |   |   coord_conjunction > 1: 4 (2.0)
|   |   |   |   |   |   |   |   |   |   |   |   |   |   |   wh_words > 0: 0 (4.0)
|   |   |   |   |   |   |   |   |   |   |   |   |   |   upper_case_words > 1: 4 (3.0)
|   |   |   |   |   |   |   |   |   |   |   |   |   num_sentences > 2: 4 (5.0/1.0)
|   |   |   |   |   |   |   |   |   |   |   past_tense_verb > 0
|   |   |   |   |   |   |   |   |   |   |   |   ellipses <= 0
|   |   |   |   |   |   |   |   |   |   |   |   |   wh_words <= 0
|   |   |   |   |   |   |   |   |   |   |   |   |   |   3rd_person <= 1
|   |   |   |   |   |   |   |   |   |   |   |   |   |   |   3rd_person <= 0
|   |   |   |   |   |   |   |   |   |   |   |   |   |   |   |   modern_slang <= 0
|   |   |   |   |   |   |   |   |   |   |   |   |   |   |   |   |   avg_length_token <= 3.962963
|   |   |   |   |   |   |   |   |   |   |   |   |   |   |   |   |   |   avg_length_sentences <= 4.5: 0 (3.0)
|   |   |   |   |   |   |   |   |   |   |   |   |   |   |   |   |   |   avg_length_sentences > 4.5
|   |   |   |   |   |   |   |   |   |   |   |   |   |   |   |   |   |   |   avg_length_sentences <= 9.5: 4 (18.0/1.0)
|   |   |   |   |   |   |   |   |   |   |   |   |   |   |   |   |   |   |   avg_length_sentences > 9.5
|   |   |   |   |   |   |   |   |   |   |   |   |   |   |   |   |   |   |   |   commas <= 1
|   |   |   |   |   |   |   |   |   |   |   |   |   |   |   |   |   |   |   |   |   coord_conjunction <= 0
|   |   |   |   |   |   |   |   |   |   |   |   |   |   |   |   |   |   |   |   |   |   common_nouns <= 4: 0 (4.0/1.0)
|   |   |   |   |   |   |   |   |   |   |   |   |   |   |   |   |   |   |   |   |   |   common_nouns > 4: 4 (5.0/1.0)
|   |   |   |   |   |   |   |   |   |   |   |   |   |   |   |   |   |   |   |   |   coord_conjunction > 0: 4 (4.0)
|   |   |   |   |   |   |   |   |   |   |   |   |   |   |   |   |   |   |   |   commas > 1: 0 (2.0)
|   |   |   |   |   |   |   |   |   |   |   |   |   |   |   |   |   avg_length_token > 3.962963
|   |   |   |   |   |   |   |   |   |   |   |   |   |   |   |   |   |   coord_conjunction <= 0: 0 (11.0/3.0)
|   |   |   |   |   |   |   |   |   |   |   |   |   |   |   |   |   |   coord_conjunction > 0: 4 (3.0/1.0)
|   |   |   |   |   |   |   |   |   |   |   |   |   |   |   |   modern_slang > 0: 4 (3.0)
|   |   |   |   |   |   |   |   |   |   |   |   |   |   |   3rd_person > 0
|   |   |   |   |   |   |   |   |   |   |   |   |   |   |   |   num_sentences <= 1
|   |   |   |   |   |   |   |   |   |   |   |   |   |   |   |   |   coord_conjunction <= 0
|   |   |   |   |   |   |   |   |   |   |   |   |   |   |   |   |   |   commas <= 1
|   |   |   |   |   |   |   |   |   |   |   |   |   |   |   |   |   |   |   avg_length_token <= 3.761905: 0 (2.0)
|   |   |   |   |   |   |   |   |   |   |   |   |   |   |   |   |   |   |   avg_length_token > 3.761905
|   |   |   |   |   |   |   |   |   |   |   |   |   |   |   |   |   |   |   |   avg_length_token <= 3.904762: 4 (3.0)
|   |   |   |   |   |   |   |   |   |   |   |   |   |   |   |   |   |   |   |   avg_length_token > 3.904762: 0 (3.0/1.0)
|   |   |   |   |   |   |   |   |   |   |   |   |   |   |   |   |   |   commas > 1: 4 (3.0)
|   |   |   |   |   |   |   |   |   |   |   |   |   |   |   |   |   coord_conjunction > 0: 0 (5.0/1.0)
|   |   |   |   |   |   |   |   |   |   |   |   |   |   |   |   num_sentences > 1: 0 (5.0)
|   |   |   |   |   |   |   |   |   |   |   |   |   |   3rd_person > 1: 4 (5.0)
|   |   |   |   |   |   |   |   |   |   |   |   |   wh_words > 0
|   |   |   |   |   |   |   |   |   |   |   |   |   |   coord_conjunction <= 0: 0 (8.0/2.0)
|   |   |   |   |   |   |   |   |   |   |   |   |   |   coord_conjunction > 0: 4 (4.0/1.0)
|   |   |   |   |   |   |   |   |   |   |   |   ellipses > 0
|   |   |   |   |   |   |   |   |   |   |   |   |   common_nouns <= 6
|   |   |   |   |   |   |   |   |   |   |   |   |   |   wh_words <= 0
|   |   |   |   |   |   |   |   |   |   |   |   |   |   |   coord_conjunction <= 0: 0 (12.0/1.0)
|   |   |   |   |   |   |   |   |   |   |   |   |   |   |   coord_conjunction > 0
|   |   |   |   |   |   |   |   |   |   |   |   |   |   |   |   commas <= 1: 4 (2.0)
|   |   |   |   |   |   |   |   |   |   |   |   |   |   |   |   commas > 1: 0 (5.0/1.0)
|   |   |   |   |   |   |   |   |   |   |   |   |   |   wh_words > 0
|   |   |   |   |   |   |   |   |   |   |   |   |   |   |   ellipses <= 1: 0 (3.0/1.0)
|   |   |   |   |   |   |   |   |   |   |   |   |   |   |   ellipses > 1: 4 (2.0)
|   |   |   |   |   |   |   |   |   |   |   |   |   common_nouns > 6: 4 (3.0)
|   |   |   |   |   |   |   |   |   |   1st_person > 0
|   |   |   |   |   |   |   |   |   |   |   1st_person <= 2
|   |   |   |   |   |   |   |   |   |   |   |   upper_case_words <= 0
|   |   |   |   |   |   |   |   |   |   |   |   |   wh_words <= 0
|   |   |   |   |   |   |   |   |   |   |   |   |   |   3rd_person <= 0
|   |   |   |   |   |   |   |   |   |   |   |   |   |   |   common_nouns <= 3: 0 (111.0/31.0)
|   |   |   |   |   |   |   |   |   |   |   |   |   |   |   common_nouns > 3
|   |   |   |   |   |   |   |   |   |   |   |   |   |   |   |   modern_slang <= 0
|   |   |   |   |   |   |   |   |   |   |   |   |   |   |   |   |   1st_person <= 1
|   |   |   |   |   |   |   |   |   |   |   |   |   |   |   |   |   |   ellipses <= 0: 0 (31.0/9.0)
|   |   |   |   |   |   |   |   |   |   |   |   |   |   |   |   |   |   ellipses > 0
|   |   |   |   |   |   |   |   |   |   |   |   |   |   |   |   |   |   |   common_nouns <= 9: 4 (10.0/2.0)
|   |   |   |   |   |   |   |   |   |   |   |   |   |   |   |   |   |   |   common_nouns > 9: 0 (2.0)
|   |   |   |   |   |   |   |   |   |   |   |   |   |   |   |   |   1st_person > 1
|   |   |   |   |   |   |   |   |   |   |   |   |   |   |   |   |   |   ellipses <= 0: 4 (17.0/4.0)
|   |   |   |   |   |   |   |   |   |   |   |   |   |   |   |   |   |   ellipses > 0: 0 (4.0/1.0)
|   |   |   |   |   |   |   |   |   |   |   |   |   |   |   |   modern_slang > 0
|   |   |   |   |   |   |   |   |   |   |   |   |   |   |   |   |   common_nouns <= 6: 4 (6.0)
|   |   |   |   |   |   |   |   |   |   |   |   |   |   |   |   |   common_nouns > 6: 0 (2.0)
|   |   |   |   |   |   |   |   |   |   |   |   |   |   3rd_person > 0
|   |   |   |   |   |   |   |   |   |   |   |   |   |   |   commas <= 1
|   |   |   |   |   |   |   |   |   |   |   |   |   |   |   |   common_nouns <= 5
|   |   |   |   |   |   |   |   |   |   |   |   |   |   |   |   |   1st_person <= 1
|   |   |   |   |   |   |   |   |   |   |   |   |   |   |   |   |   |   modern_slang <= 0
|   |   |   |   |   |   |   |   |   |   |   |   |   |   |   |   |   |   |   coord_conjunction <= 0: 4 (22.0/4.0)
|   |   |   |   |   |   |   |   |   |   |   |   |   |   |   |   |   |   |   coord_conjunction > 0
|   |   |   |   |   |   |   |   |   |   |   |   |   |   |   |   |   |   |   |   avg_length_token <= 4: 0 (2.0)
|   |   |   |   |   |   |   |   |   |   |   |   |   |   |   |   |   |   |   |   avg_length_token > 4: 4 (2.0)
|   |   |   |   |   |   |   |   |   |   |   |   |   |   |   |   |   |   modern_slang > 0
|   |   |   |   |   |   |   |   |   |   |   |   |   |   |   |   |   |   |   common_nouns <= 2: 0 (2.0)
|   |   |   |   |   |   |   |   |   |   |   |   |   |   |   |   |   |   |   common_nouns > 2: 4 (3.0/1.0)
|   |   |   |   |   |   |   |   |   |   |   |   |   |   |   |   |   1st_person > 1
|   |   |   |   |   |   |   |   |   |   |   |   |   |   |   |   |   |   common_nouns <= 4: 0 (9.0/2.0)
|   |   |   |   |   |   |   |   |   |   |   |   |   |   |   |   |   |   common_nouns > 4: 4 (3.0)
|   |   |   |   |   |   |   |   |   |   |   |   |   |   |   |   common_nouns > 5: 0 (10.0/2.0)
|   |   |   |   |   |   |   |   |   |   |   |   |   |   |   commas > 1: 0 (19.0/5.0)
|   |   |   |   |   |   |   |   |   |   |   |   |   wh_words > 0: 0 (26.0/7.0)
|   |   |   |   |   |   |   |   |   |   |   |   upper_case_words > 0: 0 (42.0/11.0)
|   |   |   |   |   |   |   |   |   |   |   1st_person > 2
|   |   |   |   |   |   |   |   |   |   |   |   modern_slang <= 0: 0 (16.0/1.0)
|   |   |   |   |   |   |   |   |   |   |   |   modern_slang > 0: 4 (3.0/1.0)
|   |   |   |   |   |   |   |   |   future_tense_verb > 0
|   |   |   |   |   |   |   |   |   |   wh_words <= 0
|   |   |   |   |   |   |   |   |   |   |   avg_length_sentences <= 5.75: 0 (7.0)
|   |   |   |   |   |   |   |   |   |   |   avg_length_sentences > 5.75
|   |   |   |   |   |   |   |   |   |   |   |   num_sentences <= 1
|   |   |   |   |   |   |   |   |   |   |   |   |   commas <= 3
|   |   |   |   |   |   |   |   |   |   |   |   |   |   modern_slang <= 0
|   |   |   |   |   |   |   |   |   |   |   |   |   |   |   ellipses <= 0
|   |   |   |   |   |   |   |   |   |   |   |   |   |   |   |   avg_length_token <= 3.8: 4 (14.0/5.0)
|   |   |   |   |   |   |   |   |   |   |   |   |   |   |   |   avg_length_token > 3.8
|   |   |   |   |   |   |   |   |   |   |   |   |   |   |   |   |   avg_length_token <= 3.944444: 0 (10.0/3.0)
|   |   |   |   |   |   |   |   |   |   |   |   |   |   |   |   |   avg_length_token > 3.944444
|   |   |   |   |   |   |   |   |   |   |   |   |   |   |   |   |   |   common_nouns <= 3: 4 (6.0)
|   |   |   |   |   |   |   |   |   |   |   |   |   |   |   |   |   |   common_nouns > 3: 0 (7.0)
|   |   |   |   |   |   |   |   |   |   |   |   |   |   |   ellipses > 0: 0 (8.0/2.0)
|   |   |   |   |   |   |   |   |   |   |   |   |   |   modern_slang > 0: 0 (3.0)
|   |   |   |   |   |   |   |   |   |   |   |   |   commas > 3: 4 (3.0)
|   |   |   |   |   |   |   |   |   |   |   |   num_sentences > 1
|   |   |   |   |   |   |   |   |   |   |   |   |   1st_person <= 1: 4 (13.0/2.0)
|   |   |   |   |   |   |   |   |   |   |   |   |   1st_person > 1: 0 (3.0/1.0)
|   |   |   |   |   |   |   |   |   |   wh_words > 0
|   |   |   |   |   |   |   |   |   |   |   1st_person <= 1
|   |   |   |   |   |   |   |   |   |   |   |   avg_length_token <= 3.791667: 4 (2.0)
|   |   |   |   |   |   |   |   |   |   |   |   avg_length_token > 3.791667: 0 (2.0)
|   |   |   |   |   |   |   |   |   |   |   1st_person > 1: 4 (4.0)
|   |   |   |   |   |   |   |   past_tense_verb > 1
|   |   |   |   |   |   |   |   |   modern_slang <= 0: 0 (66.0/16.0)
|   |   |   |   |   |   |   |   |   modern_slang > 0
|   |   |   |   |   |   |   |   |   |   avg_length_token <= 3.75: 0 (7.0)
|   |   |   |   |   |   |   |   |   |   avg_length_token > 3.75: 4 (6.0/1.0)
|   |   |   |   |   |   |   adverbs > 1
|   |   |   |   |   |   |   |   modern_slang <= 0
|   |   |   |   |   |   |   |   |   past_tense_verb <= 1
|   |   |   |   |   |   |   |   |   |   num_sentences <= 1
|   |   |   |   |   |   |   |   |   |   |   wh_words <= 0
|   |   |   |   |   |   |   |   |   |   |   |   future_tense_verb <= 0
|   |   |   |   |   |   |   |   |   |   |   |   |   commas <= 1: 0 (153.0/31.0)
|   |   |   |   |   |   |   |   |   |   |   |   |   commas > 1
|   |   |   |   |   |   |   |   |   |   |   |   |   |   upper_case_words <= 0
|   |   |   |   |   |   |   |   |   |   |   |   |   |   |   avg_length_token <= 3.842105
|   |   |   |   |   |   |   |   |   |   |   |   |   |   |   |   avg_length_token <= 3.777778
|   |   |   |   |   |   |   |   |   |   |   |   |   |   |   |   |   ellipses <= 0
|   |   |   |   |   |   |   |   |   |   |   |   |   |   |   |   |   |   commas <= 3: 0 (14.0/1.0)
|   |   |   |   |   |   |   |   |   |   |   |   |   |   |   |   |   |   commas > 3
|   |   |   |   |   |   |   |   |   |   |   |   |   |   |   |   |   |   |   avg_length_token <= 3.7: 0 (3.0)
|   |   |   |   |   |   |   |   |   |   |   |   |   |   |   |   |   |   |   avg_length_token > 3.7: 4 (2.0)
|   |   |   |   |   |   |   |   |   |   |   |   |   |   |   |   |   ellipses > 0: 4 (3.0)
|   |   |   |   |   |   |   |   |   |   |   |   |   |   |   |   avg_length_token > 3.777778: 4 (12.0/2.0)
|   |   |   |   |   |   |   |   |   |   |   |   |   |   |   avg_length_token > 3.842105: 0 (24.0/2.0)
|   |   |   |   |   |   |   |   |   |   |   |   |   |   upper_case_words > 0
|   |   |   |   |   |   |   |   |   |   |   |   |   |   |   1st_person <= 1: 4 (4.0)
|   |   |   |   |   |   |   |   |   |   |   |   |   |   |   1st_person > 1: 0 (2.0)
|   |   |   |   |   |   |   |   |   |   |   |   future_tense_verb > 0: 0 (29.0/5.0)
|   |   |   |   |   |   |   |   |   |   |   wh_words > 0: 0 (32.0/9.0)
|   |   |   |   |   |   |   |   |   |   num_sentences > 1
|   |   |   |   |   |   |   |   |   |   |   wh_words <= 0
|   |   |   |   |   |   |   |   |   |   |   |   coord_conjunction <= 1
|   |   |   |   |   |   |   |   |   |   |   |   |   3rd_person <= 0
|   |   |   |   |   |   |   |   |   |   |   |   |   |   upper_case_words <= 0
|   |   |   |   |   |   |   |   |   |   |   |   |   |   |   adverbs <= 2
|   |   |   |   |   |   |   |   |   |   |   |   |   |   |   |   common_nouns <= 1: 0 (8.0)
|   |   |   |   |   |   |   |   |   |   |   |   |   |   |   |   common_nouns > 1
|   |   |   |   |   |   |   |   |   |   |   |   |   |   |   |   |   num_sentences <= 3
|   |   |   |   |   |   |   |   |   |   |   |   |   |   |   |   |   |   commas <= 1
|   |   |   |   |   |   |   |   |   |   |   |   |   |   |   |   |   |   |   past_tense_verb <= 0
|   |   |   |   |   |   |   |   |   |   |   |   |   |   |   |   |   |   |   |   1st_person <= 2
|   |   |   |   |   |   |   |   |   |   |   |   |   |   |   |   |   |   |   |   |   num_sentences <= 2
|   |   |   |   |   |   |   |   |   |   |   |   |   |   |   |   |   |   |   |   |   |   1st_person <= 0: 4 (10.0/3.0)
|   |   |   |   |   |   |   |   |   |   |   |   |   |   |   |   |   |   |   |   |   |   1st_person > 0
|   |   |   |   |   |   |   |   |   |   |   |   |   |   |   |   |   |   |   |   |   |   |   ellipses <= 0: 0 (6.0/1.0)
|   |   |   |   |   |   |   |   |   |   |   |   |   |   |   |   |   |   |   |   |   |   |   ellipses > 0: 4 (3.0/1.0)
|   |   |   |   |   |   |   |   |   |   |   |   |   |   |   |   |   |   |   |   |   num_sentences > 2
|   |   |   |   |   |   |   |   |   |   |   |   |   |   |   |   |   |   |   |   |   |   common_nouns <= 5: 0 (6.0)
|   |   |   |   |   |   |   |   |   |   |   |   |   |   |   |   |   |   |   |   |   |   common_nouns > 5: 4 (6.0/2.0)
|   |   |   |   |   |   |   |   |   |   |   |   |   |   |   |   |   |   |   |   1st_person > 2: 4 (2.0)
|   |   |   |   |   |   |   |   |   |   |   |   |   |   |   |   |   |   |   past_tense_verb > 0
|   |   |   |   |   |   |   |   |   |   |   |   |   |   |   |   |   |   |   |   avg_length_sentences <= 9: 4 (6.0)
|   |   |   |   |   |   |   |   |   |   |   |   |   |   |   |   |   |   |   |   avg_length_sentences > 9: 0 (3.0/1.0)
|   |   |   |   |   |   |   |   |   |   |   |   |   |   |   |   |   |   commas > 1
|   |   |   |   |   |   |   |   |   |   |   |   |   |   |   |   |   |   |   commas <= 3
|   |   |   |   |   |   |   |   |   |   |   |   |   |   |   |   |   |   |   |   coord_conjunction <= 0
|   |   |   |   |   |   |   |   |   |   |   |   |   |   |   |   |   |   |   |   |   1st_person <= 1
|   |   |   |   |   |   |   |   |   |   |   |   |   |   |   |   |   |   |   |   |   |   avg_length_token <= 3.88
|   |   |   |   |   |   |   |   |   |   |   |   |   |   |   |   |   |   |   |   |   |   |   common_nouns <= 3
|   |   |   |   |   |   |   |   |   |   |   |   |   |   |   |   |   |   |   |   |   |   |   |   avg_length_sentences <= 8: 0 (2.0)
|   |   |   |   |   |   |   |   |   |   |   |   |   |   |   |   |   |   |   |   |   |   |   |   avg_length_sentences > 8: 4 (2.0)
|   |   |   |   |   |   |   |   |   |   |   |   |   |   |   |   |   |   |   |   |   |   |   common_nouns > 3: 0 (3.0)
|   |   |   |   |   |   |   |   |   |   |   |   |   |   |   |   |   |   |   |   |   |   avg_length_token > 3.88: 4 (2.0)
|   |   |   |   |   |   |   |   |   |   |   |   |   |   |   |   |   |   |   |   |   1st_person > 1: 0 (3.0)
|   |   |   |   |   |   |   |   |   |   |   |   |   |   |   |   |   |   |   |   coord_conjunction > 0: 4 (4.0/1.0)
|   |   |   |   |   |   |   |   |   |   |   |   |   |   |   |   |   |   |   commas > 3: 0 (3.0)
|   |   |   |   |   |   |   |   |   |   |   |   |   |   |   |   |   num_sentences > 3: 0 (6.0/1.0)
|   |   |   |   |   |   |   |   |   |   |   |   |   |   |   adverbs > 2
|   |   |   |   |   |   |   |   |   |   |   |   |   |   |   |   coord_conjunction <= 0
|   |   |   |   |   |   |   |   |   |   |   |   |   |   |   |   |   future_tense_verb <= 0: 0 (23.0/1.0)
|   |   |   |   |   |   |   |   |   |   |   |   |   |   |   |   |   future_tense_verb > 0
|   |   |   |   |   |   |   |   |   |   |   |   |   |   |   |   |   |   1st_person <= 0: 4 (2.0)
|   |   |   |   |   |   |   |   |   |   |   |   |   |   |   |   |   |   1st_person > 0: 0 (3.0)
|   |   |   |   |   |   |   |   |   |   |   |   |   |   |   |   coord_conjunction > 0
|   |   |   |   |   |   |   |   |   |   |   |   |   |   |   |   |   future_tense_verb <= 0
|   |   |   |   |   |   |   |   |   |   |   |   |   |   |   |   |   |   past_tense_verb <= 0
|   |   |   |   |   |   |   |   |   |   |   |   |   |   |   |   |   |   |   1st_person <= 0: 0 (3.0)
|   |   |   |   |   |   |   |   |   |   |   |   |   |   |   |   |   |   |   1st_person > 0
|   |   |   |   |   |   |   |   |   |   |   |   |   |   |   |   |   |   |   |   commas <= 0: 4 (5.0)
|   |   |   |   |   |   |   |   |   |   |   |   |   |   |   |   |   |   |   |   commas > 0: 0 (3.0/1.0)
|   |   |   |   |   |   |   |   |   |   |   |   |   |   |   |   |   |   past_tense_verb > 0: 0 (6.0/1.0)
|   |   |   |   |   |   |   |   |   |   |   |   |   |   |   |   |   future_tense_verb > 0: 0 (2.0)
|   |   |   |   |   |   |   |   |   |   |   |   |   |   upper_case_words > 0
|   |   |   |   |   |   |   |   |   |   |   |   |   |   |   future_tense_verb <= 0
|   |   |   |   |   |   |   |   |   |   |   |   |   |   |   |   commas <= 3
|   |   |   |   |   |   |   |   |   |   |   |   |   |   |   |   |   coord_conjunction <= 0
|   |   |   |   |   |   |   |   |   |   |   |   |   |   |   |   |   |   common_nouns <= 3: 4 (5.0/1.0)
|   |   |   |   |   |   |   |   |   |   |   |   |   |   |   |   |   |   common_nouns > 3: 0 (6.0)
|   |   |   |   |   |   |   |   |   |   |   |   |   |   |   |   |   coord_conjunction > 0
|   |   |   |   |   |   |   |   |   |   |   |   |   |   |   |   |   |   avg_length_token <= 3.681818: 0 (3.0)
|   |   |   |   |   |   |   |   |   |   |   |   |   |   |   |   |   |   avg_length_token > 3.681818
|   |   |   |   |   |   |   |   |   |   |   |   |   |   |   |   |   |   |   num_sentences <= 2
|   |   |   |   |   |   |   |   |   |   |   |   |   |   |   |   |   |   |   |   adverbs <= 2
|   |   |   |   |   |   |   |   |   |   |   |   |   |   |   |   |   |   |   |   |   common_nouns <= 4: 0 (2.0)
|   |   |   |   |   |   |   |   |   |   |   |   |   |   |   |   |   |   |   |   |   common_nouns > 4: 4 (4.0)
|   |   |   |   |   |   |   |   |   |   |   |   |   |   |   |   |   |   |   |   adverbs > 2: 0 (2.0)
|   |   |   |   |   |   |   |   |   |   |   |   |   |   |   |   |   |   |   num_sentences > 2: 4 (3.0)
|   |   |   |   |   |   |   |   |   |   |   |   |   |   |   |   commas > 3: 4 (2.0)
|   |   |   |   |   |   |   |   |   |   |   |   |   |   |   future_tense_verb > 0: 4 (3.0)
|   |   |   |   |   |   |   |   |   |   |   |   |   3rd_person > 0
|   |   |   |   |   |   |   |   |   |   |   |   |   |   ellipses <= 1
|   |   |   |   |   |   |   |   |   |   |   |   |   |   |   future_tense_verb <= 0
|   |   |   |   |   |   |   |   |   |   |   |   |   |   |   |   1st_person <= 0
|   |   |   |   |   |   |   |   |   |   |   |   |   |   |   |   |   num_sentences <= 3
|   |   |   |   |   |   |   |   |   |   |   |   |   |   |   |   |   |   common_nouns <= 5
|   |   |   |   |   |   |   |   |   |   |   |   |   |   |   |   |   |   |   commas <= 1
|   |   |   |   |   |   |   |   |   |   |   |   |   |   |   |   |   |   |   |   avg_length_sentences <= 9.666667: 0 (9.0/1.0)
|   |   |   |   |   |   |   |   |   |   |   |   |   |   |   |   |   |   |   |   avg_length_sentences > 9.666667: 4 (2.0)
|   |   |   |   |   |   |   |   |   |   |   |   |   |   |   |   |   |   |   commas > 1: 0 (3.0)
|   |   |   |   |   |   |   |   |   |   |   |   |   |   |   |   |   |   common_nouns > 5: 4 (2.0)
|   |   |   |   |   |   |   |   |   |   |   |   |   |   |   |   |   num_sentences > 3: 4 (2.0)
|   |   |   |   |   |   |   |   |   |   |   |   |   |   |   |   1st_person > 0: 0 (24.0/4.0)
|   |   |   |   |   |   |   |   |   |   |   |   |   |   |   future_tense_verb > 0: 4 (5.0/1.0)
|   |   |   |   |   |   |   |   |   |   |   |   |   |   ellipses > 1: 0 (7.0)
|   |   |   |   |   |   |   |   |   |   |   |   coord_conjunction > 1
|   |   |   |   |   |   |   |   |   |   |   |   |   past_tense_verb <= 0
|   |   |   |   |   |   |   |   |   |   |   |   |   |   upper_case_words <= 0: 4 (8.0)
|   |   |   |   |   |   |   |   |   |   |   |   |   |   upper_case_words > 0: 0 (3.0)
|   |   |   |   |   |   |   |   |   |   |   |   |   past_tense_verb > 0: 0 (3.0)
|   |   |   |   |   |   |   |   |   |   |   wh_words > 0
|   |   |   |   |   |   |   |   |   |   |   |   coord_conjunction <= 0
|   |   |   |   |   |   |   |   |   |   |   |   |   3rd_person <= 1: 0 (22.0/2.0)
|   |   |   |   |   |   |   |   |   |   |   |   |   3rd_person > 1
|   |   |   |   |   |   |   |   |   |   |   |   |   |   common_nouns <= 5: 4 (2.0)
|   |   |   |   |   |   |   |   |   |   |   |   |   |   common_nouns > 5: 0 (2.0)
|   |   |   |   |   |   |   |   |   |   |   |   coord_conjunction > 0
|   |   |   |   |   |   |   |   |   |   |   |   |   ellipses <= 1
|   |   |   |   |   |   |   |   |   |   |   |   |   |   num_sentences <= 2
|   |   |   |   |   |   |   |   |   |   |   |   |   |   |   1st_person <= 0
|   |   |   |   |   |   |   |   |   |   |   |   |   |   |   |   common_nouns <= 5: 4 (2.0)
|   |   |   |   |   |   |   |   |   |   |   |   |   |   |   |   common_nouns > 5: 0 (2.0)
|   |   |   |   |   |   |   |   |   |   |   |   |   |   |   1st_person > 0: 0 (3.0)
|   |   |   |   |   |   |   |   |   |   |   |   |   |   num_sentences > 2: 4 (3.0)
|   |   |   |   |   |   |   |   |   |   |   |   |   ellipses > 1: 0 (6.0)
|   |   |   |   |   |   |   |   |   past_tense_verb > 1
|   |   |   |   |   |   |   |   |   |   future_tense_verb <= 1
|   |   |   |   |   |   |   |   |   |   |   commas <= 5
|   |   |   |   |   |   |   |   |   |   |   |   3rd_person <= 1
|   |   |   |   |   |   |   |   |   |   |   |   |   1st_person <= 1
|   |   |   |   |   |   |   |   |   |   |   |   |   |   3rd_person <= 0
|   |   |   |   |   |   |   |   |   |   |   |   |   |   |   ellipses <= 0
|   |   |   |   |   |   |   |   |   |   |   |   |   |   |   |   common_nouns <= 2: 0 (6.0/1.0)
|   |   |   |   |   |   |   |   |   |   |   |   |   |   |   |   common_nouns > 2
|   |   |   |   |   |   |   |   |   |   |   |   |   |   |   |   |   1st_person <= 0: 4 (6.0)
|   |   |   |   |   |   |   |   |   |   |   |   |   |   |   |   |   1st_person > 0
|   |   |   |   |   |   |   |   |   |   |   |   |   |   |   |   |   |   num_sentences <= 1: 4 (4.0/1.0)
|   |   |   |   |   |   |   |   |   |   |   |   |   |   |   |   |   |   num_sentences > 1: 0 (2.0)
|   |   |   |   |   |   |   |   |   |   |   |   |   |   |   ellipses > 0: 0 (2.0)
|   |   |   |   |   |   |   |   |   |   |   |   |   |   3rd_person > 0
|   |   |   |   |   |   |   |   |   |   |   |   |   |   |   ellipses <= 0
|   |   |   |   |   |   |   |   |   |   |   |   |   |   |   |   common_nouns <= 2: 4 (2.0)
|   |   |   |   |   |   |   |   |   |   |   |   |   |   |   |   common_nouns > 2: 0 (9.0/3.0)
|   |   |   |   |   |   |   |   |   |   |   |   |   |   |   ellipses > 0: 4 (2.0)
|   |   |   |   |   |   |   |   |   |   |   |   |   1st_person > 1
|   |   |   |   |   |   |   |   |   |   |   |   |   |   upper_case_words <= 0: 0 (16.0/1.0)
|   |   |   |   |   |   |   |   |   |   |   |   |   |   upper_case_words > 0
|   |   |   |   |   |   |   |   |   |   |   |   |   |   |   avg_length_token <= 3.857143: 0 (3.0)
|   |   |   |   |   |   |   |   |   |   |   |   |   |   |   avg_length_token > 3.857143: 4 (3.0)
|   |   |   |   |   |   |   |   |   |   |   |   3rd_person > 1: 4 (6.0/1.0)
|   |   |   |   |   |   |   |   |   |   |   commas > 5: 4 (5.0)
|   |   |   |   |   |   |   |   |   |   future_tense_verb > 1: 0 (4.0)
|   |   |   |   |   |   |   |   modern_slang > 0
|   |   |   |   |   |   |   |   |   future_tense_verb <= 0
|   |   |   |   |   |   |   |   |   |   wh_words <= 0
|   |   |   |   |   |   |   |   |   |   |   modern_slang <= 1
|   |   |   |   |   |   |   |   |   |   |   |   past_tense_verb <= 0
|   |   |   |   |   |   |   |   |   |   |   |   |   adverbs <= 3
|   |   |   |   |   |   |   |   |   |   |   |   |   |   ellipses <= 1
|   |   |   |   |   |   |   |   |   |   |   |   |   |   |   adverbs <= 2
|   |   |   |   |   |   |   |   |   |   |   |   |   |   |   |   commas <= 1: 0 (24.0/10.0)
|   |   |   |   |   |   |   |   |   |   |   |   |   |   |   |   commas > 1: 4 (6.0/1.0)
|   |   |   |   |   |   |   |   |   |   |   |   |   |   |   adverbs > 2
|   |   |   |   |   |   |   |   |   |   |   |   |   |   |   |   upper_case_words <= 0
|   |   |   |   |   |   |   |   |   |   |   |   |   |   |   |   |   common_nouns <= 5: 0 (13.0/1.0)
|   |   |   |   |   |   |   |   |   |   |   |   |   |   |   |   |   common_nouns > 5
|   |   |   |   |   |   |   |   |   |   |   |   |   |   |   |   |   |   avg_length_token <= 3.655172: 0 (2.0)
|   |   |   |   |   |   |   |   |   |   |   |   |   |   |   |   |   |   avg_length_token > 3.655172: 4 (4.0)
|   |   |   |   |   |   |   |   |   |   |   |   |   |   |   |   upper_case_words > 0: 4 (2.0)
|   |   |   |   |   |   |   |   |   |   |   |   |   |   ellipses > 1: 4 (5.0/1.0)
|   |   |   |   |   |   |   |   |   |   |   |   |   adverbs > 3
|   |   |   |   |   |   |   |   |   |   |   |   |   |   common_nouns <= 6: 0 (9.0)
|   |   |   |   |   |   |   |   |   |   |   |   |   |   common_nouns > 6
|   |   |   |   |   |   |   |   |   |   |   |   |   |   |   1st_person <= 0: 0 (2.0)
|   |   |   |   |   |   |   |   |   |   |   |   |   |   |   1st_person > 0: 4 (3.0)
|   |   |   |   |   |   |   |   |   |   |   |   past_tense_verb > 0: 0 (44.0/11.0)
|   |   |   |   |   |   |   |   |   |   |   modern_slang > 1: 0 (12.0/2.0)
|   |   |   |   |   |   |   |   |   |   wh_words > 0
|   |   |   |   |   |   |   |   |   |   |   1st_person <= 0: 4 (6.0)
|   |   |   |   |   |   |   |   |   |   |   1st_person > 0: 0 (12.0/4.0)
|   |   |   |   |   |   |   |   |   future_tense_verb > 0
|   |   |   |   |   |   |   |   |   |   common_nouns <= 2: 0 (2.0)
|   |   |   |   |   |   |   |   |   |   common_nouns > 2
|   |   |   |   |   |   |   |   |   |   |   commas <= 1: 4 (8.0)
|   |   |   |   |   |   |   |   |   |   |   commas > 1
|   |   |   |   |   |   |   |   |   |   |   |   3rd_person <= 1: 0 (2.0)
|   |   |   |   |   |   |   |   |   |   |   |   3rd_person > 1: 4 (2.0)
|   |   |   |   |   |   proper_nouns > 0
|   |   |   |   |   |   |   ellipses <= 0
|   |   |   |   |   |   |   |   future_tense_verb <= 1
|   |   |   |   |   |   |   |   |   avg_length_token <= 3.777778
|   |   |   |   |   |   |   |   |   |   coord_conjunction <= 0
|   |   |   |   |   |   |   |   |   |   |   commas <= 3
|   |   |   |   |   |   |   |   |   |   |   |   proper_nouns <= 2
|   |   |   |   |   |   |   |   |   |   |   |   |   wh_words <= 0
|   |   |   |   |   |   |   |   |   |   |   |   |   |   upper_case_words <= 0
|   |   |   |   |   |   |   |   |   |   |   |   |   |   |   commas <= 1: 0 (36.0/11.0)
|   |   |   |   |   |   |   |   |   |   |   |   |   |   |   commas > 1
|   |   |   |   |   |   |   |   |   |   |   |   |   |   |   |   1st_person <= 0: 4 (7.0/2.0)
|   |   |   |   |   |   |   |   |   |   |   |   |   |   |   |   1st_person > 0: 0 (11.0/3.0)
|   |   |   |   |   |   |   |   |   |   |   |   |   |   upper_case_words > 0
|   |   |   |   |   |   |   |   |   |   |   |   |   |   |   adverbs <= 1
|   |   |   |   |   |   |   |   |   |   |   |   |   |   |   |   past_tense_verb <= 0
|   |   |   |   |   |   |   |   |   |   |   |   |   |   |   |   |   1st_person <= 0: 4 (5.0/1.0)
|   |   |   |   |   |   |   |   |   |   |   |   |   |   |   |   |   1st_person > 0: 0 (3.0/1.0)
|   |   |   |   |   |   |   |   |   |   |   |   |   |   |   |   past_tense_verb > 0: 0 (5.0/1.0)
|   |   |   |   |   |   |   |   |   |   |   |   |   |   |   adverbs > 1: 4 (3.0)
|   |   |   |   |   |   |   |   |   |   |   |   |   wh_words > 0
|   |   |   |   |   |   |   |   |   |   |   |   |   |   adverbs <= 1: 4 (3.0)
|   |   |   |   |   |   |   |   |   |   |   |   |   |   adverbs > 1: 0 (3.0/1.0)
|   |   |   |   |   |   |   |   |   |   |   |   proper_nouns > 2: 0 (4.0)
|   |   |   |   |   |   |   |   |   |   |   commas > 3: 4 (4.0)
|   |   |   |   |   |   |   |   |   |   coord_conjunction > 0: 0 (39.0/5.0)
|   |   |   |   |   |   |   |   |   avg_length_token > 3.777778
|   |   |   |   |   |   |   |   |   |   modern_slang <= 0
|   |   |   |   |   |   |   |   |   |   |   adverbs <= 2
|   |   |   |   |   |   |   |   |   |   |   |   past_tense_verb <= 1
|   |   |   |   |   |   |   |   |   |   |   |   |   adverbs <= 1
|   |   |   |   |   |   |   |   |   |   |   |   |   |   3rd_person <= 0
|   |   |   |   |   |   |   |   |   |   |   |   |   |   |   coord_conjunction <= 0
|   |   |   |   |   |   |   |   |   |   |   |   |   |   |   |   1st_person <= 0
|   |   |   |   |   |   |   |   |   |   |   |   |   |   |   |   |   commas <= 1
|   |   |   |   |   |   |   |   |   |   |   |   |   |   |   |   |   |   avg_length_token <= 3.962963: 0 (11.0/3.0)
|   |   |   |   |   |   |   |   |   |   |   |   |   |   |   |   |   |   avg_length_token > 3.962963
|   |   |   |   |   |   |   |   |   |   |   |   |   |   |   |   |   |   |   avg_length_sentences <= 6.75: 0 (5.0/2.0)
|   |   |   |   |   |   |   |   |   |   |   |   |   |   |   |   |   |   |   avg_length_sentences > 6.75: 4 (8.0)
|   |   |   |   |   |   |   |   |   |   |   |   |   |   |   |   |   commas > 1: 0 (3.0)
|   |   |   |   |   |   |   |   |   |   |   |   |   |   |   |   1st_person > 0
|   |   |   |   |   |   |   |   |   |   |   |   |   |   |   |   |   proper_nouns <= 1: 4 (13.0/2.0)
|   |   |   |   |   |   |   |   |   |   |   |   |   |   |   |   |   proper_nouns > 1
|   |   |   |   |   |   |   |   |   |   |   |   |   |   |   |   |   |   1st_person <= 1: 4 (3.0/1.0)
|   |   |   |   |   |   |   |   |   |   |   |   |   |   |   |   |   |   1st_person > 1: 0 (2.0)
|   |   |   |   |   |   |   |   |   |   |   |   |   |   |   coord_conjunction > 0
|   |   |   |   |   |   |   |   |   |   |   |   |   |   |   |   proper_nouns <= 3
|   |   |   |   |   |   |   |   |   |   |   |   |   |   |   |   |   avg_length_sentences <= 7.75: 0 (4.0)
|   |   |   |   |   |   |   |   |   |   |   |   |   |   |   |   |   avg_length_sentences > 7.75
|   |   |   |   |   |   |   |   |   |   |   |   |   |   |   |   |   |   num_sentences <= 1: 0 (8.0/1.0)
|   |   |   |   |   |   |   |   |   |   |   |   |   |   |   |   |   |   num_sentences > 1: 4 (7.0/2.0)
|   |   |   |   |   |   |   |   |   |   |   |   |   |   |   |   proper_nouns > 3: 4 (2.0)
|   |   |   |   |   |   |   |   |   |   |   |   |   |   3rd_person > 0
|   |   |   |   |   |   |   |   |   |   |   |   |   |   |   commas <= 1
|   |   |   |   |   |   |   |   |   |   |   |   |   |   |   |   num_sentences <= 2: 0 (10.0)
|   |   |   |   |   |   |   |   |   |   |   |   |   |   |   |   num_sentences > 2
|   |   |   |   |   |   |   |   |   |   |   |   |   |   |   |   |   avg_length_sentences <= 6.8: 0 (2.0)
|   |   |   |   |   |   |   |   |   |   |   |   |   |   |   |   |   avg_length_sentences > 6.8: 4 (2.0)
|   |   |   |   |   |   |   |   |   |   |   |   |   |   |   commas > 1
|   |   |   |   |   |   |   |   |   |   |   |   |   |   |   |   avg_length_token <= 3.913043: 4 (3.0)
|   |   |   |   |   |   |   |   |   |   |   |   |   |   |   |   avg_length_token > 3.913043
|   |   |   |   |   |   |   |   |   |   |   |   |   |   |   |   |   1st_person <= 0
|   |   |   |   |   |   |   |   |   |   |   |   |   |   |   |   |   |   upper_case_words <= 0: 4 (2.0)
|   |   |   |   |   |   |   |   |   |   |   |   |   |   |   |   |   |   upper_case_words > 0: 0 (3.0)
|   |   |   |   |   |   |   |   |   |   |   |   |   |   |   |   |   1st_person > 0: 0 (3.0)
|   |   |   |   |   |   |   |   |   |   |   |   |   adverbs > 1
|   |   |   |   |   |   |   |   |   |   |   |   |   |   upper_case_words <= 0
|   |   |   |   |   |   |   |   |   |   |   |   |   |   |   past_tense_verb <= 0
|   |   |   |   |   |   |   |   |   |   |   |   |   |   |   |   proper_nouns <= 1
|   |   |   |   |   |   |   |   |   |   |   |   |   |   |   |   |   common_nouns <= 3
|   |   |   |   |   |   |   |   |   |   |   |   |   |   |   |   |   |   avg_length_sentences <= 13: 0 (4.0/1.0)
|   |   |   |   |   |   |   |   |   |   |   |   |   |   |   |   |   |   avg_length_sentences > 13: 4 (2.0)
|   |   |   |   |   |   |   |   |   |   |   |   |   |   |   |   |   common_nouns > 3: 0 (4.0)
|   |   |   |   |   |   |   |   |   |   |   |   |   |   |   |   proper_nouns > 1: 4 (5.0)
|   |   |   |   |   |   |   |   |   |   |   |   |   |   |   past_tense_verb > 0: 4 (9.0/2.0)
|   |   |   |   |   |   |   |   |   |   |   |   |   |   upper_case_words > 0: 4 (9.0/1.0)
|   |   |   |   |   |   |   |   |   |   |   |   past_tense_verb > 1
|   |   |   |   |   |   |   |   |   |   |   |   |   adverbs <= 1
|   |   |   |   |   |   |   |   |   |   |   |   |   |   avg_length_token <= 3.909091: 0 (3.0)
|   |   |   |   |   |   |   |   |   |   |   |   |   |   avg_length_token > 3.909091: 4 (5.0/1.0)
|   |   |   |   |   |   |   |   |   |   |   |   |   adverbs > 1: 0 (8.0)
|   |   |   |   |   |   |   |   |   |   |   adverbs > 2: 4 (24.0/6.0)
|   |   |   |   |   |   |   |   |   |   modern_slang > 0
|   |   |   |   |   |   |   |   |   |   |   1st_person <= 2
|   |   |   |   |   |   |   |   |   |   |   |   3rd_person <= 0
|   |   |   |   |   |   |   |   |   |   |   |   |   modern_slang <= 1
|   |   |   |   |   |   |   |   |   |   |   |   |   |   1st_person <= 0: 0 (9.0/2.0)
|   |   |   |   |   |   |   |   |   |   |   |   |   |   1st_person > 0
|   |   |   |   |   |   |   |   |   |   |   |   |   |   |   avg_length_token <= 3.866667: 0 (2.0)
|   |   |   |   |   |   |   |   |   |   |   |   |   |   |   avg_length_token > 3.866667: 4 (8.0)
|   |   |   |   |   |   |   |   |   |   |   |   |   modern_slang > 1: 4 (2.0)
|   |   |   |   |   |   |   |   |   |   |   |   3rd_person > 0: 4 (11.0)
|   |   |   |   |   |   |   |   |   |   |   1st_person > 2: 0 (2.0)
|   |   |   |   |   |   |   |   future_tense_verb > 1
|   |   |   |   |   |   |   |   |   common_nouns <= 0: 0 (2.0)
|   |   |   |   |   |   |   |   |   common_nouns > 0: 4 (16.0/3.0)
|   |   |   |   |   |   |   ellipses > 0
|   |   |   |   |   |   |   |   3rd_person <= 0: 0 (73.0/18.0)
|   |   |   |   |   |   |   |   3rd_person > 0
|   |   |   |   |   |   |   |   |   upper_case_words <= 1
|   |   |   |   |   |   |   |   |   |   avg_length_token <= 3.666667: 4 (6.0/1.0)
|   |   |   |   |   |   |   |   |   |   avg_length_token > 3.666667: 0 (13.0/1.0)
|   |   |   |   |   |   |   |   |   upper_case_words > 1: 4 (4.0)
|   |   |   |   dashes > 0
|   |   |   |   |   future_tense_verb <= 2
|   |   |   |   |   |   past_tense_verb <= 0
|   |   |   |   |   |   |   proper_nouns <= 1
|   |   |   |   |   |   |   |   num_sentences <= 2
|   |   |   |   |   |   |   |   |   modern_slang <= 0
|   |   |   |   |   |   |   |   |   |   upper_case_words <= 0
|   |   |   |   |   |   |   |   |   |   |   3rd_person <= 0
|   |   |   |   |   |   |   |   |   |   |   |   num_sentences <= 1
|   |   |   |   |   |   |   |   |   |   |   |   |   commas <= 1
|   |   |   |   |   |   |   |   |   |   |   |   |   |   coord_conjunction <= 0
|   |   |   |   |   |   |   |   |   |   |   |   |   |   |   1st_person <= 0
|   |   |   |   |   |   |   |   |   |   |   |   |   |   |   |   common_nouns <= 1: 0 (4.0/1.0)
|   |   |   |   |   |   |   |   |   |   |   |   |   |   |   |   common_nouns > 1: 4 (6.0/1.0)
|   |   |   |   |   |   |   |   |   |   |   |   |   |   |   1st_person > 0
|   |   |   |   |   |   |   |   |   |   |   |   |   |   |   |   dashes <= 1
|   |   |   |   |   |   |   |   |   |   |   |   |   |   |   |   |   avg_length_sentences <= 11.5: 4 (3.0)
|   |   |   |   |   |   |   |   |   |   |   |   |   |   |   |   |   avg_length_sentences > 11.5: 0 (6.0)
|   |   |   |   |   |   |   |   |   |   |   |   |   |   |   |   dashes > 1: 4 (3.0)
|   |   |   |   |   |   |   |   |   |   |   |   |   |   coord_conjunction > 0
|   |   |   |   |   |   |   |   |   |   |   |   |   |   |   common_nouns <= 6: 0 (6.0/1.0)
|   |   |   |   |   |   |   |   |   |   |   |   |   |   |   common_nouns > 6: 4 (2.0)
|   |   |   |   |   |   |   |   |   |   |   |   |   commas > 1: 4 (6.0/1.0)
|   |   |   |   |   |   |   |   |   |   |   |   num_sentences > 1: 0 (15.0/3.0)
|   |   |   |   |   |   |   |   |   |   |   3rd_person > 0: 4 (20.0/7.0)
|   |   |   |   |   |   |   |   |   |   upper_case_words > 0
|   |   |   |   |   |   |   |   |   |   |   dashes <= 1: 4 (6.0)
|   |   |   |   |   |   |   |   |   |   |   dashes > 1: 0 (3.0)
|   |   |   |   |   |   |   |   |   modern_slang > 0
|   |   |   |   |   |   |   |   |   |   avg_length_token <= 3.266667: 4 (5.0/1.0)
|   |   |   |   |   |   |   |   |   |   avg_length_token > 3.266667: 0 (13.0/3.0)
|   |   |   |   |   |   |   |   num_sentences > 2
|   |   |   |   |   |   |   |   |   3rd_person <= 1
|   |   |   |   |   |   |   |   |   |   adverbs <= 3: 4 (11.0/1.0)
|   |   |   |   |   |   |   |   |   |   adverbs > 3: 0 (3.0/1.0)
|   |   |   |   |   |   |   |   |   3rd_person > 1: 0 (2.0)
|   |   |   |   |   |   |   proper_nouns > 1: 4 (12.0/2.0)
|   |   |   |   |   |   past_tense_verb > 0
|   |   |   |   |   |   |   dashes <= 2
|   |   |   |   |   |   |   |   modern_slang <= 0
|   |   |   |   |   |   |   |   |   num_sentences <= 1: 0 (38.0/5.0)
|   |   |   |   |   |   |   |   |   num_sentences > 1
|   |   |   |   |   |   |   |   |   |   coord_conjunction <= 0
|   |   |   |   |   |   |   |   |   |   |   avg_length_token <= 3.392857: 0 (4.0)
|   |   |   |   |   |   |   |   |   |   |   avg_length_token > 3.392857
|   |   |   |   |   |   |   |   |   |   |   |   proper_nouns <= 1: 4 (12.0/1.0)
|   |   |   |   |   |   |   |   |   |   |   |   proper_nouns > 1: 0 (4.0/1.0)
|   |   |   |   |   |   |   |   |   |   coord_conjunction > 0: 0 (11.0/1.0)
|   |   |   |   |   |   |   |   modern_slang > 0
|   |   |   |   |   |   |   |   |   1st_person <= 1: 4 (11.0/3.0)
|   |   |   |   |   |   |   |   |   1st_person > 1: 0 (4.0)
|   |   |   |   |   |   |   dashes > 2: 4 (5.0/1.0)
|   |   |   |   |   future_tense_verb > 2
|   |   |   |   |   |   common_nouns <= 5: 4 (12.0/1.0)
|   |   |   |   |   |   common_nouns > 5: 0 (2.0)
|   |   |   parentheses > 0
|   |   |   |   parentheses <= 2
|   |   |   |   |   parentheses <= 1
|   |   |   |   |   |   dashes <= 0
|   |   |   |   |   |   |   common_nouns <= 4: 4 (8.0)
