
J48 pruned tree
------------------

avg_length_token <= 3.952381
|   2nd_person <= 0
|   |   adverbs <= 0
|   |   |   past_tense_verb <= 1
|   |   |   |   upper_case_words <= 0
|   |   |   |   |   wh_words <= 0
|   |   |   |   |   |   coord_conjunction <= 1
|   |   |   |   |   |   |   parentheses <= 0
|   |   |   |   |   |   |   |   common_nouns <= 0
|   |   |   |   |   |   |   |   |   1st_person <= 0
|   |   |   |   |   |   |   |   |   |   future_tense_verb <= 0
|   |   |   |   |   |   |   |   |   |   |   proper_nouns <= 0
|   |   |   |   |   |   |   |   |   |   |   |   avg_length_token <= 3.535714: 0 (126.0/34.0)
|   |   |   |   |   |   |   |   |   |   |   |   avg_length_token > 3.535714
|   |   |   |   |   |   |   |   |   |   |   |   |   ellipses <= 0
|   |   |   |   |   |   |   |   |   |   |   |   |   |   past_tense_verb <= 0
|   |   |   |   |   |   |   |   |   |   |   |   |   |   |   avg_length_token <= 3.814815: 4 (32.0/12.0)
|   |   |   |   |   |   |   |   |   |   |   |   |   |   |   avg_length_token > 3.814815: 0 (2.0)
|   |   |   |   |   |   |   |   |   |   |   |   |   |   past_tense_verb > 0: 0 (3.0)
|   |   |   |   |   |   |   |   |   |   |   |   |   ellipses > 0: 0 (4.0)
|   |   |   |   |   |   |   |   |   |   |   proper_nouns > 0
|   |   |   |   |   |   |   |   |   |   |   |   past_tense_verb <= 0
|   |   |   |   |   |   |   |   |   |   |   |   |   ellipses <= 0
|   |   |   |   |   |   |   |   |   |   |   |   |   |   avg_length_token <= 3.125: 4 (12.0/1.0)
|   |   |   |   |   |   |   |   |   |   |   |   |   |   avg_length_token > 3.125
|   |   |   |   |   |   |   |   |   |   |   |   |   |   |   proper_nouns <= 1: 0 (14.0/6.0)
|   |   |   |   |   |   |   |   |   |   |   |   |   |   |   proper_nouns > 1
|   |   |   |   |   |   |   |   |   |   |   |   |   |   |   |   avg_length_sentences <= 9: 4 (2.0)
|   |   |   |   |   |   |   |   |   |   |   |   |   |   |   |   avg_length_sentences > 9: 0 (2.0)
|   |   |   |   |   |   |   |   |   |   |   |   |   ellipses > 0: 0 (2.0/1.0)
|   |   |   |   |   |   |   |   |   |   |   |   past_tense_verb > 0: 0 (4.0/1.0)
|   |   |   |   |   |   |   |   |   |   future_tense_verb > 0: 4 (11.0/3.0)
|   |   |   |   |   |   |   |   |   1st_person > 0: 0 (46.0/6.0)
|   |   |   |   |   |   |   |   common_nouns > 0
|   |   |   |   |   |   |   |   |   1st_person <= 1
|   |   |   |   |   |   |   |   |   |   modern_slang <= 0
|   |   |   |   |   |   |   |   |   |   |   3rd_person <= 0
|   |   |   |   |   |   |   |   |   |   |   |   dashes <= 0
|   |   |   |   |   |   |   |   |   |   |   |   |   coord_conjunction <= 0
|   |   |   |   |   |   |   |   |   |   |   |   |   |   proper_nouns <= 1
|   |   |   |   |   |   |   |   |   |   |   |   |   |   |   past_tense_verb <= 0
|   |   |   |   |   |   |   |   |   |   |   |   |   |   |   |   future_tense_verb <= 0
|   |   |   |   |   |   |   |   |   |   |   |   |   |   |   |   |   num_sentences <= 1
|   |   |   |   |   |   |   |   |   |   |   |   |   |   |   |   |   |   common_nouns <= 4
|   |   |   |   |   |   |   |   |   |   |   |   |   |   |   |   |   |   |   common_nouns <= 2
|   |   |   |   |   |   |   |   |   |   |   |   |   |   |   |   |   |   |   |   common_nouns <= 1
|   |   |   |   |   |   |   |   |   |   |   |   |   |   |   |   |   |   |   |   |   1st_person <= 0: 0 (239.0/116.0)
|   |   |   |   |   |   |   |   |   |   |   |   |   |   |   |   |   |   |   |   |   1st_person > 0
|   |   |   |   |   |   |   |   |   |   |   |   |   |   |   |   |   |   |   |   |   |   avg_length_sentences <= 4.5: 0 (27.0/5.0)
|   |   |   |   |   |   |   |   |   |   |   |   |   |   |   |   |   |   |   |   |   |   avg_length_sentences > 4.5
|   |   |   |   |   |   |   |   |   |   |   |   |   |   |   |   |   |   |   |   |   |   |   avg_length_token <= 2.631579: 4 (9.0/2.0)
|   |   |   |   |   |   |   |   |   |   |   |   |   |   |   |   |   |   |   |   |   |   |   avg_length_token > 2.631579
|   |   |   |   |   |   |   |   |   |   |   |   |   |   |   |   |   |   |   |   |   |   |   |   avg_length_token <= 2.9: 0 (6.0)
|   |   |   |   |   |   |   |   |   |   |   |   |   |   |   |   |   |   |   |   |   |   |   |   avg_length_token > 2.9: 4 (49.0/20.0)
|   |   |   |   |   |   |   |   |   |   |   |   |   |   |   |   |   |   |   |   common_nouns > 1
|   |   |   |   |   |   |   |   |   |   |   |   |   |   |   |   |   |   |   |   |   proper_nouns <= 0
|   |   |   |   |   |   |   |   |   |   |   |   |   |   |   |   |   |   |   |   |   |   1st_person <= 0
|   |   |   |   |   |   |   |   |   |   |   |   |   |   |   |   |   |   |   |   |   |   |   ellipses <= 0
|   |   |   |   |   |   |   |   |   |   |   |   |   |   |   |   |   |   |   |   |   |   |   |   avg_length_sentences <= 3.5
|   |   |   |   |   |   |   |   |   |   |   |   |   |   |   |   |   |   |   |   |   |   |   |   |   avg_length_token <= 3.166667: 4 (6.0)
|   |   |   |   |   |   |   |   |   |   |   |   |   |   |   |   |   |   |   |   |   |   |   |   |   avg_length_token > 3.166667: 0 (6.0/2.0)
|   |   |   |   |   |   |   |   |   |   |   |   |   |   |   |   |   |   |   |   |   |   |   |   avg_length_sentences > 3.5: 0 (121.0/43.0)
|   |   |   |   |   |   |   |   |   |   |   |   |   |   |   |   |   |   |   |   |   |   |   ellipses > 0
|   |   |   |   |   |   |   |   |   |   |   |   |   |   |   |   |   |   |   |   |   |   |   |   avg_length_sentences <= 4.5: 0 (2.0)
|   |   |   |   |   |   |   |   |   |   |   |   |   |   |   |   |   |   |   |   |   |   |   |   avg_length_sentences > 4.5: 4 (20.0/8.0)
|   |   |   |   |   |   |   |   |   |   |   |   |   |   |   |   |   |   |   |   |   |   1st_person > 0: 0 (55.0/25.0)
|   |   |   |   |   |   |   |   |   |   |   |   |   |   |   |   |   |   |   |   |   proper_nouns > 0
|   |   |   |   |   |   |   |   |   |   |   |   |   |   |   |   |   |   |   |   |   |   1st_person <= 0
|   |   |   |   |   |   |   |   |   |   |   |   |   |   |   |   |   |   |   |   |   |   |   avg_length_sentences <= 5: 0 (2.0)
|   |   |   |   |   |   |   |   |   |   |   |   |   |   |   |   |   |   |   |   |   |   |   avg_length_sentences > 5
|   |   |   |   |   |   |   |   |   |   |   |   |   |   |   |   |   |   |   |   |   |   |   |   avg_length_token <= 3.65: 4 (8.0/1.0)
|   |   |   |   |   |   |   |   |   |   |   |   |   |   |   |   |   |   |   |   |   |   |   |   avg_length_token > 3.65: 0 (3.0/1.0)
|   |   |   |   |   |   |   |   |   |   |   |   |   |   |   |   |   |   |   |   |   |   1st_person > 0: 0 (3.0/1.0)
|   |   |   |   |   |   |   |   |   |   |   |   |   |   |   |   |   |   |   common_nouns > 2
|   |   |   |   |   |   |   |   |   |   |   |   |   |   |   |   |   |   |   |   1st_person <= 0
|   |   |   |   |   |   |   |   |   |   |   |   |   |   |   |   |   |   |   |   |   ellipses <= 0
|   |   |   |   |   |   |   |   |   |   |   |   |   |   |   |   |   |   |   |   |   |   avg_length_sentences <= 11.5
|   |   |   |   |   |   |   |   |   |   |   |   |   |   |   |   |   |   |   |   |   |   |   proper_nouns <= 0: 4 (83.0/37.0)
|   |   |   |   |   |   |   |   |   |   |   |   |   |   |   |   |   |   |   |   |   |   |   proper_nouns > 0
|   |   |   |   |   |   |   |   |   |   |   |   |   |   |   |   |   |   |   |   |   |   |   |   avg_length_token <= 3.583333: 4 (5.0/1.0)
|   |   |   |   |   |   |   |   |   |   |   |   |   |   |   |   |   |   |   |   |   |   |   |   avg_length_token > 3.583333: 0 (5.0)
|   |   |   |   |   |   |   |   |   |   |   |   |   |   |   |   |   |   |   |   |   |   avg_length_sentences > 11.5: 0 (8.0/1.0)
|   |   |   |   |   |   |   |   |   |   |   |   |   |   |   |   |   |   |   |   |   ellipses > 0
|   |   |   |   |   |   |   |   |   |   |   |   |   |   |   |   |   |   |   |   |   |   commas <= 1
|   |   |   |   |   |   |   |   |   |   |   |   |   |   |   |   |   |   |   |   |   |   |   avg_length_token <= 3.392857: 0 (3.0)
|   |   |   |   |   |   |   |   |   |   |   |   |   |   |   |   |   |   |   |   |   |   |   avg_length_token > 3.392857: 4 (5.0/1.0)
|   |   |   |   |   |   |   |   |   |   |   |   |   |   |   |   |   |   |   |   |   |   commas > 1: 4 (3.0)
|   |   |   |   |   |   |   |   |   |   |   |   |   |   |   |   |   |   |   |   1st_person > 0: 4 (59.0/23.0)
|   |   |   |   |   |   |   |   |   |   |   |   |   |   |   |   |   |   common_nouns > 4
|   |   |   |   |   |   |   |   |   |   |   |   |   |   |   |   |   |   |   1st_person <= 0
|   |   |   |   |   |   |   |   |   |   |   |   |   |   |   |   |   |   |   |   avg_length_token <= 3.761905: 0 (12.0/2.0)
|   |   |   |   |   |   |   |   |   |   |   |   |   |   |   |   |   |   |   |   avg_length_token > 3.761905: 4 (6.0/1.0)
|   |   |   |   |   |   |   |   |   |   |   |   |   |   |   |   |   |   |   1st_person > 0
|   |   |   |   |   |   |   |   |   |   |   |   |   |   |   |   |   |   |   |   common_nouns <= 6: 0 (19.0/2.0)
|   |   |   |   |   |   |   |   |   |   |   |   |   |   |   |   |   |   |   |   common_nouns > 6: 4 (2.0)
|   |   |   |   |   |   |   |   |   |   |   |   |   |   |   |   |   num_sentences > 1
|   |   |   |   |   |   |   |   |   |   |   |   |   |   |   |   |   |   ellipses <= 1
|   |   |   |   |   |   |   |   |   |   |   |   |   |   |   |   |   |   |   commas <= 1
|   |   |   |   |   |   |   |   |   |   |   |   |   |   |   |   |   |   |   |   proper_nouns <= 0
|   |   |   |   |   |   |   |   |   |   |   |   |   |   |   |   |   |   |   |   |   num_sentences <= 2
|   |   |   |   |   |   |   |   |   |   |   |   |   |   |   |   |   |   |   |   |   |   1st_person <= 0: 0 (36.0/16.0)
|   |   |   |   |   |   |   |   |   |   |   |   |   |   |   |   |   |   |   |   |   |   1st_person > 0
|   |   |   |   |   |   |   |   |   |   |   |   |   |   |   |   |   |   |   |   |   |   |   ellipses <= 0
|   |   |   |   |   |   |   |   |   |   |   |   |   |   |   |   |   |   |   |   |   |   |   |   common_nouns <= 4
|   |   |   |   |   |   |   |   |   |   |   |   |   |   |   |   |   |   |   |   |   |   |   |   |   common_nouns <= 3
|   |   |   |   |   |   |   |   |   |   |   |   |   |   |   |   |   |   |   |   |   |   |   |   |   |   avg_length_sentences <= 3.75: 0 (2.0)
|   |   |   |   |   |   |   |   |   |   |   |   |   |   |   |   |   |   |   |   |   |   |   |   |   |   avg_length_sentences > 3.75: 4 (9.0/2.0)
|   |   |   |   |   |   |   |   |   |   |   |   |   |   |   |   |   |   |   |   |   |   |   |   |   common_nouns > 3: 0 (7.0/1.0)
|   |   |   |   |   |   |   |   |   |   |   |   |   |   |   |   |   |   |   |   |   |   |   |   common_nouns > 4: 4 (3.0)
|   |   |   |   |   |   |   |   |   |   |   |   |   |   |   |   |   |   |   |   |   |   |   ellipses > 0
|   |   |   |   |   |   |   |   |   |   |   |   |   |   |   |   |   |   |   |   |   |   |   |   avg_length_token <= 3.266667: 0 (2.0)
|   |   |   |   |   |   |   |   |   |   |   |   |   |   |   |   |   |   |   |   |   |   |   |   avg_length_token > 3.266667
|   |   |   |   |   |   |   |   |   |   |   |   |   |   |   |   |   |   |   |   |   |   |   |   |   avg_length_sentences <= 7: 4 (3.0)
|   |   |   |   |   |   |   |   |   |   |   |   |   |   |   |   |   |   |   |   |   |   |   |   |   avg_length_sentences > 7: 0 (3.0/1.0)
|   |   |   |   |   |   |   |   |   |   |   |   |   |   |   |   |   |   |   |   |   num_sentences > 2
|   |   |   |   |   |   |   |   |   |   |   |   |   |   |   |   |   |   |   |   |   |   avg_length_sentences <= 5.833333: 4 (7.0/1.0)
|   |   |   |   |   |   |   |   |   |   |   |   |   |   |   |   |   |   |   |   |   |   avg_length_sentences > 5.833333: 0 (2.0)
|   |   |   |   |   |   |   |   |   |   |   |   |   |   |   |   |   |   |   |   proper_nouns > 0
|   |   |   |   |   |   |   |   |   |   |   |   |   |   |   |   |   |   |   |   |   1st_person <= 0: 4 (14.0/2.0)
|   |   |   |   |   |   |   |   |   |   |   |   |   |   |   |   |   |   |   |   |   1st_person > 0: 0 (3.0)
|   |   |   |   |   |   |   |   |   |   |   |   |   |   |   |   |   |   |   commas > 1
|   |   |   |   |   |   |   |   |   |   |   |   |   |   |   |   |   |   |   |   commas <= 2: 0 (10.0/1.0)
|   |   |   |   |   |   |   |   |   |   |   |   |   |   |   |   |   |   |   |   commas > 2: 4 (2.0)
|   |   |   |   |   |   |   |   |   |   |   |   |   |   |   |   |   |   ellipses > 1: 4 (12.0/2.0)
|   |   |   |   |   |   |   |   |   |   |   |   |   |   |   |   future_tense_verb > 0
|   |   |   |   |   |   |   |   |   |   |   |   |   |   |   |   |   commas <= 1
|   |   |   |   |   |   |   |   |   |   |   |   |   |   |   |   |   |   avg_length_token <= 3.863636
|   |   |   |   |   |   |   |   |   |   |   |   |   |   |   |   |   |   |   future_tense_verb <= 3
|   |   |   |   |   |   |   |   |   |   |   |   |   |   |   |   |   |   |   |   1st_person <= 0
|   |   |   |   |   |   |   |   |   |   |   |   |   |   |   |   |   |   |   |   |   avg_length_token <= 3.307692: 0 (5.0)
|   |   |   |   |   |   |   |   |   |   |   |   |   |   |   |   |   |   |   |   |   avg_length_token > 3.307692: 4 (19.0/4.0)
|   |   |   |   |   |   |   |   |   |   |   |   |   |   |   |   |   |   |   |   1st_person > 0
|   |   |   |   |   |   |   |   |   |   |   |   |   |   |   |   |   |   |   |   |   avg_length_token <= 3.655172: 4 (12.0/2.0)
|   |   |   |   |   |   |   |   |   |   |   |   |   |   |   |   |   |   |   |   |   avg_length_token > 3.655172: 0 (3.0)
|   |   |   |   |   |   |   |   |   |   |   |   |   |   |   |   |   |   |   future_tense_verb > 3: 0 (2.0)
|   |   |   |   |   |   |   |   |   |   |   |   |   |   |   |   |   |   avg_length_token > 3.863636: 0 (6.0)
|   |   |   |   |   |   |   |   |   |   |   |   |   |   |   |   |   commas > 1
|   |   |   |   |   |   |   |   |   |   |   |   |   |   |   |   |   |   1st_person <= 0: 4 (3.0)
|   |   |   |   |   |   |   |   |   |   |   |   |   |   |   |   |   |   1st_person > 0
|   |   |   |   |   |   |   |   |   |   |   |   |   |   |   |   |   |   |   common_nouns <= 3: 0 (2.0)
|   |   |   |   |   |   |   |   |   |   |   |   |   |   |   |   |   |   |   common_nouns > 3: 4 (3.0)
|   |   |   |   |   |   |   |   |   |   |   |   |   |   |   past_tense_verb > 0
|   |   |   |   |   |   |   |   |   |   |   |   |   |   |   |   commas <= 1: 0 (113.0/46.0)
|   |   |   |   |   |   |   |   |   |   |   |   |   |   |   |   commas > 1
|   |   |   |   |   |   |   |   |   |   |   |   |   |   |   |   |   num_sentences <= 2: 4 (10.0/1.0)
|   |   |   |   |   |   |   |   |   |   |   |   |   |   |   |   |   num_sentences > 2: 0 (2.0)
|   |   |   |   |   |   |   |   |   |   |   |   |   |   proper_nouns > 1
|   |   |   |   |   |   |   |   |   |   |   |   |   |   |   1st_person <= 0
|   |   |   |   |   |   |   |   |   |   |   |   |   |   |   |   commas <= 1
|   |   |   |   |   |   |   |   |   |   |   |   |   |   |   |   |   proper_nouns <= 2
|   |   |   |   |   |   |   |   |   |   |   |   |   |   |   |   |   |   avg_length_token <= 3.823529
|   |   |   |   |   |   |   |   |   |   |   |   |   |   |   |   |   |   |   common_nouns <= 1: 4 (5.0/1.0)
|   |   |   |   |   |   |   |   |   |   |   |   |   |   |   |   |   |   |   common_nouns > 1: 0 (6.0)
|   |   |   |   |   |   |   |   |   |   |   |   |   |   |   |   |   |   avg_length_token > 3.823529: 4 (5.0)
|   |   |   |   |   |   |   |   |   |   |   |   |   |   |   |   |   proper_nouns > 2: 4 (5.0/1.0)
|   |   |   |   |   |   |   |   |   |   |   |   |   |   |   |   commas > 1: 4 (6.0)
|   |   |   |   |   |   |   |   |   |   |   |   |   |   |   1st_person > 0
|   |   |   |   |   |   |   |   |   |   |   |   |   |   |   |   num_sentences <= 1
|   |   |   |   |   |   |   |   |   |   |   |   |   |   |   |   |   ellipses <= 0
|   |   |   |   |   |   |   |   |   |   |   |   |   |   |   |   |   |   avg_length_token <= 3.615385: 4 (2.0)
|   |   |   |   |   |   |   |   |   |   |   |   |   |   |   |   |   |   avg_length_token > 3.615385: 0 (2.0)
|   |   |   |   |   |   |   |   |   |   |   |   |   |   |   |   |   ellipses > 0: 4 (2.0)
|   |   |   |   |   |   |   |   |   |   |   |   |   |   |   |   num_sentences > 1: 0 (4.0)
|   |   |   |   |   |   |   |   |   |   |   |   |   coord_conjunction > 0
|   |   |   |   |   |   |   |   |   |   |   |   |   |   avg_length_sentences <= 12.5
|   |   |   |   |   |   |   |   |   |   |   |   |   |   |   1st_person <= 0
|   |   |   |   |   |   |   |   |   |   |   |   |   |   |   |   proper_nouns <= 0
|   |   |   |   |   |   |   |   |   |   |   |   |   |   |   |   |   commas <= 1
|   |   |   |   |   |   |   |   |   |   |   |   |   |   |   |   |   |   num_sentences <= 1
|   |   |   |   |   |   |   |   |   |   |   |   |   |   |   |   |   |   |   future_tense_verb <= 0
|   |   |   |   |   |   |   |   |   |   |   |   |   |   |   |   |   |   |   |   ellipses <= 0: 4 (37.0/18.0)
|   |   |   |   |   |   |   |   |   |   |   |   |   |   |   |   |   |   |   |   ellipses > 0
|   |   |   |   |   |   |   |   |   |   |   |   |   |   |   |   |   |   |   |   |   avg_length_sentences <= 8: 4 (2.0)
|   |   |   |   |   |   |   |   |   |   |   |   |   |   |   |   |   |   |   |   |   avg_length_sentences > 8: 0 (2.0)
|   |   |   |   |   |   |   |   |   |   |   |   |   |   |   |   |   |   |   future_tense_verb > 0
|   |   |   |   |   |   |   |   |   |   |   |   |   |   |   |   |   |   |   |   avg_length_token <= 3.133333: 0 (2.0)
|   |   |   |   |   |   |   |   |   |   |   |   |   |   |   |   |   |   |   |   avg_length_token > 3.133333: 4 (3.0)
|   |   |   |   |   |   |   |   |   |   |   |   |   |   |   |   |   |   num_sentences > 1
|   |   |   |   |   |   |   |   |   |   |   |   |   |   |   |   |   |   |   avg_length_token <= 3.761905: 4 (8.0)
|   |   |   |   |   |   |   |   |   |   |   |   |   |   |   |   |   |   |   avg_length_token > 3.761905: 0 (5.0/1.0)
|   |   |   |   |   |   |   |   |   |   |   |   |   |   |   |   |   commas > 1: 0 (7.0)
|   |   |   |   |   |   |   |   |   |   |   |   |   |   |   |   proper_nouns > 0
|   |   |   |   |   |   |   |   |   |   |   |   |   |   |   |   |   avg_length_sentences <= 5.75: 0 (2.0)
|   |   |   |   |   |   |   |   |   |   |   |   |   |   |   |   |   avg_length_sentences > 5.75: 4 (15.0/2.0)
|   |   |   |   |   |   |   |   |   |   |   |   |   |   |   1st_person > 0
|   |   |   |   |   |   |   |   |   |   |   |   |   |   |   |   ellipses <= 0
|   |   |   |   |   |   |   |   |   |   |   |   |   |   |   |   |   avg_length_sentences <= 11.5
|   |   |   |   |   |   |   |   |   |   |   |   |   |   |   |   |   |   commas <= 1
|   |   |   |   |   |   |   |   |   |   |   |   |   |   |   |   |   |   |   avg_length_sentences <= 10.5: 0 (26.0/10.0)
|   |   |   |   |   |   |   |   |   |   |   |   |   |   |   |   |   |   |   avg_length_sentences > 10.5: 4 (3.0)
|   |   |   |   |   |   |   |   |   |   |   |   |   |   |   |   |   |   commas > 1: 4 (2.0)
|   |   |   |   |   |   |   |   |   |   |   |   |   |   |   |   |   avg_length_sentences > 11.5: 0 (4.0)
|   |   |   |   |   |   |   |   |   |   |   |   |   |   |   |   ellipses > 0: 0 (9.0/1.0)
|   |   |   |   |   |   |   |   |   |   |   |   |   |   avg_length_sentences > 12.5: 0 (41.0/7.0)
|   |   |   |   |   |   |   |   |   |   |   |   dashes > 0
|   |   |   |   |   |   |   |   |   |   |   |   |   common_nouns <= 7
|   |   |   |   |   |   |   |   |   |   |   |   |   |   num_sentences <= 1
|   |   |   |   |   |   |   |   |   |   |   |   |   |   |   coord_conjunction <= 0
|   |   |   |   |   |   |   |   |   |   |   |   |   |   |   |   past_tense_verb <= 0
|   |   |   |   |   |   |   |   |   |   |   |   |   |   |   |   |   proper_nouns <= 0
|   |   |   |   |   |   |   |   |   |   |   |   |   |   |   |   |   |   1st_person <= 0
|   |   |   |   |   |   |   |   |   |   |   |   |   |   |   |   |   |   |   avg_length_sentences <= 5: 4 (4.0)
|   |   |   |   |   |   |   |   |   |   |   |   |   |   |   |   |   |   |   avg_length_sentences > 5
|   |   |   |   |   |   |   |   |   |   |   |   |   |   |   |   |   |   |   |   avg_length_token <= 3.44: 0 (9.0)
|   |   |   |   |   |   |   |   |   |   |   |   |   |   |   |   |   |   |   |   avg_length_token > 3.44: 4 (6.0/2.0)
|   |   |   |   |   |   |   |   |   |   |   |   |   |   |   |   |   |   1st_person > 0
|   |   |   |   |   |   |   |   |   |   |   |   |   |   |   |   |   |   |   common_nouns <= 3: 0 (4.0/1.0)
|   |   |   |   |   |   |   |   |   |   |   |   |   |   |   |   |   |   |   common_nouns > 3: 4 (2.0)
|   |   |   |   |   |   |   |   |   |   |   |   |   |   |   |   |   proper_nouns > 0
|   |   |   |   |   |   |   |   |   |   |   |   |   |   |   |   |   |   avg_length_sentences <= 12: 4 (5.0/2.0)
|   |   |   |   |   |   |   |   |   |   |   |   |   |   |   |   |   |   avg_length_sentences > 12: 0 (2.0)
|   |   |   |   |   |   |   |   |   |   |   |   |   |   |   |   past_tense_verb > 0: 4 (3.0/1.0)
|   |   |   |   |   |   |   |   |   |   |   |   |   |   |   coord_conjunction > 0
|   |   |   |   |   |   |   |   |   |   |   |   |   |   |   |   common_nouns <= 3: 4 (3.0/1.0)
|   |   |   |   |   |   |   |   |   |   |   |   |   |   |   |   common_nouns > 3: 0 (4.0)
|   |   |   |   |   |   |   |   |   |   |   |   |   |   num_sentences > 1: 0 (14.0/1.0)
|   |   |   |   |   |   |   |   |   |   |   |   |   common_nouns > 7: 4 (5.0)
|   |   |   |   |   |   |   |   |   |   |   3rd_person > 0
|   |   |   |   |   |   |   |   |   |   |   |   dashes <= 0
|   |   |   |   |   |   |   |   |   |   |   |   |   3rd_person <= 1
|   |   |   |   |   |   |   |   |   |   |   |   |   |   avg_length_token <= 2.785714: 4 (16.0/1.0)
|   |   |   |   |   |   |   |   |   |   |   |   |   |   avg_length_token > 2.785714
|   |   |   |   |   |   |   |   |   |   |   |   |   |   |   ellipses <= 0
|   |   |   |   |   |   |   |   |   |   |   |   |   |   |   |   1st_person <= 0
|   |   |   |   |   |   |   |   |   |   |   |   |   |   |   |   |   commas <= 1
|   |   |   |   |   |   |   |   |   |   |   |   |   |   |   |   |   |   past_tense_verb <= 0
|   |   |   |   |   |   |   |   |   |   |   |   |   |   |   |   |   |   |   num_sentences <= 1
|   |   |   |   |   |   |   |   |   |   |   |   |   |   |   |   |   |   |   |   avg_length_sentences <= 5.5: 4 (10.0/1.0)
|   |   |   |   |   |   |   |   |   |   |   |   |   |   |   |   |   |   |   |   avg_length_sentences > 5.5
|   |   |   |   |   |   |   |   |   |   |   |   |   |   |   |   |   |   |   |   |   future_tense_verb <= 0
|   |   |   |   |   |   |   |   |   |   |   |   |   |   |   |   |   |   |   |   |   |   common_nouns <= 2
|   |   |   |   |   |   |   |   |   |   |   |   |   |   |   |   |   |   |   |   |   |   |   avg_length_token <= 3.678571: 0 (13.0/1.0)
|   |   |   |   |   |   |   |   |   |   |   |   |   |   |   |   |   |   |   |   |   |   |   avg_length_token > 3.678571
|   |   |   |   |   |   |   |   |   |   |   |   |   |   |   |   |   |   |   |   |   |   |   |   avg_length_sentences <= 7.5: 0 (2.0)
|   |   |   |   |   |   |   |   |   |   |   |   |   |   |   |   |   |   |   |   |   |   |   |   avg_length_sentences > 7.5: 4 (2.0)
|   |   |   |   |   |   |   |   |   |   |   |   |   |   |   |   |   |   |   |   |   |   common_nouns > 2
|   |   |   |   |   |   |   |   |   |   |   |   |   |   |   |   |   |   |   |   |   |   |   avg_length_token <= 3.772727
|   |   |   |   |   |   |   |   |   |   |   |   |   |   |   |   |   |   |   |   |   |   |   |   common_nouns <= 3
|   |   |   |   |   |   |   |   |   |   |   |   |   |   |   |   |   |   |   |   |   |   |   |   |   avg_length_token <= 3.590909: 4 (4.0)
|   |   |   |   |   |   |   |   |   |   |   |   |   |   |   |   |   |   |   |   |   |   |   |   |   avg_length_token > 3.590909: 0 (2.0)
|   |   |   |   |   |   |   |   |   |   |   |   |   |   |   |   |   |   |   |   |   |   |   |   common_nouns > 3
|   |   |   |   |   |   |   |   |   |   |   |   |   |   |   |   |   |   |   |   |   |   |   |   |   common_nouns <= 4: 0 (5.0)
|   |   |   |   |   |   |   |   |   |   |   |   |   |   |   |   |   |   |   |   |   |   |   |   |   common_nouns > 4
|   |   |   |   |   |   |   |   |   |   |   |   |   |   |   |   |   |   |   |   |   |   |   |   |   |   avg_length_sentences <= 10.5: 4 (2.0)
|   |   |   |   |   |   |   |   |   |   |   |   |   |   |   |   |   |   |   |   |   |   |   |   |   |   avg_length_sentences > 10.5: 0 (3.0/1.0)
|   |   |   |   |   |   |   |   |   |   |   |   |   |   |   |   |   |   |   |   |   |   |   avg_length_token > 3.772727: 4 (4.0)
|   |   |   |   |   |   |   |   |   |   |   |   |   |   |   |   |   |   |   |   |   future_tense_verb > 0: 4 (5.0/1.0)
|   |   |   |   |   |   |   |   |   |   |   |   |   |   |   |   |   |   |   num_sentences > 1
|   |   |   |   |   |   |   |   |   |   |   |   |   |   |   |   |   |   |   |   avg_length_token <= 3.37037: 4 (5.0/1.0)
|   |   |   |   |   |   |   |   |   |   |   |   |   |   |   |   |   |   |   |   avg_length_token > 3.37037: 0 (10.0/1.0)
|   |   |   |   |   |   |   |   |   |   |   |   |   |   |   |   |   |   past_tense_verb > 0
|   |   |   |   |   |   |   |   |   |   |   |   |   |   |   |   |   |   |   avg_length_token <= 3.526316
|   |   |   |   |   |   |   |   |   |   |   |   |   |   |   |   |   |   |   |   num_sentences <= 1
|   |   |   |   |   |   |   |   |   |   |   |   |   |   |   |   |   |   |   |   |   avg_length_token <= 3.142857: 0 (3.0)
|   |   |   |   |   |   |   |   |   |   |   |   |   |   |   |   |   |   |   |   |   avg_length_token > 3.142857
|   |   |   |   |   |   |   |   |   |   |   |   |   |   |   |   |   |   |   |   |   |   avg_length_token <= 3.36: 4 (5.0/1.0)
|   |   |   |   |   |   |   |   |   |   |   |   |   |   |   |   |   |   |   |   |   |   avg_length_token > 3.36: 0 (5.0/1.0)
|   |   |   |   |   |   |   |   |   |   |   |   |   |   |   |   |   |   |   |   num_sentences > 1: 0 (3.0)
|   |   |   |   |   |   |   |   |   |   |   |   |   |   |   |   |   |   |   avg_length_token > 3.526316: 4 (13.0)
|   |   |   |   |   |   |   |   |   |   |   |   |   |   |   |   |   commas > 1
|   |   |   |   |   |   |   |   |   |   |   |   |   |   |   |   |   |   future_tense_verb <= 0
|   |   |   |   |   |   |   |   |   |   |   |   |   |   |   |   |   |   |   commas <= 3: 0 (9.0/1.0)
|   |   |   |   |   |   |   |   |   |   |   |   |   |   |   |   |   |   |   commas > 3: 4 (3.0/1.0)
|   |   |   |   |   |   |   |   |   |   |   |   |   |   |   |   |   |   future_tense_verb > 0: 4 (3.0/1.0)
|   |   |   |   |   |   |   |   |   |   |   |   |   |   |   |   1st_person > 0
|   |   |   |   |   |   |   |   |   |   |   |   |   |   |   |   |   num_sentences <= 2
|   |   |   |   |   |   |   |   |   |   |   |   |   |   |   |   |   |   coord_conjunction <= 0
|   |   |   |   |   |   |   |   |   |   |   |   |   |   |   |   |   |   |   future_tense_verb <= 0
|   |   |   |   |   |   |   |   |   |   |   |   |   |   |   |   |   |   |   |   past_tense_verb <= 0
|   |   |   |   |   |   |   |   |   |   |   |   |   |   |   |   |   |   |   |   |   proper_nouns <= 0
|   |   |   |   |   |   |   |   |   |   |   |   |   |   |   |   |   |   |   |   |   |   common_nouns <= 3
|   |   |   |   |   |   |   |   |   |   |   |   |   |   |   |   |   |   |   |   |   |   |   avg_length_token <= 3.055556: 0 (2.0)
|   |   |   |   |   |   |   |   |   |   |   |   |   |   |   |   |   |   |   |   |   |   |   avg_length_token > 3.055556
|   |   |   |   |   |   |   |   |   |   |   |   |   |   |   |   |   |   |   |   |   |   |   |   avg_length_token <= 3.642857: 4 (8.0)
|   |   |   |   |   |   |   |   |   |   |   |   |   |   |   |   |   |   |   |   |   |   |   |   avg_length_token > 3.642857: 0 (3.0/1.0)
|   |   |   |   |   |   |   |   |   |   |   |   |   |   |   |   |   |   |   |   |   |   common_nouns > 3: 0 (6.0/1.0)
|   |   |   |   |   |   |   |   |   |   |   |   |   |   |   |   |   |   |   |   |   proper_nouns > 0: 4 (2.0)
|   |   |   |   |   |   |   |   |   |   |   |   |   |   |   |   |   |   |   |   past_tense_verb > 0
|   |   |   |   |   |   |   |   |   |   |   |   |   |   |   |   |   |   |   |   |   common_nouns <= 4: 0 (6.0)
|   |   |   |   |   |   |   |   |   |   |   |   |   |   |   |   |   |   |   |   |   common_nouns > 4: 4 (2.0)
|   |   |   |   |   |   |   |   |   |   |   |   |   |   |   |   |   |   |   future_tense_verb > 0: 0 (4.0/1.0)
|   |   |   |   |   |   |   |   |   |   |   |   |   |   |   |   |   |   coord_conjunction > 0: 4 (5.0/1.0)
|   |   |   |   |   |   |   |   |   |   |   |   |   |   |   |   |   num_sentences > 2: 4 (4.0)
|   |   |   |   |   |   |   |   |   |   |   |   |   |   |   ellipses > 0
|   |   |   |   |   |   |   |   |   |   |   |   |   |   |   |   coord_conjunction <= 0: 0 (20.0/6.0)
|   |   |   |   |   |   |   |   |   |   |   |   |   |   |   |   coord_conjunction > 0
|   |   |   |   |   |   |   |   |   |   |   |   |   |   |   |   |   past_tense_verb <= 0: 4 (3.0)
|   |   |   |   |   |   |   |   |   |   |   |   |   |   |   |   |   past_tense_verb > 0: 0 (3.0/1.0)
|   |   |   |   |   |   |   |   |   |   |   |   |   3rd_person > 1: 4 (22.0/6.0)
|   |   |   |   |   |   |   |   |   |   |   |   dashes > 0
|   |   |   |   |   |   |   |   |   |   |   |   |   future_tense_verb <= 0: 4 (10.0/1.0)
|   |   |   |   |   |   |   |   |   |   |   |   |   future_tense_verb > 0: 0 (2.0)
|   |   |   |   |   |   |   |   |   |   modern_slang > 0
|   |   |   |   |   |   |   |   |   |   |   proper_nouns <= 1
|   |   |   |   |   |   |   |   |   |   |   |   avg_length_token <= 3.583333: 0 (12.0/2.0)
|   |   |   |   |   |   |   |   |   |   |   |   avg_length_token > 3.583333
|   |   |   |   |   |   |   |   |   |   |   |   |   common_nouns <= 3: 4 (6.0)
|   |   |   |   |   |   |   |   |   |   |   |   |   common_nouns > 3: 0 (9.0/3.0)
|   |   |   |   |   |   |   |   |   |   |   proper_nouns > 1: 0 (2.0)
|   |   |   |   |   |   |   |   |   1st_person > 1
|   |   |   |   |   |   |   |   |   |   dashes <= 0
|   |   |   |   |   |   |   |   |   |   |   future_tense_verb <= 0
|   |   |   |   |   |   |   |   |   |   |   |   1st_person <= 2
|   |   |   |   |   |   |   |   |   |   |   |   |   ellipses <= 1
|   |   |   |   |   |   |   |   |   |   |   |   |   |   commas <= 1
|   |   |   |   |   |   |   |   |   |   |   |   |   |   |   coord_conjunction <= 0
|   |   |   |   |   |   |   |   |   |   |   |   |   |   |   |   proper_nouns <= 0
|   |   |   |   |   |   |   |   |   |   |   |   |   |   |   |   |   past_tense_verb <= 0
|   |   |   |   |   |   |   |   |   |   |   |   |   |   |   |   |   |   3rd_person <= 0
|   |   |   |   |   |   |   |   |   |   |   |   |   |   |   |   |   |   |   num_sentences <= 1
|   |   |   |   |   |   |   |   |   |   |   |   |   |   |   |   |   |   |   |   avg_length_token <= 3.631579: 0 (13.0/1.0)
|   |   |   |   |   |   |   |   |   |   |   |   |   |   |   |   |   |   |   |   avg_length_token > 3.631579
|   |   |   |   |   |   |   |   |   |   |   |   |   |   |   |   |   |   |   |   |   avg_length_sentences <= 9.5: 0 (2.0)
|   |   |   |   |   |   |   |   |   |   |   |   |   |   |   |   |   |   |   |   |   avg_length_sentences > 9.5: 4 (6.0/1.0)
|   |   |   |   |   |   |   |   |   |   |   |   |   |   |   |   |   |   |   num_sentences > 1: 4 (5.0/1.0)
|   |   |   |   |   |   |   |   |   |   |   |   |   |   |   |   |   |   3rd_person > 0: 4 (3.0)
|   |   |   |   |   |   |   |   |   |   |   |   |   |   |   |   |   past_tense_verb > 0
|   |   |   |   |   |   |   |   |   |   |   |   |   |   |   |   |   |   common_nouns <= 3: 0 (12.0)
|   |   |   |   |   |   |   |   |   |   |   |   |   |   |   |   |   |   common_nouns > 3
|   |   |   |   |   |   |   |   |   |   |   |   |   |   |   |   |   |   |   common_nouns <= 4: 4 (2.0)
|   |   |   |   |   |   |   |   |   |   |   |   |   |   |   |   |   |   |   common_nouns > 4: 0 (3.0)
|   |   |   |   |   |   |   |   |   |   |   |   |   |   |   |   proper_nouns > 0: 0 (7.0)
|   |   |   |   |   |   |   |   |   |   |   |   |   |   |   coord_conjunction > 0: 0 (10.0)
|   |   |   |   |   |   |   |   |   |   |   |   |   |   commas > 1
|   |   |   |   |   |   |   |   |   |   |   |   |   |   |   past_tense_verb <= 0
|   |   |   |   |   |   |   |   |   |   |   |   |   |   |   |   coord_conjunction <= 0
|   |   |   |   |   |   |   |   |   |   |   |   |   |   |   |   |   avg_length_sentences <= 10: 4 (5.0/1.0)
|   |   |   |   |   |   |   |   |   |   |   |   |   |   |   |   |   avg_length_sentences > 10: 0 (4.0)
|   |   |   |   |   |   |   |   |   |   |   |   |   |   |   |   coord_conjunction > 0: 0 (4.0)
|   |   |   |   |   |   |   |   |   |   |   |   |   |   |   past_tense_verb > 0
|   |   |   |   |   |   |   |   |   |   |   |   |   |   |   |   avg_length_token <= 3.5: 0 (3.0)
|   |   |   |   |   |   |   |   |   |   |   |   |   |   |   |   avg_length_token > 3.5: 4 (9.0/1.0)
|   |   |   |   |   |   |   |   |   |   |   |   |   ellipses > 1
|   |   |   |   |   |   |   |   |   |   |   |   |   |   avg_length_token <= 3.9: 4 (8.0/1.0)
|   |   |   |   |   |   |   |   |   |   |   |   |   |   avg_length_token > 3.9: 0 (3.0)
|   |   |   |   |   |   |   |   |   |   |   |   1st_person > 2: 0 (20.0/2.0)
|   |   |   |   |   |   |   |   |   |   |   future_tense_verb > 0
|   |   |   |   |   |   |   |   |   |   |   |   3rd_person <= 0
|   |   |   |   |   |   |   |   |   |   |   |   |   past_tense_verb <= 0
|   |   |   |   |   |   |   |   |   |   |   |   |   |   commas <= 1
|   |   |   |   |   |   |   |   |   |   |   |   |   |   |   avg_length_sentences <= 11: 4 (4.0)
|   |   |   |   |   |   |   |   |   |   |   |   |   |   |   avg_length_sentences > 11: 0 (6.0/2.0)
|   |   |   |   |   |   |   |   |   |   |   |   |   |   commas > 1: 4 (2.0)
|   |   |   |   |   |   |   |   |   |   |   |   |   past_tense_verb > 0: 0 (3.0)
|   |   |   |   |   |   |   |   |   |   |   |   3rd_person > 0: 4 (3.0)
|   |   |   |   |   |   |   |   |   |   dashes > 0
|   |   |   |   |   |   |   |   |   |   |   avg_length_token <= 3.545455: 4 (8.0)
|   |   |   |   |   |   |   |   |   |   |   avg_length_token > 3.545455: 0 (4.0/1.0)
|   |   |   |   |   |   |   parentheses > 0
|   |   |   |   |   |   |   |   3rd_person <= 0
|   |   |   |   |   |   |   |   |   commas <= 1
|   |   |   |   |   |   |   |   |   |   avg_length_token <= 3.352941: 0 (2.0)
|   |   |   |   |   |   |   |   |   |   avg_length_token > 3.352941: 4 (13.0/1.0)
|   |   |   |   |   |   |   |   |   commas > 1
|   |   |   |   |   |   |   |   |   |   avg_length_token <= 3.740741: 0 (2.0)
|   |   |   |   |   |   |   |   |   |   avg_length_token > 3.740741: 4 (2.0)
|   |   |   |   |   |   |   |   3rd_person > 0: 0 (6.0/1.0)
|   |   |   |   |   |   coord_conjunction > 1
|   |   |   |   |   |   |   3rd_person <= 0
|   |   |   |   |   |   |   |   commas <= 1: 0 (7.0/1.0)
|   |   |   |   |   |   |   |   commas > 1
|   |   |   |   |   |   |   |   |   avg_length_token <= 3.818182: 4 (5.0)
|   |   |   |   |   |   |   |   |   avg_length_token > 3.818182: 0 (2.0)
|   |   |   |   |   |   |   3rd_person > 0: 0 (13.0/1.0)
|   |   |   |   |   wh_words > 0
|   |   |   |   |   |   commas <= 1
|   |   |   |   |   |   |   dashes <= 0
|   |   |   |   |   |   |   |   proper_nouns <= 0
|   |   |   |   |   |   |   |   |   1st_person <= 1
|   |   |   |   |   |   |   |   |   |   ellipses <= 0
|   |   |   |   |   |   |   |   |   |   |   avg_length_token <= 3.85
|   |   |   |   |   |   |   |   |   |   |   |   future_tense_verb <= 0
|   |   |   |   |   |   |   |   |   |   |   |   |   3rd_person <= 0
|   |   |   |   |   |   |   |   |   |   |   |   |   |   avg_length_sentences <= 6.5: 0 (26.0/3.0)
|   |   |   |   |   |   |   |   |   |   |   |   |   |   avg_length_sentences > 6.5
|   |   |   |   |   |   |   |   |   |   |   |   |   |   |   avg_length_sentences <= 7.5: 4 (7.0/1.0)
|   |   |   |   |   |   |   |   |   |   |   |   |   |   |   avg_length_sentences > 7.5: 0 (40.0/9.0)
|   |   |   |   |   |   |   |   |   |   |   |   |   3rd_person > 0
|   |   |   |   |   |   |   |   |   |   |   |   |   |   coord_conjunction <= 0
|   |   |   |   |   |   |   |   |   |   |   |   |   |   |   parentheses <= 1
|   |   |   |   |   |   |   |   |   |   |   |   |   |   |   |   past_tense_verb <= 0
|   |   |   |   |   |   |   |   |   |   |   |   |   |   |   |   |   avg_length_sentences <= 8.5: 0 (3.0)
|   |   |   |   |   |   |   |   |   |   |   |   |   |   |   |   |   avg_length_sentences > 8.5: 4 (2.0)
|   |   |   |   |   |   |   |   |   |   |   |   |   |   |   |   past_tense_verb > 0
|   |   |   |   |   |   |   |   |   |   |   |   |   |   |   |   |   avg_length_sentences <= 7.5: 4 (3.0)
|   |   |   |   |   |   |   |   |   |   |   |   |   |   |   |   |   avg_length_sentences > 7.5: 0 (2.0)
|   |   |   |   |   |   |   |   |   |   |   |   |   |   |   parentheses > 1: 4 (2.0)
|   |   |   |   |   |   |   |   |   |   |   |   |   |   coord_conjunction > 0: 0 (4.0)
|   |   |   |   |   |   |   |   |   |   |   |   future_tense_verb > 0: 0 (9.0/1.0)
|   |   |   |   |   |   |   |   |   |   |   avg_length_token > 3.85: 4 (10.0/2.0)
|   |   |   |   |   |   |   |   |   |   ellipses > 0
|   |   |   |   |   |   |   |   |   |   |   3rd_person <= 0
|   |   |   |   |   |   |   |   |   |   |   |   wh_words <= 1
|   |   |   |   |   |   |   |   |   |   |   |   |   past_tense_verb <= 0
|   |   |   |   |   |   |   |   |   |   |   |   |   |   common_nouns <= 3
|   |   |   |   |   |   |   |   |   |   |   |   |   |   |   common_nouns <= 2: 4 (3.0/1.0)
|   |   |   |   |   |   |   |   |   |   |   |   |   |   |   common_nouns > 2: 0 (2.0)
|   |   |   |   |   |   |   |   |   |   |   |   |   |   common_nouns > 3: 4 (5.0)
|   |   |   |   |   |   |   |   |   |   |   |   |   past_tense_verb > 0: 0 (4.0)
|   |   |   |   |   |   |   |   |   |   |   |   wh_words > 1: 4 (2.0)
|   |   |   |   |   |   |   |   |   |   |   3rd_person > 0: 0 (3.0)
|   |   |   |   |   |   |   |   |   1st_person > 1: 0 (14.0/1.0)
|   |   |   |   |   |   |   |   proper_nouns > 0
|   |   |   |   |   |   |   |   |   future_tense_verb <= 0
|   |   |   |   |   |   |   |   |   |   avg_length_sentences <= 8.25: 0 (7.0/1.0)
|   |   |   |   |   |   |   |   |   |   avg_length_sentences > 8.25: 4 (6.0/1.0)
|   |   |   |   |   |   |   |   |   future_tense_verb > 0: 4 (4.0/1.0)
|   |   |   |   |   |   |   dashes > 0: 0 (10.0/1.0)
|   |   |   |   |   |   commas > 1
|   |   |   |   |   |   |   avg_length_sentences <= 12
|   |   |   |   |   |   |   |   avg_length_token <= 3.772727: 4 (13.0)
|   |   |   |   |   |   |   |   avg_length_token > 3.772727: 0 (4.0/1.0)
|   |   |   |   |   |   |   avg_length_sentences > 12: 0 (17.0/4.0)
|   |   |   |   upper_case_words > 0
|   |   |   |   |   1st_person <= 1
|   |   |   |   |   |   modern_slang <= 0
|   |   |   |   |   |   |   future_tense_verb <= 0
|   |   |   |   |   |   |   |   upper_case_words <= 7
|   |   |   |   |   |   |   |   |   common_nouns <= 7
|   |   |   |   |   |   |   |   |   |   3rd_person <= 0
|   |   |   |   |   |   |   |   |   |   |   coord_conjunction <= 0
|   |   |   |   |   |   |   |   |   |   |   |   wh_words <= 0
|   |   |   |   |   |   |   |   |   |   |   |   |   ellipses <= 0
|   |   |   |   |   |   |   |   |   |   |   |   |   |   proper_nouns <= 0
|   |   |   |   |   |   |   |   |   |   |   |   |   |   |   num_sentences <= 1
|   |   |   |   |   |   |   |   |   |   |   |   |   |   |   |   dashes <= 0
|   |   |   |   |   |   |   |   |   |   |   |   |   |   |   |   |   common_nouns <= 3: 4 (50.0/18.0)
|   |   |   |   |   |   |   |   |   |   |   |   |   |   |   |   |   common_nouns > 3: 0 (11.0/2.0)
|   |   |   |   |   |   |   |   |   |   |   |   |   |   |   |   dashes > 0: 0 (3.0/1.0)
|   |   |   |   |   |   |   |   |   |   |   |   |   |   |   num_sentences > 1
|   |   |   |   |   |   |   |   |   |   |   |   |   |   |   |   common_nouns <= 1: 0 (2.0)
|   |   |   |   |   |   |   |   |   |   |   |   |   |   |   |   common_nouns > 1: 4 (11.0/1.0)
|   |   |   |   |   |   |   |   |   |   |   |   |   |   proper_nouns > 0: 4 (32.0/7.0)
|   |   |   |   |   |   |   |   |   |   |   |   |   ellipses > 0: 4 (15.0/3.0)
|   |   |   |   |   |   |   |   |   |   |   |   wh_words > 0
|   |   |   |   |   |   |   |   |   |   |   |   |   upper_case_words <= 1
|   |   |   |   |   |   |   |   |   |   |   |   |   |   common_nouns <= 2: 0 (3.0/1.0)
|   |   |   |   |   |   |   |   |   |   |   |   |   |   common_nouns > 2: 4 (5.0)
|   |   |   |   |   |   |   |   |   |   |   |   |   upper_case_words > 1: 0 (5.0)
|   |   |   |   |   |   |   |   |   |   |   coord_conjunction > 0
|   |   |   |   |   |   |   |   |   |   |   |   commas <= 1
|   |   |   |   |   |   |   |   |   |   |   |   |   avg_length_token <= 3.681818: 4 (12.0/3.0)
|   |   |   |   |   |   |   |   |   |   |   |   |   avg_length_token > 3.681818
|   |   |   |   |   |   |   |   |   |   |   |   |   |   num_sentences <= 1
|   |   |   |   |   |   |   |   |   |   |   |   |   |   |   avg_length_sentences <= 13.5: 4 (2.0)
|   |   |   |   |   |   |   |   |   |   |   |   |   |   |   avg_length_sentences > 13.5: 0 (4.0)
|   |   |   |   |   |   |   |   |   |   |   |   |   |   num_sentences > 1: 0 (3.0)
|   |   |   |   |   |   |   |   |   |   |   |   commas > 1: 0 (3.0/1.0)
|   |   |   |   |   |   |   |   |   |   3rd_person > 0
|   |   |   |   |   |   |   |   |   |   |   proper_nouns <= 0
|   |   |   |   |   |   |   |   |   |   |   |   wh_words <= 0
|   |   |   |   |   |   |   |   |   |   |   |   |   past_tense_verb <= 0
|   |   |   |   |   |   |   |   |   |   |   |   |   |   common_nouns <= 2: 4 (8.0/1.0)
|   |   |   |   |   |   |   |   |   |   |   |   |   |   common_nouns > 2
|   |   |   |   |   |   |   |   |   |   |   |   |   |   |   1st_person <= 0: 4 (9.0/2.0)
|   |   |   |   |   |   |   |   |   |   |   |   |   |   |   1st_person > 0: 0 (3.0)
|   |   |   |   |   |   |   |   |   |   |   |   |   past_tense_verb > 0: 0 (2.0)
|   |   |   |   |   |   |   |   |   |   |   |   wh_words > 0: 4 (3.0)
|   |   |   |   |   |   |   |   |   |   |   proper_nouns > 0: 0 (7.0/1.0)
|   |   |   |   |   |   |   |   |   common_nouns > 7: 4 (12.0/1.0)
|   |   |   |   |   |   |   |   upper_case_words > 7
|   |   |   |   |   |   |   |   |   upper_case_words <= 8: 4 (2.0)
|   |   |   |   |   |   |   |   |   upper_case_words > 8: 0 (9.0/1.0)
|   |   |   |   |   |   |   future_tense_verb > 0
|   |   |   |   |   |   |   |   common_nouns <= 6
|   |   |   |   |   |   |   |   |   proper_nouns <= 0
|   |   |   |   |   |   |   |   |   |   avg_length_token <= 3.266667: 0 (2.0)
|   |   |   |   |   |   |   |   |   |   avg_length_token > 3.266667: 4 (11.0/1.0)
|   |   |   |   |   |   |   |   |   proper_nouns > 0: 0 (5.0/1.0)
|   |   |   |   |   |   |   |   common_nouns > 6: 0 (4.0)
|   |   |   |   |   |   modern_slang > 0
|   |   |   |   |   |   |   proper_nouns <= 1
|   |   |   |   |   |   |   |   avg_length_token <= 3.724138: 0 (8.0)
|   |   |   |   |   |   |   |   avg_length_token > 3.724138: 4 (2.0)
|   |   |   |   |   |   |   proper_nouns > 1: 4 (3.0)
|   |   |   |   |   1st_person > 1
|   |   |   |   |   |   future_tense_verb <= 0
|   |   |   |   |   |   |   proper_nouns <= 1
|   |   |   |   |   |   |   |   commas <= 1: 0 (20.0/3.0)
|   |   |   |   |   |   |   |   commas > 1
|   |   |   |   |   |   |   |   |   3rd_person <= 0: 0 (3.0)
|   |   |   |   |   |   |   |   |   3rd_person > 0: 4 (3.0)
|   |   |   |   |   |   |   proper_nouns > 1: 4 (5.0/1.0)
|   |   |   |   |   |   future_tense_verb > 0: 4 (2.0)
|   |   |   past_tense_verb > 1
|   |   |   |   wh_words <= 0
|   |   |   |   |   commas <= 3
|   |   |   |   |   |   ellipses <= 0
|   |   |   |   |   |   |   1st_person <= 1
|   |   |   |   |   |   |   |   modern_slang <= 0
|   |   |   |   |   |   |   |   |   num_sentences <= 1
|   |   |   |   |   |   |   |   |   |   past_tense_verb <= 2
|   |   |   |   |   |   |   |   |   |   |   commas <= 1
|   |   |   |   |   |   |   |   |   |   |   |   3rd_person <= 1
|   |   |   |   |   |   |   |   |   |   |   |   |   common_nouns <= 7
|   |   |   |   |   |   |   |   |   |   |   |   |   |   1st_person <= 0
|   |   |   |   |   |   |   |   |   |   |   |   |   |   |   avg_length_token <= 3.740741: 4 (3.0)
|   |   |   |   |   |   |   |   |   |   |   |   |   |   |   avg_length_token > 3.740741: 0 (4.0)
|   |   |   |   |   |   |   |   |   |   |   |   |   |   1st_person > 0: 0 (8.0)
|   |   |   |   |   |   |   |   |   |   |   |   |   common_nouns > 7: 4 (3.0)
|   |   |   |   |   |   |   |   |   |   |   |   3rd_person > 1: 4 (2.0)
|   |   |   |   |   |   |   |   |   |   |   commas > 1: 4 (2.0)
|   |   |   |   |   |   |   |   |   |   past_tense_verb > 2: 0 (6.0)
|   |   |   |   |   |   |   |   |   num_sentences > 1: 4 (16.0/4.0)
|   |   |   |   |   |   |   |   modern_slang > 0: 0 (3.0)
|   |   |   |   |   |   |   1st_person > 1: 0 (23.0/3.0)
|   |   |   |   |   |   ellipses > 0: 0 (15.0/2.0)
|   |   |   |   |   commas > 3: 4 (7.0/2.0)
|   |   |   |   wh_words > 0: 0 (15.0/1.0)
|   |   adverbs > 0
|   |   |   parentheses <= 0
|   |   |   |   dashes <= 0
|   |   |   |   |   avg_length_token <= 3.533333
|   |   |   |   |   |   wh_words <= 0
|   |   |   |   |   |   |   upper_case_words <= 1
|   |   |   |   |   |   |   |   3rd_person <= 0
|   |   |   |   |   |   |   |   |   common_nouns <= 4
|   |   |   |   |   |   |   |   |   |   adverbs <= 2
|   |   |   |   |   |   |   |   |   |   |   commas <= 0
|   |   |   |   |   |   |   |   |   |   |   |   upper_case_words <= 0
|   |   |   |   |   |   |   |   |   |   |   |   |   past_tense_verb <= 0
|   |   |   |   |   |   |   |   |   |   |   |   |   |   num_sentences <= 1: 0 (326.0/49.0)
|   |   |   |   |   |   |   |   |   |   |   |   |   |   num_sentences > 1
|   |   |   |   |   |   |   |   |   |   |   |   |   |   |   modern_slang <= 0
|   |   |   |   |   |   |   |   |   |   |   |   |   |   |   |   avg_length_sentences <= 6.5
|   |   |   |   |   |   |   |   |   |   |   |   |   |   |   |   |   num_sentences <= 2
|   |   |   |   |   |   |   |   |   |   |   |   |   |   |   |   |   |   ellipses <= 0
|   |   |   |   |   |   |   |   |   |   |   |   |   |   |   |   |   |   |   1st_person <= 0
|   |   |   |   |   |   |   |   |   |   |   |   |   |   |   |   |   |   |   |   common_nouns <= 2: 0 (11.0/3.0)
|   |   |   |   |   |   |   |   |   |   |   |   |   |   |   |   |   |   |   |   common_nouns > 2: 4 (3.0)
|   |   |   |   |   |   |   |   |   |   |   |   |   |   |   |   |   |   |   1st_person > 0: 4 (8.0/2.0)
|   |   |   |   |   |   |   |   |   |   |   |   |   |   |   |   |   |   ellipses > 0: 0 (16.0/2.0)
|   |   |   |   |   |   |   |   |   |   |   |   |   |   |   |   |   num_sentences > 2: 4 (13.0/4.0)
|   |   |   |   |   |   |   |   |   |   |   |   |   |   |   |   avg_length_sentences > 6.5: 0 (17.0/2.0)
|   |   |   |   |   |   |   |   |   |   |   |   |   |   |   modern_slang > 0: 0 (17.0/3.0)
|   |   |   |   |   |   |   |   |   |   |   |   |   past_tense_verb > 0
|   |   |   |   |   |   |   |   |   |   |   |   |   |   num_sentences <= 1
|   |   |   |   |   |   |   |   |   |   |   |   |   |   |   ellipses <= 0
|   |   |   |   |   |   |   |   |   |   |   |   |   |   |   |   1st_person <= 1
|   |   |   |   |   |   |   |   |   |   |   |   |   |   |   |   |   adverbs <= 1
|   |   |   |   |   |   |   |   |   |   |   |   |   |   |   |   |   |   avg_length_sentences <= 14.5
|   |   |   |   |   |   |   |   |   |   |   |   |   |   |   |   |   |   |   avg_length_sentences <= 4.5: 4 (6.0/1.0)
|   |   |   |   |   |   |   |   |   |   |   |   |   |   |   |   |   |   |   avg_length_sentences > 4.5: 0 (44.0/14.0)
|   |   |   |   |   |   |   |   |   |   |   |   |   |   |   |   |   |   avg_length_sentences > 14.5: 4 (3.0)
|   |   |   |   |   |   |   |   |   |   |   |   |   |   |   |   |   adverbs > 1
|   |   |   |   |   |   |   |   |   |   |   |   |   |   |   |   |   |   common_nouns <= 2: 0 (11.0/2.0)
|   |   |   |   |   |   |   |   |   |   |   |   |   |   |   |   |   |   common_nouns > 2: 4 (5.0/1.0)
|   |   |   |   |   |   |   |   |   |   |   |   |   |   |   |   1st_person > 1: 0 (14.0/2.0)
|   |   |   |   |   |   |   |   |   |   |   |   |   |   |   ellipses > 0: 4 (7.0/2.0)
|   |   |   |   |   |   |   |   |   |   |   |   |   |   num_sentences > 1
|   |   |   |   |   |   |   |   |   |   |   |   |   |   |   modern_slang <= 0: 0 (47.0/3.0)
|   |   |   |   |   |   |   |   |   |   |   |   |   |   |   modern_slang > 0
|   |   |   |   |   |   |   |   |   |   |   |   |   |   |   |   avg_length_sentences <= 6: 0 (2.0)
|   |   |   |   |   |   |   |   |   |   |   |   |   |   |   |   avg_length_sentences > 6: 4 (3.0)
|   |   |   |   |   |   |   |   |   |   |   |   upper_case_words > 0
|   |   |   |   |   |   |   |   |   |   |   |   |   proper_nouns <= 0
|   |   |   |   |   |   |   |   |   |   |   |   |   |   ellipses <= 0
|   |   |   |   |   |   |   |   |   |   |   |   |   |   |   past_tense_verb <= 0
|   |   |   |   |   |   |   |   |   |   |   |   |   |   |   |   1st_person <= 1
|   |   |   |   |   |   |   |   |   |   |   |   |   |   |   |   |   common_nouns <= 1: 4 (8.0/1.0)
|   |   |   |   |   |   |   |   |   |   |   |   |   |   |   |   |   common_nouns > 1
|   |   |   |   |   |   |   |   |   |   |   |   |   |   |   |   |   |   avg_length_sentences <= 9.5: 4 (6.0/1.0)
|   |   |   |   |   |   |   |   |   |   |   |   |   |   |   |   |   |   avg_length_sentences > 9.5
|   |   |   |   |   |   |   |   |   |   |   |   |   |   |   |   |   |   |   avg_length_token <= 3.366667: 0 (7.0)
|   |   |   |   |   |   |   |   |   |   |   |   |   |   |   |   |   |   |   avg_length_token > 3.366667: 4 (2.0)
|   |   |   |   |   |   |   |   |   |   |   |   |   |   |   |   1st_person > 1: 0 (6.0)
|   |   |   |   |   |   |   |   |   |   |   |   |   |   |   past_tense_verb > 0: 0 (6.0/1.0)
|   |   |   |   |   |   |   |   |   |   |   |   |   |   ellipses > 0: 0 (3.0)
|   |   |   |   |   |   |   |   |   |   |   |   |   proper_nouns > 0: 0 (15.0/1.0)
|   |   |   |   |   |   |   |   |   |   |   commas > 0
|   |   |   |   |   |   |   |   |   |   |   |   modern_slang <= 0
|   |   |   |   |   |   |   |   |   |   |   |   |   ellipses <= 0
|   |   |   |   |   |   |   |   |   |   |   |   |   |   proper_nouns <= 0
|   |   |   |   |   |   |   |   |   |   |   |   |   |   |   avg_length_token <= 3.413793
|   |   |   |   |   |   |   |   |   |   |   |   |   |   |   |   avg_length_token <= 3.347826
|   |   |   |   |   |   |   |   |   |   |   |   |   |   |   |   |   coord_conjunction <= 0
|   |   |   |   |   |   |   |   |   |   |   |   |   |   |   |   |   |   1st_person <= 0: 0 (19.0/7.0)
|   |   |   |   |   |   |   |   |   |   |   |   |   |   |   |   |   |   1st_person > 0
|   |   |   |   |   |   |   |   |   |   |   |   |   |   |   |   |   |   |   avg_length_token <= 3.076923: 0 (5.0)
|   |   |   |   |   |   |   |   |   |   |   |   |   |   |   |   |   |   |   avg_length_token > 3.076923: 4 (6.0/1.0)
|   |   |   |   |   |   |   |   |   |   |   |   |   |   |   |   |   coord_conjunction > 0: 0 (13.0/1.0)
|   |   |   |   |   |   |   |   |   |   |   |   |   |   |   |   avg_length_token > 3.347826: 4 (5.0)
|   |   |   |   |   |   |   |   |   |   |   |   |   |   |   avg_length_token > 3.413793: 0 (10.0)
|   |   |   |   |   |   |   |   |   |   |   |   |   |   proper_nouns > 0
|   |   |   |   |   |   |   |   |   |   |   |   |   |   |   future_tense_verb <= 0
|   |   |   |   |   |   |   |   |   |   |   |   |   |   |   |   adverbs <= 1: 0 (3.0)
|   |   |   |   |   |   |   |   |   |   |   |   |   |   |   |   adverbs > 1
|   |   |   |   |   |   |   |   |   |   |   |   |   |   |   |   |   avg_length_token <= 3.322581: 4 (5.0)
|   |   |   |   |   |   |   |   |   |   |   |   |   |   |   |   |   avg_length_token > 3.322581: 0 (2.0)
|   |   |   |   |   |   |   |   |   |   |   |   |   |   |   future_tense_verb > 0: 4 (3.0)
|   |   |   |   |   |   |   |   |   |   |   |   |   ellipses > 0: 0 (11.0/1.0)
|   |   |   |   |   |   |   |   |   |   |   |   modern_slang > 0: 4 (10.0/2.0)
|   |   |   |   |   |   |   |   |   |   adverbs > 2
|   |   |   |   |   |   |   |   |   |   |   modern_slang <= 1: 0 (53.0/2.0)
|   |   |   |   |   |   |   |   |   |   |   modern_slang > 1
|   |   |   |   |   |   |   |   |   |   |   |   common_nouns <= 3: 0 (5.0/1.0)
|   |   |   |   |   |   |   |   |   |   |   |   common_nouns > 3: 4 (2.0)
|   |   |   |   |   |   |   |   |   common_nouns > 4
|   |   |   |   |   |   |   |   |   |   coord_conjunction <= 0
|   |   |   |   |   |   |   |   |   |   |   ellipses <= 1
|   |   |   |   |   |   |   |   |   |   |   |   adverbs <= 1
|   |   |   |   |   |   |   |   |   |   |   |   |   avg_length_token <= 3.428571
|   |   |   |   |   |   |   |   |   |   |   |   |   |   commas <= 3
|   |   |   |   |   |   |   |   |   |   |   |   |   |   |   past_tense_verb <= 0
|   |   |   |   |   |   |   |   |   |   |   |   |   |   |   |   proper_nouns <= 0
|   |   |   |   |   |   |   |   |   |   |   |   |   |   |   |   |   future_tense_verb <= 0
|   |   |   |   |   |   |   |   |   |   |   |   |   |   |   |   |   |   common_nouns <= 5
|   |   |   |   |   |   |   |   |   |   |   |   |   |   |   |   |   |   |   avg_length_sentences <= 10.5: 4 (2.0)
|   |   |   |   |   |   |   |   |   |   |   |   |   |   |   |   |   |   |   avg_length_sentences > 10.5: 0 (6.0/1.0)
|   |   |   |   |   |   |   |   |   |   |   |   |   |   |   |   |   |   common_nouns > 5: 4 (6.0)
|   |   |   |   |   |   |   |   |   |   |   |   |   |   |   |   |   future_tense_verb > 0: 0 (2.0)
|   |   |   |   |   |   |   |   |   |   |   |   |   |   |   |   proper_nouns > 0: 0 (3.0)
|   |   |   |   |   |   |   |   |   |   |   |   |   |   |   past_tense_verb > 0: 0 (11.0)
|   |   |   |   |   |   |   |   |   |   |   |   |   |   commas > 3: 4 (5.0)
|   |   |   |   |   |   |   |   |   |   |   |   |   avg_length_token > 3.428571: 4 (20.0/3.0)
|   |   |   |   |   |   |   |   |   |   |   |   adverbs > 1
|   |   |   |   |   |   |   |   |   |   |   |   |   past_tense_verb <= 0: 0 (18.0/2.0)
|   |   |   |   |   |   |   |   |   |   |   |   |   past_tense_verb > 0
|   |   |   |   |   |   |   |   |   |   |   |   |   |   upper_case_words <= 0
|   |   |   |   |   |   |   |   |   |   |   |   |   |   |   num_sentences <= 2
|   |   |   |   |   |   |   |   |   |   |   |   |   |   |   |   avg_length_token <= 3.222222: 4 (4.0/1.0)
|   |   |   |   |   |   |   |   |   |   |   |   |   |   |   |   avg_length_token > 3.222222
|   |   |   |   |   |   |   |   |   |   |   |   |   |   |   |   |   1st_person <= 3: 0 (11.0)
|   |   |   |   |   |   |   |   |   |   |   |   |   |   |   |   |   1st_person > 3: 4 (2.0)
|   |   |   |   |   |   |   |   |   |   |   |   |   |   |   num_sentences > 2: 4 (3.0)
|   |   |   |   |   |   |   |   |   |   |   |   |   |   upper_case_words > 0: 4 (2.0)
|   |   |   |   |   |   |   |   |   |   |   ellipses > 1: 0 (5.0)
|   |   |   |   |   |   |   |   |   |   coord_conjunction > 0
|   |   |   |   |   |   |   |   |   |   |   num_sentences <= 1
|   |   |   |   |   |   |   |   |   |   |   |   adverbs <= 2
|   |   |   |   |   |   |   |   |   |   |   |   |   coord_conjunction <= 1
|   |   |   |   |   |   |   |   |   |   |   |   |   |   adverbs <= 1
|   |   |   |   |   |   |   |   |   |   |   |   |   |   |   1st_person <= 1: 4 (5.0)
|   |   |   |   |   |   |   |   |   |   |   |   |   |   |   1st_person > 1: 0 (8.0/2.0)
|   |   |   |   |   |   |   |   |   |   |   |   |   |   adverbs > 1: 0 (14.0/4.0)
|   |   |   |   |   |   |   |   |   |   |   |   |   coord_conjunction > 1: 0 (3.0)
|   |   |   |   |   |   |   |   |   |   |   |   adverbs > 2: 4 (6.0/1.0)
|   |   |   |   |   |   |   |   |   |   |   num_sentences > 1: 0 (45.0/4.0)
|   |   |   |   |   |   |   |   3rd_person > 0
|   |   |   |   |   |   |   |   |   coord_conjunction <= 0
|   |   |   |   |   |   |   |   |   |   future_tense_verb <= 0
|   |   |   |   |   |   |   |   |   |   |   adverbs <= 2
|   |   |   |   |   |   |   |   |   |   |   |   commas <= 0
|   |   |   |   |   |   |   |   |   |   |   |   |   num_sentences <= 2
|   |   |   |   |   |   |   |   |   |   |   |   |   |   1st_person <= 1
|   |   |   |   |   |   |   |   |   |   |   |   |   |   |   ellipses <= 0
|   |   |   |   |   |   |   |   |   |   |   |   |   |   |   |   3rd_person <= 1
|   |   |   |   |   |   |   |   |   |   |   |   |   |   |   |   |   num_sentences <= 1
|   |   |   |   |   |   |   |   |   |   |   |   |   |   |   |   |   |   1st_person <= 0
|   |   |   |   |   |   |   |   |   |   |   |   |   |   |   |   |   |   |   avg_length_token <= 2.666667: 4 (3.0)
|   |   |   |   |   |   |   |   |   |   |   |   |   |   |   |   |   |   |   avg_length_token > 2.666667: 0 (36.0/12.0)
|   |   |   |   |   |   |   |   |   |   |   |   |   |   |   |   |   |   1st_person > 0
|   |   |   |   |   |   |   |   |   |   |   |   |   |   |   |   |   |   |   modern_slang <= 0
|   |   |   |   |   |   |   |   |   |   |   |   |   |   |   |   |   |   |   |   avg_length_sentences <= 7: 0 (6.0)
|   |   |   |   |   |   |   |   |   |   |   |   |   |   |   |   |   |   |   |   avg_length_sentences > 7
|   |   |   |   |   |   |   |   |   |   |   |   |   |   |   |   |   |   |   |   |   avg_length_sentences <= 12.5: 4 (7.0)
|   |   |   |   |   |   |   |   |   |   |   |   |   |   |   |   |   |   |   |   |   avg_length_sentences > 12.5
|   |   |   |   |   |   |   |   |   |   |   |   |   |   |   |   |   |   |   |   |   |   avg_length_sentences <= 16: 0 (3.0)
|   |   |   |   |   |   |   |   |   |   |   |   |   |   |   |   |   |   |   |   |   |   avg_length_sentences > 16: 4 (4.0/1.0)
|   |   |   |   |   |   |   |   |   |   |   |   |   |   |   |   |   |   |   modern_slang > 0: 0 (2.0)
|   |   |   |   |   |   |   |   |   |   |   |   |   |   |   |   |   num_sentences > 1
|   |   |   |   |   |   |   |   |   |   |   |   |   |   |   |   |   |   modern_slang <= 0
|   |   |   |   |   |   |   |   |   |   |   |   |   |   |   |   |   |   |   past_tense_verb <= 1
|   |   |   |   |   |   |   |   |   |   |   |   |   |   |   |   |   |   |   |   adverbs <= 1
|   |   |   |   |   |   |   |   |   |   |   |   |   |   |   |   |   |   |   |   |   avg_length_token <= 3.413793
|   |   |   |   |   |   |   |   |   |   |   |   |   |   |   |   |   |   |   |   |   |   common_nouns <= 3
|   |   |   |   |   |   |   |   |   |   |   |   |   |   |   |   |   |   |   |   |   |   |   common_nouns <= 2: 0 (4.0/1.0)
|   |   |   |   |   |   |   |   |   |   |   |   |   |   |   |   |   |   |   |   |   |   |   common_nouns > 2: 4 (2.0)
|   |   |   |   |   |   |   |   |   |   |   |   |   |   |   |   |   |   |   |   |   |   common_nouns > 3: 0 (2.0)
|   |   |   |   |   |   |   |   |   |   |   |   |   |   |   |   |   |   |   |   |   avg_length_token > 3.413793: 4 (3.0)
|   |   |   |   |   |   |   |   |   |   |   |   |   |   |   |   |   |   |   |   adverbs > 1
|   |   |   |   |   |   |   |   |   |   |   |   |   |   |   |   |   |   |   |   |   common_nouns <= 3: 4 (4.0/1.0)
|   |   |   |   |   |   |   |   |   |   |   |   |   |   |   |   |   |   |   |   |   common_nouns > 3: 0 (3.0)
|   |   |   |   |   |   |   |   |   |   |   |   |   |   |   |   |   |   |   past_tense_verb > 1: 0 (2.0)
|   |   |   |   |   |   |   |   |   |   |   |   |   |   |   |   |   |   modern_slang > 0: 4 (2.0)
|   |   |   |   |   |   |   |   |   |   |   |   |   |   |   |   3rd_person > 1
|   |   |   |   |   |   |   |   |   |   |   |   |   |   |   |   |   avg_length_sentences <= 18.5: 0 (8.0)
|   |   |   |   |   |   |   |   |   |   |   |   |   |   |   |   |   avg_length_sentences > 18.5: 4 (3.0)
|   |   |   |   |   |   |   |   |   |   |   |   |   |   |   ellipses > 0
|   |   |   |   |   |   |   |   |   |   |   |   |   |   |   |   avg_length_sentences <= 7.5: 0 (2.0)
|   |   |   |   |   |   |   |   |   |   |   |   |   |   |   |   avg_length_sentences > 7.5
|   |   |   |   |   |   |   |   |   |   |   |   |   |   |   |   |   common_nouns <= 2: 4 (3.0)
|   |   |   |   |   |   |   |   |   |   |   |   |   |   |   |   |   common_nouns > 2
|   |   |   |   |   |   |   |   |   |   |   |   |   |   |   |   |   |   avg_length_token <= 3.392857: 0 (2.0)
|   |   |   |   |   |   |   |   |   |   |   |   |   |   |   |   |   |   avg_length_token > 3.392857: 4 (4.0)
|   |   |   |   |   |   |   |   |   |   |   |   |   |   1st_person > 1
|   |   |   |   |   |   |   |   |   |   |   |   |   |   |   1st_person <= 2: 0 (15.0/2.0)
|   |   |   |   |   |   |   |   |   |   |   |   |   |   |   1st_person > 2: 4 (3.0/1.0)
|   |   |   |   |   |   |   |   |   |   |   |   |   num_sentences > 2: 0 (15.0/3.0)
|   |   |   |   |   |   |   |   |   |   |   |   commas > 0
|   |   |   |   |   |   |   |   |   |   |   |   |   proper_nouns <= 1
|   |   |   |   |   |   |   |   |   |   |   |   |   |   1st_person <= 2
|   |   |   |   |   |   |   |   |   |   |   |   |   |   |   avg_length_token <= 3.142857: 0 (4.0)
|   |   |   |   |   |   |   |   |   |   |   |   |   |   |   avg_length_token > 3.142857
|   |   |   |   |   |   |   |   |   |   |   |   |   |   |   |   num_sentences <= 1
|   |   |   |   |   |   |   |   |   |   |   |   |   |   |   |   |   adverbs <= 1
|   |   |   |   |   |   |   |   |   |   |   |   |   |   |   |   |   |   commas <= 3
|   |   |   |   |   |   |   |   |   |   |   |   |   |   |   |   |   |   |   1st_person <= 1: 0 (8.0/3.0)
|   |   |   |   |   |   |   |   |   |   |   |   |   |   |   |   |   |   |   1st_person > 1: 4 (2.0)
|   |   |   |   |   |   |   |   |   |   |   |   |   |   |   |   |   |   commas > 3: 0 (2.0)
|   |   |   |   |   |   |   |   |   |   |   |   |   |   |   |   |   adverbs > 1: 4 (3.0)
|   |   |   |   |   |   |   |   |   |   |   |   |   |   |   |   num_sentences > 1: 4 (11.0/1.0)
|   |   |   |   |   |   |   |   |   |   |   |   |   |   1st_person > 2: 0 (2.0)
|   |   |   |   |   |   |   |   |   |   |   |   |   proper_nouns > 1: 4 (3.0)
|   |   |   |   |   |   |   |   |   |   |   adverbs > 2: 0 (37.0/8.0)
|   |   |   |   |   |   |   |   |   |   future_tense_verb > 0
|   |   |   |   |   |   |   |   |   |   |   past_tense_verb <= 0
|   |   |   |   |   |   |   |   |   |   |   |   avg_length_token <= 3.411765: 4 (13.0/1.0)
|   |   |   |   |   |   |   |   |   |   |   |   avg_length_token > 3.411765
|   |   |   |   |   |   |   |   |   |   |   |   |   1st_person <= 0: 0 (7.0/1.0)
|   |   |   |   |   |   |   |   |   |   |   |   |   1st_person > 0: 4 (4.0/1.0)
|   |   |   |   |   |   |   |   |   |   |   past_tense_verb > 0: 0 (5.0/1.0)
|   |   |   |   |   |   |   |   |   coord_conjunction > 0
|   |   |   |   |   |   |   |   |   |   num_sentences <= 1: 0 (85.0/16.0)
|   |   |   |   |   |   |   |   |   |   num_sentences > 1
|   |   |   |   |   |   |   |   |   |   |   ellipses <= 1
|   |   |   |   |   |   |   |   |   |   |   |   modern_slang <= 0
|   |   |   |   |   |   |   |   |   |   |   |   |   1st_person <= 2
|   |   |   |   |   |   |   |   |   |   |   |   |   |   1st_person <= 0
|   |   |   |   |   |   |   |   |   |   |   |   |   |   |   upper_case_words <= 0
|   |   |   |   |   |   |   |   |   |   |   |   |   |   |   |   avg_length_token <= 3.259259: 0 (3.0)
|   |   |   |   |   |   |   |   |   |   |   |   |   |   |   |   avg_length_token > 3.259259
|   |   |   |   |   |   |   |   |   |   |   |   |   |   |   |   |   avg_length_token <= 3.5: 4 (3.0)
|   |   |   |   |   |   |   |   |   |   |   |   |   |   |   |   |   avg_length_token > 3.5: 0 (4.0/1.0)
|   |   |   |   |   |   |   |   |   |   |   |   |   |   |   upper_case_words > 0: 0 (3.0)
|   |   |   |   |   |   |   |   |   |   |   |   |   |   1st_person > 0
|   |   |   |   |   |   |   |   |   |   |   |   |   |   |   coord_conjunction <= 1
|   |   |   |   |   |   |   |   |   |   |   |   |   |   |   |   commas <= 1
|   |   |   |   |   |   |   |   |   |   |   |   |   |   |   |   |   avg_length_token <= 2.888889: 0 (2.0)
|   |   |   |   |   |   |   |   |   |   |   |   |   |   |   |   |   avg_length_token > 2.888889: 4 (11.0/2.0)
|   |   |   |   |   |   |   |   |   |   |   |   |   |   |   |   commas > 1
|   |   |   |   |   |   |   |   |   |   |   |   |   |   |   |   |   past_tense_verb <= 0: 4 (5.0)
|   |   |   |   |   |   |   |   |   |   |   |   |   |   |   |   |   past_tense_verb > 0: 0 (4.0/1.0)
|   |   |   |   |   |   |   |   |   |   |   |   |   |   |   coord_conjunction > 1
|   |   |   |   |   |   |   |   |   |   |   |   |   |   |   |   avg_length_token <= 3.4: 0 (5.0)
|   |   |   |   |   |   |   |   |   |   |   |   |   |   |   |   avg_length_token > 3.4: 4 (2.0)
|   |   |   |   |   |   |   |   |   |   |   |   |   1st_person > 2: 0 (10.0/1.0)
|   |   |   |   |   |   |   |   |   |   |   |   modern_slang > 0
|   |   |   |   |   |   |   |   |   |   |   |   |   1st_person <= 0
|   |   |   |   |   |   |   |   |   |   |   |   |   |   commas <= 1: 4 (2.0)
|   |   |   |   |   |   |   |   |   |   |   |   |   |   commas > 1: 0 (3.0)
|   |   |   |   |   |   |   |   |   |   |   |   |   1st_person > 0: 0 (8.0)
|   |   |   |   |   |   |   |   |   |   |   ellipses > 1: 0 (7.0)
|   |   |   |   |   |   |   upper_case_words > 1
|   |   |   |   |   |   |   |   upper_case_words <= 7
|   |   |   |   |   |   |   |   |   num_sentences <= 4
|   |   |   |   |   |   |   |   |   |   upper_case_words <= 4
|   |   |   |   |   |   |   |   |   |   |   future_tense_verb <= 0
|   |   |   |   |   |   |   |   |   |   |   |   avg_length_token <= 3.363636
|   |   |   |   |   |   |   |   |   |   |   |   |   coord_conjunction <= 0
|   |   |   |   |   |   |   |   |   |   |   |   |   |   commas <= 1
|   |   |   |   |   |   |   |   |   |   |   |   |   |   |   ellipses <= 0
|   |   |   |   |   |   |   |   |   |   |   |   |   |   |   |   past_tense_verb <= 2
|   |   |   |   |   |   |   |   |   |   |   |   |   |   |   |   |   num_sentences <= 1
|   |   |   |   |   |   |   |   |   |   |   |   |   |   |   |   |   |   avg_length_sentences <= 4.5: 4 (2.0)
|   |   |   |   |   |   |   |   |   |   |   |   |   |   |   |   |   |   avg_length_sentences > 4.5
|   |   |   |   |   |   |   |   |   |   |   |   |   |   |   |   |   |   |   avg_length_token <= 2.96875: 0 (2.0)
|   |   |   |   |   |   |   |   |   |   |   |   |   |   |   |   |   |   |   avg_length_token > 2.96875: 4 (5.0)
|   |   |   |   |   |   |   |   |   |   |   |   |   |   |   |   |   num_sentences > 1
|   |   |   |   |   |   |   |   |   |   |   |   |   |   |   |   |   |   avg_length_sentences <= 6: 4 (2.0)
|   |   |   |   |   |   |   |   |   |   |   |   |   |   |   |   |   |   avg_length_sentences > 6: 0 (5.0)
|   |   |   |   |   |   |   |   |   |   |   |   |   |   |   |   past_tense_verb > 2: 4 (2.0)
|   |   |   |   |   |   |   |   |   |   |   |   |   |   |   ellipses > 0: 0 (3.0/1.0)
|   |   |   |   |   |   |   |   |   |   |   |   |   |   commas > 1: 4 (2.0)
|   |   |   |   |   |   |   |   |   |   |   |   |   coord_conjunction > 0: 4 (4.0)
|   |   |   |   |   |   |   |   |   |   |   |   avg_length_token > 3.363636: 0 (8.0/1.0)
|   |   |   |   |   |   |   |   |   |   |   future_tense_verb > 0: 0 (5.0/1.0)
|   |   |   |   |   |   |   |   |   |   upper_case_words > 4: 0 (3.0)
|   |   |   |   |   |   |   |   |   num_sentences > 4: 0 (6.0)
|   |   |   |   |   |   |   |   upper_case_words > 7: 4 (4.0)
|   |   |   |   |   |   wh_words > 0
|   |   |   |   |   |   |   3rd_person <= 1: 0 (175.0/23.0)
|   |   |   |   |   |   |   3rd_person > 1
|   |   |   |   |   |   |   |   future_tense_verb <= 2
|   |   |   |   |   |   |   |   |   upper_case_words <= 0
|   |   |   |   |   |   |   |   |   |   avg_length_sentences <= 7: 4 (2.0)
|   |   |   |   |   |   |   |   |   |   avg_length_sentences > 7: 0 (21.0/4.0)
|   |   |   |   |   |   |   |   |   upper_case_words > 0
|   |   |   |   |   |   |   |   |   |   modern_slang <= 0: 4 (2.0)
|   |   |   |   |   |   |   |   |   |   modern_slang > 0: 0 (3.0/1.0)
|   |   |   |   |   |   |   |   future_tense_verb > 2: 4 (2.0)
|   |   |   |   |   avg_length_token > 3.533333
|   |   |   |   |   |   modern_slang <= 0
|   |   |   |   |   |   |   adverbs <= 1
|   |   |   |   |   |   |   |   1st_person <= 2
|   |   |   |   |   |   |   |   |   past_tense_verb <= 1
|   |   |   |   |   |   |   |   |   |   3rd_person <= 1
|   |   |   |   |   |   |   |   |   |   |   coord_conjunction <= 1
|   |   |   |   |   |   |   |   |   |   |   |   upper_case_words <= 0
|   |   |   |   |   |   |   |   |   |   |   |   |   coord_conjunction <= 0
|   |   |   |   |   |   |   |   |   |   |   |   |   |   ellipses <= 0
|   |   |   |   |   |   |   |   |   |   |   |   |   |   |   past_tense_verb <= 0
|   |   |   |   |   |   |   |   |   |   |   |   |   |   |   |   future_tense_verb <= 0
|   |   |   |   |   |   |   |   |   |   |   |   |   |   |   |   |   3rd_person <= 0
|   |   |   |   |   |   |   |   |   |   |   |   |   |   |   |   |   |   avg_length_token <= 3.695652
|   |   |   |   |   |   |   |   |   |   |   |   |   |   |   |   |   |   |   1st_person <= 0
|   |   |   |   |   |   |   |   |   |   |   |   |   |   |   |   |   |   |   |   proper_nouns <= 0
|   |   |   |   |   |   |   |   |   |   |   |   |   |   |   |   |   |   |   |   |   common_nouns <= 1: 0 (23.0/7.0)
|   |   |   |   |   |   |   |   |   |   |   |   |   |   |   |   |   |   |   |   |   common_nouns > 1
|   |   |   |   |   |   |   |   |   |   |   |   |   |   |   |   |   |   |   |   |   |   wh_words <= 0
|   |   |   |   |   |   |   |   |   |   |   |   |   |   |   |   |   |   |   |   |   |   |   avg_length_token <= 3.5625: 0 (2.0)
|   |   |   |   |   |   |   |   |   |   |   |   |   |   |   |   |   |   |   |   |   |   |   avg_length_token > 3.5625: 4 (15.0/3.0)
|   |   |   |   |   |   |   |   |   |   |   |   |   |   |   |   |   |   |   |   |   |   wh_words > 0: 0 (4.0/1.0)
|   |   |   |   |   |   |   |   |   |   |   |   |   |   |   |   |   |   |   |   proper_nouns > 0
|   |   |   |   |   |   |   |   |   |   |   |   |   |   |   |   |   |   |   |   |   avg_length_sentences <= 7.5: 0 (2.0)
|   |   |   |   |   |   |   |   |   |   |   |   |   |   |   |   |   |   |   |   |   avg_length_sentences > 7.5: 4 (7.0/2.0)
|   |   |   |   |   |   |   |   |   |   |   |   |   |   |   |   |   |   |   1st_person > 0
|   |   |   |   |   |   |   |   |   |   |   |   |   |   |   |   |   |   |   |   num_sentences <= 2
|   |   |   |   |   |   |   |   |   |   |   |   |   |   |   |   |   |   |   |   |   common_nouns <= 1: 4 (9.0/1.0)
|   |   |   |   |   |   |   |   |   |   |   |   |   |   |   |   |   |   |   |   |   common_nouns > 1
|   |   |   |   |   |   |   |   |   |   |   |   |   |   |   |   |   |   |   |   |   |   commas <= 1: 0 (14.0/5.0)
|   |   |   |   |   |   |   |   |   |   |   |   |   |   |   |   |   |   |   |   |   |   commas > 1
|   |   |   |   |   |   |   |   |   |   |   |   |   |   |   |   |   |   |   |   |   |   |   common_nouns <= 4
|   |   |   |   |   |   |   |   |   |   |   |   |   |   |   |   |   |   |   |   |   |   |   |   avg_length_sentences <= 11.5: 4 (2.0)
|   |   |   |   |   |   |   |   |   |   |   |   |   |   |   |   |   |   |   |   |   |   |   |   avg_length_sentences > 11.5: 0 (2.0)
|   |   |   |   |   |   |   |   |   |   |   |   |   |   |   |   |   |   |   |   |   |   |   common_nouns > 4: 4 (3.0/1.0)
|   |   |   |   |   |   |   |   |   |   |   |   |   |   |   |   |   |   |   |   num_sentences > 2: 4 (3.0/1.0)
|   |   |   |   |   |   |   |   |   |   |   |   |   |   |   |   |   |   avg_length_token > 3.695652
|   |   |   |   |   |   |   |   |   |   |   |   |   |   |   |   |   |   |   proper_nouns <= 1
|   |   |   |   |   |   |   |   |   |   |   |   |   |   |   |   |   |   |   |   proper_nouns <= 0
|   |   |   |   |   |   |   |   |   |   |   |   |   |   |   |   |   |   |   |   |   wh_words <= 0
|   |   |   |   |   |   |   |   |   |   |   |   |   |   |   |   |   |   |   |   |   |   num_sentences <= 2
|   |   |   |   |   |   |   |   |   |   |   |   |   |   |   |   |   |   |   |   |   |   |   num_sentences <= 1
|   |   |   |   |   |   |   |   |   |   |   |   |   |   |   |   |   |   |   |   |   |   |   |   avg_length_sentences <= 6.5
|   |   |   |   |   |   |   |   |   |   |   |   |   |   |   |   |   |   |   |   |   |   |   |   |   1st_person <= 0
|   |   |   |   |   |   |   |   |   |   |   |   |   |   |   |   |   |   |   |   |   |   |   |   |   |   common_nouns <= 0: 0 (2.0)
|   |   |   |   |   |   |   |   |   |   |   |   |   |   |   |   |   |   |   |   |   |   |   |   |   |   common_nouns > 0
|   |   |   |   |   |   |   |   |   |   |   |   |   |   |   |   |   |   |   |   |   |   |   |   |   |   |   avg_length_sentences <= 4.5: 4 (3.0)
|   |   |   |   |   |   |   |   |   |   |   |   |   |   |   |   |   |   |   |   |   |   |   |   |   |   |   avg_length_sentences > 4.5
|   |   |   |   |   |   |   |   |   |   |   |   |   |   |   |   |   |   |   |   |   |   |   |   |   |   |   |   avg_length_sentences <= 5.5: 0 (5.0/1.0)
|   |   |   |   |   |   |   |   |   |   |   |   |   |   |   |   |   |   |   |   |   |   |   |   |   |   |   |   avg_length_sentences > 5.5: 4 (3.0/1.0)
|   |   |   |   |   |   |   |   |   |   |   |   |   |   |   |   |   |   |   |   |   |   |   |   |   1st_person > 0: 4 (6.0/1.0)
|   |   |   |   |   |   |   |   |   |   |   |   |   |   |   |   |   |   |   |   |   |   |   |   avg_length_sentences > 6.5
|   |   |   |   |   |   |   |   |   |   |   |   |   |   |   |   |   |   |   |   |   |   |   |   |   avg_length_token <= 3.916667
|   |   |   |   |   |   |   |   |   |   |   |   |   |   |   |   |   |   |   |   |   |   |   |   |   |   avg_length_sentences <= 17: 0 (60.0/9.0)
|   |   |   |   |   |   |   |   |   |   |   |   |   |   |   |   |   |   |   |   |   |   |   |   |   |   avg_length_sentences > 17: 4 (3.0/1.0)
|   |   |   |   |   |   |   |   |   |   |   |   |   |   |   |   |   |   |   |   |   |   |   |   |   avg_length_token > 3.916667: 4 (3.0)
|   |   |   |   |   |   |   |   |   |   |   |   |   |   |   |   |   |   |   |   |   |   |   num_sentences > 1: 0 (16.0/1.0)
|   |   |   |   |   |   |   |   |   |   |   |   |   |   |   |   |   |   |   |   |   |   num_sentences > 2: 4 (6.0/2.0)
|   |   |   |   |   |   |   |   |   |   |   |   |   |   |   |   |   |   |   |   |   wh_words > 0: 0 (9.0/1.0)
|   |   |   |   |   |   |   |   |   |   |   |   |   |   |   |   |   |   |   |   proper_nouns > 0
|   |   |   |   |   |   |   |   |   |   |   |   |   |   |   |   |   |   |   |   |   avg_length_token <= 3.833333: 0 (12.0/3.0)
|   |   |   |   |   |   |   |   |   |   |   |   |   |   |   |   |   |   |   |   |   avg_length_token > 3.833333: 4 (5.0)
|   |   |   |   |   |   |   |   |   |   |   |   |   |   |   |   |   |   |   proper_nouns > 1: 0 (6.0)
|   |   |   |   |   |   |   |   |   |   |   |   |   |   |   |   |   3rd_person > 0
|   |   |   |   |   |   |   |   |   |   |   |   |   |   |   |   |   |   num_sentences <= 1
|   |   |   |   |   |   |   |   |   |   |   |   |   |   |   |   |   |   |   wh_words <= 0
|   |   |   |   |   |   |   |   |   |   |   |   |   |   |   |   |   |   |   |   commas <= 1
|   |   |   |   |   |   |   |   |   |   |   |   |   |   |   |   |   |   |   |   |   1st_person <= 0
|   |   |   |   |   |   |   |   |   |   |   |   |   |   |   |   |   |   |   |   |   |   common_nouns <= 4: 0 (17.0/4.0)
|   |   |   |   |   |   |   |   |   |   |   |   |   |   |   |   |   |   |   |   |   |   common_nouns > 4: 4 (2.0)
|   |   |   |   |   |   |   |   |   |   |   |   |   |   |   |   |   |   |   |   |   1st_person > 0
|   |   |   |   |   |   |   |   |   |   |   |   |   |   |   |   |   |   |   |   |   |   avg_length_sentences <= 12: 4 (3.0)
|   |   |   |   |   |   |   |   |   |   |   |   |   |   |   |   |   |   |   |   |   |   avg_length_sentences > 12
|   |   |   |   |   |   |   |   |   |   |   |   |   |   |   |   |   |   |   |   |   |   |   avg_length_sentences <= 13.5: 0 (3.0)
|   |   |   |   |   |   |   |   |   |   |   |   |   |   |   |   |   |   |   |   |   |   |   avg_length_sentences > 13.5: 4 (3.0/1.0)
|   |   |   |   |   |   |   |   |   |   |   |   |   |   |   |   |   |   |   |   commas > 1: 0 (3.0)
|   |   |   |   |   |   |   |   |   |   |   |   |   |   |   |   |   |   |   wh_words > 0
|   |   |   |   |   |   |   |   |   |   |   |   |   |   |   |   |   |   |   |   common_nouns <= 2: 0 (2.0)
|   |   |   |   |   |   |   |   |   |   |   |   |   |   |   |   |   |   |   |   common_nouns > 2: 4 (2.0)
|   |   |   |   |   |   |   |   |   |   |   |   |   |   |   |   |   |   num_sentences > 1
|   |   |   |   |   |   |   |   |   |   |   |   |   |   |   |   |   |   |   common_nouns <= 4
|   |   |   |   |   |   |   |   |   |   |   |   |   |   |   |   |   |   |   |   common_nouns <= 3
|   |   |   |   |   |   |   |   |   |   |   |   |   |   |   |   |   |   |   |   |   common_nouns <= 1: 4 (2.0)
|   |   |   |   |   |   |   |   |   |   |   |   |   |   |   |   |   |   |   |   |   common_nouns > 1: 0 (4.0/1.0)
|   |   |   |   |   |   |   |   |   |   |   |   |   |   |   |   |   |   |   |   common_nouns > 3: 4 (5.0)
|   |   |   |   |   |   |   |   |   |   |   |   |   |   |   |   |   |   |   common_nouns > 4: 0 (3.0)
|   |   |   |   |   |   |   |   |   |   |   |   |   |   |   |   future_tense_verb > 0
|   |   |   |   |   |   |   |   |   |   |   |   |   |   |   |   |   proper_nouns <= 0
|   |   |   |   |   |   |   |   |   |   |   |   |   |   |   |   |   |   num_sentences <= 2
|   |   |   |   |   |   |   |   |   |   |   |   |   |   |   |   |   |   |   3rd_person <= 0
|   |   |   |   |   |   |   |   |   |   |   |   |   |   |   |   |   |   |   |   avg_length_sentences <= 9.5: 0 (10.0/2.0)
|   |   |   |   |   |   |   |   |   |   |   |   |   |   |   |   |   |   |   |   avg_length_sentences > 9.5: 4 (8.0/1.0)
|   |   |   |   |   |   |   |   |   |   |   |   |   |   |   |   |   |   |   3rd_person > 0: 0 (4.0/1.0)
|   |   |   |   |   |   |   |   |   |   |   |   |   |   |   |   |   |   num_sentences > 2: 4 (2.0)
|   |   |   |   |   |   |   |   |   |   |   |   |   |   |   |   |   proper_nouns > 0: 0 (6.0/1.0)
|   |   |   |   |   |   |   |   |   |   |   |   |   |   |   past_tense_verb > 0
|   |   |   |   |   |   |   |   |   |   |   |   |   |   |   |   avg_length_sentences <= 13.5
|   |   |   |   |   |   |   |   |   |   |   |   |   |   |   |   |   avg_length_sentences <= 4.75: 0 (4.0)
|   |   |   |   |   |   |   |   |   |   |   |   |   |   |   |   |   avg_length_sentences > 4.75
|   |   |   |   |   |   |   |   |   |   |   |   |   |   |   |   |   |   3rd_person <= 0: 4 (51.0/17.0)
|   |   |   |   |   |   |   |   |   |   |   |   |   |   |   |   |   |   3rd_person > 0
|   |   |   |   |   |   |   |   |   |   |   |   |   |   |   |   |   |   |   num_sentences <= 1
|   |   |   |   |   |   |   |   |   |   |   |   |   |   |   |   |   |   |   |   1st_person <= 0
|   |   |   |   |   |   |   |   |   |   |   |   |   |   |   |   |   |   |   |   |   avg_length_token <= 3.851852: 4 (4.0/1.0)
|   |   |   |   |   |   |   |   |   |   |   |   |   |   |   |   |   |   |   |   |   avg_length_token > 3.851852: 0 (2.0)
|   |   |   |   |   |   |   |   |   |   |   |   |   |   |   |   |   |   |   |   1st_person > 0: 4 (5.0)
|   |   |   |   |   |   |   |   |   |   |   |   |   |   |   |   |   |   |   num_sentences > 1: 0 (5.0/1.0)
|   |   |   |   |   |   |   |   |   |   |   |   |   |   |   |   avg_length_sentences > 13.5: 0 (27.0/4.0)
|   |   |   |   |   |   |   |   |   |   |   |   |   |   ellipses > 0
|   |   |   |   |   |   |   |   |   |   |   |   |   |   |   past_tense_verb <= 0
|   |   |   |   |   |   |   |   |   |   |   |   |   |   |   |   3rd_person <= 0
|   |   |   |   |   |   |   |   |   |   |   |   |   |   |   |   |   future_tense_verb <= 0
|   |   |   |   |   |   |   |   |   |   |   |   |   |   |   |   |   |   common_nouns <= 5
|   |   |   |   |   |   |   |   |   |   |   |   |   |   |   |   |   |   |   num_sentences <= 1
|   |   |   |   |   |   |   |   |   |   |   |   |   |   |   |   |   |   |   |   wh_words <= 0
|   |   |   |   |   |   |   |   |   |   |   |   |   |   |   |   |   |   |   |   |   common_nouns <= 2
|   |   |   |   |   |   |   |   |   |   |   |   |   |   |   |   |   |   |   |   |   |   avg_length_sentences <= 5.5: 4 (3.0)
|   |   |   |   |   |   |   |   |   |   |   |   |   |   |   |   |   |   |   |   |   |   avg_length_sentences > 5.5: 0 (5.0/1.0)
|   |   |   |   |   |   |   |   |   |   |   |   |   |   |   |   |   |   |   |   |   common_nouns > 2: 4 (3.0)
|   |   |   |   |   |   |   |   |   |   |   |   |   |   |   |   |   |   |   |   wh_words > 0: 0 (2.0)
|   |   |   |   |   |   |   |   |   |   |   |   |   |   |   |   |   |   |   num_sentences > 1
|   |   |   |   |   |   |   |   |   |   |   |   |   |   |   |   |   |   |   |   common_nouns <= 1: 4 (4.0/1.0)
|   |   |   |   |   |   |   |   |   |   |   |   |   |   |   |   |   |   |   |   common_nouns > 1
|   |   |   |   |   |   |   |   |   |   |   |   |   |   |   |   |   |   |   |   |   1st_person <= 0: 0 (10.0/1.0)
|   |   |   |   |   |   |   |   |   |   |   |   |   |   |   |   |   |   |   |   |   1st_person > 0
|   |   |   |   |   |   |   |   |   |   |   |   |   |   |   |   |   |   |   |   |   |   avg_length_sentences <= 5.75: 4 (2.0)
|   |   |   |   |   |   |   |   |   |   |   |   |   |   |   |   |   |   |   |   |   |   avg_length_sentences > 5.75: 0 (3.0)
|   |   |   |   |   |   |   |   |   |   |   |   |   |   |   |   |   |   common_nouns > 5: 4 (8.0/1.0)
|   |   |   |   |   |   |   |   |   |   |   |   |   |   |   |   |   future_tense_verb > 0: 0 (7.0/1.0)
|   |   |   |   |   |   |   |   |   |   |   |   |   |   |   |   3rd_person > 0: 4 (19.0/5.0)
|   |   |   |   |   |   |   |   |   |   |   |   |   |   |   past_tense_verb > 0
|   |   |   |   |   |   |   |   |   |   |   |   |   |   |   |   num_sentences <= 3: 0 (15.0/2.0)
|   |   |   |   |   |   |   |   |   |   |   |   |   |   |   |   num_sentences > 3: 4 (2.0)
|   |   |   |   |   |   |   |   |   |   |   |   |   coord_conjunction > 0
|   |   |   |   |   |   |   |   |   |   |   |   |   |   ellipses <= 0
|   |   |   |   |   |   |   |   |   |   |   |   |   |   |   1st_person <= 1
|   |   |   |   |   |   |   |   |   |   |   |   |   |   |   |   3rd_person <= 0
|   |   |   |   |   |   |   |   |   |   |   |   |   |   |   |   |   avg_length_sentences <= 11.666667
|   |   |   |   |   |   |   |   |   |   |   |   |   |   |   |   |   |   1st_person <= 0: 4 (17.0/5.0)
|   |   |   |   |   |   |   |   |   |   |   |   |   |   |   |   |   |   1st_person > 0
|   |   |   |   |   |   |   |   |   |   |   |   |   |   |   |   |   |   |   num_sentences <= 1: 4 (2.0)
|   |   |   |   |   |   |   |   |   |   |   |   |   |   |   |   |   |   |   num_sentences > 1
|   |   |   |   |   |   |   |   |   |   |   |   |   |   |   |   |   |   |   |   proper_nouns <= 0: 0 (6.0)
|   |   |   |   |   |   |   |   |   |   |   |   |   |   |   |   |   |   |   |   proper_nouns > 0: 4 (3.0/1.0)
|   |   |   |   |   |   |   |   |   |   |   |   |   |   |   |   |   avg_length_sentences > 11.666667
|   |   |   |   |   |   |   |   |   |   |   |   |   |   |   |   |   |   1st_person <= 0
|   |   |   |   |   |   |   |   |   |   |   |   |   |   |   |   |   |   |   past_tense_verb <= 0: 0 (18.0/1.0)
|   |   |   |   |   |   |   |   |   |   |   |   |   |   |   |   |   |   |   past_tense_verb > 0
|   |   |   |   |   |   |   |   |   |   |   |   |   |   |   |   |   |   |   |   commas <= 1: 4 (2.0)
|   |   |   |   |   |   |   |   |   |   |   |   |   |   |   |   |   |   |   |   commas > 1: 0 (2.0)
|   |   |   |   |   |   |   |   |   |   |   |   |   |   |   |   |   |   1st_person > 0
|   |   |   |   |   |   |   |   |   |   |   |   |   |   |   |   |   |   |   future_tense_verb <= 0: 0 (10.0/2.0)
|   |   |   |   |   |   |   |   |   |   |   |   |   |   |   |   |   |   |   future_tense_verb > 0: 4 (3.0)
|   |   |   |   |   |   |   |   |   |   |   |   |   |   |   |   3rd_person > 0
|   |   |   |   |   |   |   |   |   |   |   |   |   |   |   |   |   common_nouns <= 6: 0 (20.0/4.0)
|   |   |   |   |   |   |   |   |   |   |   |   |   |   |   |   |   common_nouns > 6: 4 (2.0)
|   |   |   |   |   |   |   |   |   |   |   |   |   |   |   1st_person > 1
|   |   |   |   |   |   |   |   |   |   |   |   |   |   |   |   proper_nouns <= 1
|   |   |   |   |   |   |   |   |   |   |   |   |   |   |   |   |   num_sentences <= 2
|   |   |   |   |   |   |   |   |   |   |   |   |   |   |   |   |   |   commas <= 1
|   |   |   |   |   |   |   |   |   |   |   |   |   |   |   |   |   |   |   avg_length_sentences <= 15: 0 (6.0)
|   |   |   |   |   |   |   |   |   |   |   |   |   |   |   |   |   |   |   avg_length_sentences > 15: 4 (4.0)
|   |   |   |   |   |   |   |   |   |   |   |   |   |   |   |   |   |   commas > 1: 4 (3.0)
|   |   |   |   |   |   |   |   |   |   |   |   |   |   |   |   |   num_sentences > 2: 4 (5.0)
|   |   |   |   |   |   |   |   |   |   |   |   |   |   |   |   proper_nouns > 1: 0 (3.0)
|   |   |   |   |   |   |   |   |   |   |   |   |   |   ellipses > 0
|   |   |   |   |   |   |   |   |   |   |   |   |   |   |   past_tense_verb <= 0: 0 (12.0)
|   |   |   |   |   |   |   |   |   |   |   |   |   |   |   past_tense_verb > 0
|   |   |   |   |   |   |   |   |   |   |   |   |   |   |   |   num_sentences <= 1: 4 (2.0)
|   |   |   |   |   |   |   |   |   |   |   |   |   |   |   |   num_sentences > 1: 0 (6.0/1.0)
|   |   |   |   |   |   |   |   |   |   |   |   upper_case_words > 0
|   |   |   |   |   |   |   |   |   |   |   |   |   upper_case_words <= 2
|   |   |   |   |   |   |   |   |   |   |   |   |   |   3rd_person <= 0
|   |   |   |   |   |   |   |   |   |   |   |   |   |   |   ellipses <= 0
|   |   |   |   |   |   |   |   |   |   |   |   |   |   |   |   proper_nouns <= 2
|   |   |   |   |   |   |   |   |   |   |   |   |   |   |   |   |   proper_nouns <= 1
|   |   |   |   |   |   |   |   |   |   |   |   |   |   |   |   |   |   proper_nouns <= 0
|   |   |   |   |   |   |   |   |   |   |   |   |   |   |   |   |   |   |   past_tense_verb <= 0
|   |   |   |   |   |   |   |   |   |   |   |   |   |   |   |   |   |   |   |   num_sentences <= 2
|   |   |   |   |   |   |   |   |   |   |   |   |   |   |   |   |   |   |   |   |   avg_length_sentences <= 8.5: 0 (8.0)
|   |   |   |   |   |   |   |   |   |   |   |   |   |   |   |   |   |   |   |   |   avg_length_sentences > 8.5
|   |   |   |   |   |   |   |   |   |   |   |   |   |   |   |   |   |   |   |   |   |   common_nouns <= 4: 4 (4.0)
|   |   |   |   |   |   |   |   |   |   |   |   |   |   |   |   |   |   |   |   |   |   common_nouns > 4: 0 (7.0/1.0)
|   |   |   |   |   |   |   |   |   |   |   |   |   |   |   |   |   |   |   |   num_sentences > 2: 4 (2.0)
|   |   |   |   |   |   |   |   |   |   |   |   |   |   |   |   |   |   |   past_tense_verb > 0: 0 (9.0/1.0)
|   |   |   |   |   |   |   |   |   |   |   |   |   |   |   |   |   |   proper_nouns > 0
|   |   |   |   |   |   |   |   |   |   |   |   |   |   |   |   |   |   |   wh_words <= 0
|   |   |   |   |   |   |   |   |   |   |   |   |   |   |   |   |   |   |   |   commas <= 1
|   |   |   |   |   |   |   |   |   |   |   |   |   |   |   |   |   |   |   |   |   common_nouns <= 4
|   |   |   |   |   |   |   |   |   |   |   |   |   |   |   |   |   |   |   |   |   |   coord_conjunction <= 0
|   |   |   |   |   |   |   |   |   |   |   |   |   |   |   |   |   |   |   |   |   |   |   past_tense_verb <= 0
|   |   |   |   |   |   |   |   |   |   |   |   |   |   |   |   |   |   |   |   |   |   |   |   common_nouns <= 2: 0 (3.0/1.0)
|   |   |   |   |   |   |   |   |   |   |   |   |   |   |   |   |   |   |   |   |   |   |   |   common_nouns > 2: 4 (5.0/1.0)
|   |   |   |   |   |   |   |   |   |   |   |   |   |   |   |   |   |   |   |   |   |   |   past_tense_verb > 0: 0 (4.0/1.0)
|   |   |   |   |   |   |   |   |   |   |   |   |   |   |   |   |   |   |   |   |   |   coord_conjunction > 0: 0 (3.0)
|   |   |   |   |   |   |   |   |   |   |   |   |   |   |   |   |   |   |   |   |   common_nouns > 4: 4 (5.0)
|   |   |   |   |   |   |   |   |   |   |   |   |   |   |   |   |   |   |   |   commas > 1: 0 (4.0/1.0)
|   |   |   |   |   |   |   |   |   |   |   |   |   |   |   |   |   |   |   wh_words > 0: 4 (2.0)
|   |   |   |   |   |   |   |   |   |   |   |   |   |   |   |   |   proper_nouns > 1: 0 (6.0)
|   |   |   |   |   |   |   |   |   |   |   |   |   |   |   |   proper_nouns > 2: 4 (4.0/1.0)
|   |   |   |   |   |   |   |   |   |   |   |   |   |   |   ellipses > 0: 0 (16.0/1.0)
|   |   |   |   |   |   |   |   |   |   |   |   |   |   3rd_person > 0: 0 (24.0/2.0)
|   |   |   |   |   |   |   |   |   |   |   |   |   upper_case_words > 2
|   |   |   |   |   |   |   |   |   |   |   |   |   |   num_sentences <= 2: 4 (9.0/1.0)
|   |   |   |   |   |   |   |   |   |   |   |   |   |   num_sentences > 2: 0 (5.0/1.0)
|   |   |   |   |   |   |   |   |   |   |   coord_conjunction > 1
|   |   |   |   |   |   |   |   |   |   |   |   upper_case_words <= 0
|   |   |   |   |   |   |   |   |   |   |   |   |   coord_conjunction <= 2
|   |   |   |   |   |   |   |   |   |   |   |   |   |   wh_words <= 0
|   |   |   |   |   |   |   |   |   |   |   |   |   |   |   avg_length_token <= 3.705882: 4 (8.0)
|   |   |   |   |   |   |   |   |   |   |   |   |   |   |   avg_length_token > 3.705882
|   |   |   |   |   |   |   |   |   |   |   |   |   |   |   |   past_tense_verb <= 0: 0 (5.0)
|   |   |   |   |   |   |   |   |   |   |   |   |   |   |   |   past_tense_verb > 0
|   |   |   |   |   |   |   |   |   |   |   |   |   |   |   |   |   commas <= 1: 4 (3.0)
|   |   |   |   |   |   |   |   |   |   |   |   |   |   |   |   |   commas > 1: 0 (2.0)
|   |   |   |   |   |   |   |   |   |   |   |   |   |   wh_words > 0: 0 (2.0)
|   |   |   |   |   |   |   |   |   |   |   |   |   coord_conjunction > 2: 0 (2.0)
|   |   |   |   |   |   |   |   |   |   |   |   upper_case_words > 0: 4 (5.0)
|   |   |   |   |   |   |   |   |   |   3rd_person > 1
|   |   |   |   |   |   |   |   |   |   |   3rd_person <= 3
|   |   |   |   |   |   |   |   |   |   |   |   proper_nouns <= 0
|   |   |   |   |   |   |   |   |   |   |   |   |   coord_conjunction <= 1
|   |   |   |   |   |   |   |   |   |   |   |   |   |   common_nouns <= 4
|   |   |   |   |   |   |   |   |   |   |   |   |   |   |   num_sentences <= 1
|   |   |   |   |   |   |   |   |   |   |   |   |   |   |   |   1st_person <= 0
|   |   |   |   |   |   |   |   |   |   |   |   |   |   |   |   |   wh_words <= 0: 0 (6.0/1.0)
|   |   |   |   |   |   |   |   |   |   |   |   |   |   |   |   |   wh_words > 0: 4 (2.0)
|   |   |   |   |   |   |   |   |   |   |   |   |   |   |   |   1st_person > 0: 4 (3.0)
|   |   |   |   |   |   |   |   |   |   |   |   |   |   |   num_sentences > 1
|   |   |   |   |   |   |   |   |   |   |   |   |   |   |   |   avg_length_sentences <= 5.833333: 4 (2.0)
|   |   |   |   |   |   |   |   |   |   |   |   |   |   |   |   avg_length_sentences > 5.833333: 0 (6.0)
|   |   |   |   |   |   |   |   |   |   |   |   |   |   common_nouns > 4: 4 (13.0/1.0)
|   |   |   |   |   |   |   |   |   |   |   |   |   coord_conjunction > 1: 0 (5.0/1.0)
|   |   |   |   |   |   |   |   |   |   |   |   proper_nouns > 0: 0 (6.0/1.0)
|   |   |   |   |   |   |   |   |   |   |   3rd_person > 3: 4 (4.0)
|   |   |   |   |   |   |   |   |   past_tense_verb > 1
|   |   |   |   |   |   |   |   |   |   past_tense_verb <= 2
|   |   |   |   |   |   |   |   |   |   |   proper_nouns <= 0
|   |   |   |   |   |   |   |   |   |   |   |   1st_person <= 1
|   |   |   |   |   |   |   |   |   |   |   |   |   common_nouns <= 5
|   |   |   |   |   |   |   |   |   |   |   |   |   |   avg_length_token <= 3.653846: 0 (7.0)
|   |   |   |   |   |   |   |   |   |   |   |   |   |   avg_length_token > 3.653846
|   |   |   |   |   |   |   |   |   |   |   |   |   |   |   3rd_person <= 0
|   |   |   |   |   |   |   |   |   |   |   |   |   |   |   |   coord_conjunction <= 0
|   |   |   |   |   |   |   |   |   |   |   |   |   |   |   |   |   avg_length_token <= 3.785714: 4 (2.0)
|   |   |   |   |   |   |   |   |   |   |   |   |   |   |   |   |   avg_length_token > 3.785714: 0 (2.0)
|   |   |   |   |   |   |   |   |   |   |   |   |   |   |   |   coord_conjunction > 0: 4 (3.0)
|   |   |   |   |   |   |   |   |   |   |   |   |   |   |   3rd_person > 0
|   |   |   |   |   |   |   |   |   |   |   |   |   |   |   |   wh_words <= 0: 0 (4.0)
|   |   |   |   |   |   |   |   |   |   |   |   |   |   |   |   wh_words > 0: 4 (2.0)
|   |   |   |   |   |   |   |   |   |   |   |   |   common_nouns > 5: 0 (8.0)
|   |   |   |   |   |   |   |   |   |   |   |   1st_person > 1: 4 (9.0/2.0)
|   |   |   |   |   |   |   |   |   |   |   proper_nouns > 0: 0 (7.0)
|   |   |   |   |   |   |   |   |   |   past_tense_verb > 2
|   |   |   |   |   |   |   |   |   |   |   num_sentences <= 3: 0 (22.0/2.0)
|   |   |   |   |   |   |   |   |   |   |   num_sentences > 3: 4 (2.0)
|   |   |   |   |   |   |   |   1st_person > 2
|   |   |   |   |   |   |   |   |   upper_case_words <= 1
|   |   |   |   |   |   |   |   |   |   avg_length_token <= 3.555556: 4 (2.0)
|   |   |   |   |   |   |   |   |   |   avg_length_token > 3.555556: 0 (29.0/2.0)
|   |   |   |   |   |   |   |   |   upper_case_words > 1: 4 (3.0/1.0)
|   |   |   |   |   |   |   adverbs > 1
|   |   |   |   |   |   |   |   proper_nouns <= 0
|   |   |   |   |   |   |   |   |   3rd_person <= 1
|   |   |   |   |   |   |   |   |   |   1st_person <= 2
|   |   |   |   |   |   |   |   |   |   |   adverbs <= 2
|   |   |   |   |   |   |   |   |   |   |   |   num_sentences <= 1: 0 (171.0/39.0)
|   |   |   |   |   |   |   |   |   |   |   |   num_sentences > 1
|   |   |   |   |   |   |   |   |   |   |   |   |   upper_case_words <= 1
|   |   |   |   |   |   |   |   |   |   |   |   |   |   future_tense_verb <= 0
|   |   |   |   |   |   |   |   |   |   |   |   |   |   |   coord_conjunction <= 0
|   |   |   |   |   |   |   |   |   |   |   |   |   |   |   |   upper_case_words <= 0
|   |   |   |   |   |   |   |   |   |   |   |   |   |   |   |   |   common_nouns <= 1: 0 (5.0)
|   |   |   |   |   |   |   |   |   |   |   |   |   |   |   |   |   common_nouns > 1
|   |   |   |   |   |   |   |   |   |   |   |   |   |   |   |   |   |   num_sentences <= 2
|   |   |   |   |   |   |   |   |   |   |   |   |   |   |   |   |   |   |   ellipses <= 0
|   |   |   |   |   |   |   |   |   |   |   |   |   |   |   |   |   |   |   |   1st_person <= 0
|   |   |   |   |   |   |   |   |   |   |   |   |   |   |   |   |   |   |   |   |   past_tense_verb <= 1
|   |   |   |   |   |   |   |   |   |   |   |   |   |   |   |   |   |   |   |   |   |   avg_length_token <= 3.909091: 4 (5.0/1.0)
|   |   |   |   |   |   |   |   |   |   |   |   |   |   |   |   |   |   |   |   |   |   avg_length_token > 3.909091: 0 (2.0)
|   |   |   |   |   |   |   |   |   |   |   |   |   |   |   |   |   |   |   |   |   past_tense_verb > 1: 4 (3.0)
|   |   |   |   |   |   |   |   |   |   |   |   |   |   |   |   |   |   |   |   1st_person > 0: 0 (17.0/3.0)
|   |   |   |   |   |   |   |   |   |   |   |   |   |   |   |   |   |   |   ellipses > 0: 4 (6.0)
|   |   |   |   |   |   |   |   |   |   |   |   |   |   |   |   |   |   num_sentences > 2
|   |   |   |   |   |   |   |   |   |   |   |   |   |   |   |   |   |   |   avg_length_token <= 3.791667
|   |   |   |   |   |   |   |   |   |   |   |   |   |   |   |   |   |   |   |   common_nouns <= 3: 0 (4.0)
|   |   |   |   |   |   |   |   |   |   |   |   |   |   |   |   |   |   |   |   common_nouns > 3: 4 (12.0/4.0)
|   |   |   |   |   |   |   |   |   |   |   |   |   |   |   |   |   |   |   avg_length_token > 3.791667: 0 (9.0)
|   |   |   |   |   |   |   |   |   |   |   |   |   |   |   |   upper_case_words > 0
|   |   |   |   |   |   |   |   |   |   |   |   |   |   |   |   |   num_sentences <= 2: 4 (7.0/1.0)
|   |   |   |   |   |   |   |   |   |   |   |   |   |   |   |   |   num_sentences > 2: 0 (3.0/1.0)
|   |   |   |   |   |   |   |   |   |   |   |   |   |   |   coord_conjunction > 0: 0 (39.0/8.0)
|   |   |   |   |   |   |   |   |   |   |   |   |   |   future_tense_verb > 0
|   |   |   |   |   |   |   |   |   |   |   |   |   |   |   common_nouns <= 6: 0 (17.0/6.0)
|   |   |   |   |   |   |   |   |   |   |   |   |   |   |   common_nouns > 6: 4 (5.0)
|   |   |   |   |   |   |   |   |   |   |   |   |   upper_case_words > 1: 0 (9.0)
|   |   |   |   |   |   |   |   |   |   |   adverbs > 2
|   |   |   |   |   |   |   |   |   |   |   |   upper_case_words <= 0
|   |   |   |   |   |   |   |   |   |   |   |   |   3rd_person <= 0: 0 (98.0/14.0)
|   |   |   |   |   |   |   |   |   |   |   |   |   3rd_person > 0
|   |   |   |   |   |   |   |   |   |   |   |   |   |   past_tense_verb <= 2
|   |   |   |   |   |   |   |   |   |   |   |   |   |   |   adverbs <= 3
|   |   |   |   |   |   |   |   |   |   |   |   |   |   |   |   common_nouns <= 6
|   |   |   |   |   |   |   |   |   |   |   |   |   |   |   |   |   commas <= 1: 4 (9.0/2.0)
|   |   |   |   |   |   |   |   |   |   |   |   |   |   |   |   |   commas > 1: 0 (4.0)
|   |   |   |   |   |   |   |   |   |   |   |   |   |   |   |   common_nouns > 6: 0 (8.0)
|   |   |   |   |   |   |   |   |   |   |   |   |   |   |   adverbs > 3: 0 (10.0)
|   |   |   |   |   |   |   |   |   |   |   |   |   |   past_tense_verb > 2: 4 (2.0)
|   |   |   |   |   |   |   |   |   |   |   |   upper_case_words > 0
|   |   |   |   |   |   |   |   |   |   |   |   |   future_tense_verb <= 0: 0 (18.0/4.0)
|   |   |   |   |   |   |   |   |   |   |   |   |   future_tense_verb > 0: 4 (3.0)
|   |   |   |   |   |   |   |   |   |   1st_person > 2
|   |   |   |   |   |   |   |   |   |   |   coord_conjunction <= 1
|   |   |   |   |   |   |   |   |   |   |   |   commas <= 3
|   |   |   |   |   |   |   |   |   |   |   |   |   wh_words <= 1
|   |   |   |   |   |   |   |   |   |   |   |   |   |   past_tense_verb <= 1: 4 (12.0/2.0)
|   |   |   |   |   |   |   |   |   |   |   |   |   |   past_tense_verb > 1: 0 (8.0/3.0)
|   |   |   |   |   |   |   |   |   |   |   |   |   wh_words > 1: 0 (2.0)
|   |   |   |   |   |   |   |   |   |   |   |   commas > 3: 0 (2.0)
|   |   |   |   |   |   |   |   |   |   |   coord_conjunction > 1: 0 (6.0)
|   |   |   |   |   |   |   |   |   3rd_person > 1
|   |   |   |   |   |   |   |   |   |   upper_case_words <= 0
|   |   |   |   |   |   |   |   |   |   |   avg_length_sentences <= 9: 4 (5.0)
|   |   |   |   |   |   |   |   |   |   |   avg_length_sentences > 9
|   |   |   |   |   |   |   |   |   |   |   |   3rd_person <= 2
|   |   |   |   |   |   |   |   |   |   |   |   |   ellipses <= 0
|   |   |   |   |   |   |   |   |   |   |   |   |   |   num_sentences <= 2
|   |   |   |   |   |   |   |   |   |   |   |   |   |   |   avg_length_token <= 3.9
|   |   |   |   |   |   |   |   |   |   |   |   |   |   |   |   adverbs <= 3
|   |   |   |   |   |   |   |   |   |   |   |   |   |   |   |   |   common_nouns <= 3: 0 (4.0)
|   |   |   |   |   |   |   |   |   |   |   |   |   |   |   |   |   common_nouns > 3: 4 (7.0/2.0)
|   |   |   |   |   |   |   |   |   |   |   |   |   |   |   |   adverbs > 3: 4 (2.0)
|   |   |   |   |   |   |   |   |   |   |   |   |   |   |   avg_length_token > 3.9: 0 (4.0)
|   |   |   |   |   |   |   |   |   |   |   |   |   |   num_sentences > 2: 0 (2.0)
|   |   |   |   |   |   |   |   |   |   |   |   |   ellipses > 0: 4 (3.0/1.0)
|   |   |   |   |   |   |   |   |   |   |   |   3rd_person > 2: 0 (4.0/1.0)
|   |   |   |   |   |   |   |   |   |   upper_case_words > 0: 0 (5.0)
|   |   |   |   |   |   |   |   proper_nouns > 0
|   |   |   |   |   |   |   |   |   3rd_person <= 1
|   |   |   |   |   |   |   |   |   |   proper_nouns <= 2
|   |   |   |   |   |   |   |   |   |   |   ellipses <= 0
|   |   |   |   |   |   |   |   |   |   |   |   coord_conjunction <= 1
|   |   |   |   |   |   |   |   |   |   |   |   |   coord_conjunction <= 0
|   |   |   |   |   |   |   |   |   |   |   |   |   |   commas <= 1
|   |   |   |   |   |   |   |   |   |   |   |   |   |   |   adverbs <= 3
|   |   |   |   |   |   |   |   |   |   |   |   |   |   |   |   wh_words <= 0
|   |   |   |   |   |   |   |   |   |   |   |   |   |   |   |   |   common_nouns <= 5: 0 (19.0/2.0)
|   |   |   |   |   |   |   |   |   |   |   |   |   |   |   |   |   common_nouns > 5: 4 (3.0/1.0)
|   |   |   |   |   |   |   |   |   |   |   |   |   |   |   |   wh_words > 0
|   |   |   |   |   |   |   |   |   |   |   |   |   |   |   |   |   common_nouns <= 9: 4 (3.0)
|   |   |   |   |   |   |   |   |   |   |   |   |   |   |   |   |   common_nouns > 9: 0 (2.0)
|   |   |   |   |   |   |   |   |   |   |   |   |   |   |   adverbs > 3: 4 (3.0)
|   |   |   |   |   |   |   |   |   |   |   |   |   |   commas > 1
|   |   |   |   |   |   |   |   |   |   |   |   |   |   |   proper_nouns <= 1
|   |   |   |   |   |   |   |   |   |   |   |   |   |   |   |   avg_length_sentences <= 12.5: 4 (4.0)
