
J48 pruned tree
------------------

avg_length_token <= 4.090909
|   2nd_person <= 0
|   |   adverbs <= 0
|   |   |   common_nouns <= 0
|   |   |   |   proper_nouns <= 0
|   |   |   |   |   past_tense_verb <= 0
|   |   |   |   |   |   ellipses <= 0
|   |   |   |   |   |   |   future_tense_verb <= 0
|   |   |   |   |   |   |   |   3rd_person <= 0
|   |   |   |   |   |   |   |   |   1st_person <= 0
|   |   |   |   |   |   |   |   |   |   upper_case_words <= 0
|   |   |   |   |   |   |   |   |   |   |   avg_length_token <= 3.535714: 0 (113.0/26.0)
|   |   |   |   |   |   |   |   |   |   |   avg_length_token > 3.535714
|   |   |   |   |   |   |   |   |   |   |   |   coord_conjunction <= 0
|   |   |   |   |   |   |   |   |   |   |   |   |   avg_length_sentences <= 4.5
|   |   |   |   |   |   |   |   |   |   |   |   |   |   avg_length_token <= 3.708333: 4 (6.0/2.0)
|   |   |   |   |   |   |   |   |   |   |   |   |   |   avg_length_token > 3.708333: 0 (25.0/7.0)
|   |   |   |   |   |   |   |   |   |   |   |   |   avg_length_sentences > 4.5
|   |   |   |   |   |   |   |   |   |   |   |   |   |   avg_length_sentences <= 6.5: 4 (17.0/4.0)
|   |   |   |   |   |   |   |   |   |   |   |   |   |   avg_length_sentences > 6.5: 0 (4.0/1.0)
|   |   |   |   |   |   |   |   |   |   |   |   coord_conjunction > 0: 0 (3.0)
|   |   |   |   |   |   |   |   |   |   upper_case_words > 0
|   |   |   |   |   |   |   |   |   |   |   avg_length_token <= 3.366667
|   |   |   |   |   |   |   |   |   |   |   |   dashes <= 1: 4 (4.0)
|   |   |   |   |   |   |   |   |   |   |   |   dashes > 1: 0 (2.0)
|   |   |   |   |   |   |   |   |   |   |   avg_length_token > 3.366667: 0 (5.0)
|   |   |   |   |   |   |   |   |   1st_person > 0
|   |   |   |   |   |   |   |   |   |   wh_words <= 0: 0 (35.0/7.0)
|   |   |   |   |   |   |   |   |   |   wh_words > 0: 4 (3.0/1.0)
|   |   |   |   |   |   |   |   3rd_person > 0
|   |   |   |   |   |   |   |   |   avg_length_token <= 3.1: 0 (5.0)
|   |   |   |   |   |   |   |   |   avg_length_token > 3.1: 4 (10.0/4.0)
|   |   |   |   |   |   |   future_tense_verb > 0
|   |   |   |   |   |   |   |   num_sentences <= 1
|   |   |   |   |   |   |   |   |   avg_length_token <= 3.071429: 0 (3.0)
|   |   |   |   |   |   |   |   |   avg_length_token > 3.071429: 4 (8.0/1.0)
|   |   |   |   |   |   |   |   num_sentences > 1: 0 (2.0)
|   |   |   |   |   |   ellipses > 0
|   |   |   |   |   |   |   coord_conjunction <= 0: 0 (17.0/2.0)
|   |   |   |   |   |   |   coord_conjunction > 0: 4 (3.0/1.0)
|   |   |   |   |   past_tense_verb > 0: 0 (24.0/3.0)
|   |   |   |   proper_nouns > 0
|   |   |   |   |   coord_conjunction <= 0
|   |   |   |   |   |   ellipses <= 0
|   |   |   |   |   |   |   past_tense_verb <= 0
|   |   |   |   |   |   |   |   avg_length_token <= 2.952381: 4 (7.0)
|   |   |   |   |   |   |   |   avg_length_token > 2.952381
|   |   |   |   |   |   |   |   |   upper_case_words <= 1
|   |   |   |   |   |   |   |   |   |   avg_length_sentences <= 3.5
|   |   |   |   |   |   |   |   |   |   |   avg_length_token <= 3.833333: 4 (8.0)
|   |   |   |   |   |   |   |   |   |   |   avg_length_token > 3.833333
|   |   |   |   |   |   |   |   |   |   |   |   avg_length_sentences <= 2.5: 4 (4.0/1.0)
|   |   |   |   |   |   |   |   |   |   |   |   avg_length_sentences > 2.5: 0 (2.0)
|   |   |   |   |   |   |   |   |   |   avg_length_sentences > 3.5
|   |   |   |   |   |   |   |   |   |   |   avg_length_token <= 3.5: 0 (14.0/3.0)
|   |   |   |   |   |   |   |   |   |   |   avg_length_token > 3.5: 4 (7.0/1.0)
|   |   |   |   |   |   |   |   |   upper_case_words > 1: 0 (3.0/1.0)
|   |   |   |   |   |   |   past_tense_verb > 0: 0 (4.0/1.0)
|   |   |   |   |   |   ellipses > 0: 0 (7.0/1.0)
|   |   |   |   |   coord_conjunction > 0: 0 (3.0)
|   |   |   common_nouns > 0
|   |   |   |   1st_person <= 1
|   |   |   |   |   wh_words <= 0
|   |   |   |   |   |   dashes <= 0
|   |   |   |   |   |   |   3rd_person <= 1
|   |   |   |   |   |   |   |   proper_nouns <= 0
|   |   |   |   |   |   |   |   |   upper_case_words <= 0
|   |   |   |   |   |   |   |   |   |   future_tense_verb <= 0
|   |   |   |   |   |   |   |   |   |   |   3rd_person <= 0
|   |   |   |   |   |   |   |   |   |   |   |   coord_conjunction <= 0
|   |   |   |   |   |   |   |   |   |   |   |   |   past_tense_verb <= 0
|   |   |   |   |   |   |   |   |   |   |   |   |   |   1st_person <= 0
|   |   |   |   |   |   |   |   |   |   |   |   |   |   |   num_sentences <= 1: 0 (645.0/299.0)
|   |   |   |   |   |   |   |   |   |   |   |   |   |   |   num_sentences > 1
|   |   |   |   |   |   |   |   |   |   |   |   |   |   |   |   ellipses <= 1
|   |   |   |   |   |   |   |   |   |   |   |   |   |   |   |   |   num_sentences <= 2: 0 (57.0/18.0)
|   |   |   |   |   |   |   |   |   |   |   |   |   |   |   |   |   num_sentences > 2
|   |   |   |   |   |   |   |   |   |   |   |   |   |   |   |   |   |   num_sentences <= 3
|   |   |   |   |   |   |   |   |   |   |   |   |   |   |   |   |   |   |   common_nouns <= 3: 0 (4.0/1.0)
|   |   |   |   |   |   |   |   |   |   |   |   |   |   |   |   |   |   |   common_nouns > 3
|   |   |   |   |   |   |   |   |   |   |   |   |   |   |   |   |   |   |   |   common_nouns <= 5: 4 (3.0)
|   |   |   |   |   |   |   |   |   |   |   |   |   |   |   |   |   |   |   |   common_nouns > 5: 0 (6.0/1.0)
|   |   |   |   |   |   |   |   |   |   |   |   |   |   |   |   |   |   num_sentences > 3: 4 (2.0)
|   |   |   |   |   |   |   |   |   |   |   |   |   |   |   |   ellipses > 1
|   |   |   |   |   |   |   |   |   |   |   |   |   |   |   |   |   avg_length_token <= 3.954545: 4 (6.0)
|   |   |   |   |   |   |   |   |   |   |   |   |   |   |   |   |   avg_length_token > 3.954545: 0 (3.0)
|   |   |   |   |   |   |   |   |   |   |   |   |   |   1st_person > 0
|   |   |   |   |   |   |   |   |   |   |   |   |   |   |   num_sentences <= 1
|   |   |   |   |   |   |   |   |   |   |   |   |   |   |   |   ellipses <= 0
|   |   |   |   |   |   |   |   |   |   |   |   |   |   |   |   |   commas <= 1: 4 (204.0/100.0)
|   |   |   |   |   |   |   |   |   |   |   |   |   |   |   |   |   commas > 1
|   |   |   |   |   |   |   |   |   |   |   |   |   |   |   |   |   |   common_nouns <= 5: 4 (12.0/3.0)
|   |   |   |   |   |   |   |   |   |   |   |   |   |   |   |   |   |   common_nouns > 5: 0 (5.0)
|   |   |   |   |   |   |   |   |   |   |   |   |   |   |   |   ellipses > 0
|   |   |   |   |   |   |   |   |   |   |   |   |   |   |   |   |   avg_length_sentences <= 12.5: 0 (25.0/7.0)
|   |   |   |   |   |   |   |   |   |   |   |   |   |   |   |   |   avg_length_sentences > 12.5: 4 (6.0/1.0)
|   |   |   |   |   |   |   |   |   |   |   |   |   |   |   num_sentences > 1
|   |   |   |   |   |   |   |   |   |   |   |   |   |   |   |   avg_length_sentences <= 3.75: 0 (3.0)
|   |   |   |   |   |   |   |   |   |   |   |   |   |   |   |   avg_length_sentences > 3.75
|   |   |   |   |   |   |   |   |   |   |   |   |   |   |   |   |   common_nouns <= 2: 4 (10.0/1.0)
|   |   |   |   |   |   |   |   |   |   |   |   |   |   |   |   |   common_nouns > 2
|   |   |   |   |   |   |   |   |   |   |   |   |   |   |   |   |   |   commas <= 1
|   |   |   |   |   |   |   |   |   |   |   |   |   |   |   |   |   |   |   ellipses <= 0
|   |   |   |   |   |   |   |   |   |   |   |   |   |   |   |   |   |   |   |   common_nouns <= 4
|   |   |   |   |   |   |   |   |   |   |   |   |   |   |   |   |   |   |   |   |   avg_length_sentences <= 5.25: 4 (3.0)
|   |   |   |   |   |   |   |   |   |   |   |   |   |   |   |   |   |   |   |   |   avg_length_sentences > 5.25: 0 (13.0/2.0)
|   |   |   |   |   |   |   |   |   |   |   |   |   |   |   |   |   |   |   |   common_nouns > 4: 4 (5.0/1.0)
|   |   |   |   |   |   |   |   |   |   |   |   |   |   |   |   |   |   |   ellipses > 0
|   |   |   |   |   |   |   |   |   |   |   |   |   |   |   |   |   |   |   |   avg_length_token <= 3.75
|   |   |   |   |   |   |   |   |   |   |   |   |   |   |   |   |   |   |   |   |   common_nouns <= 8: 0 (6.0/1.0)
|   |   |   |   |   |   |   |   |   |   |   |   |   |   |   |   |   |   |   |   |   common_nouns > 8: 4 (2.0)
|   |   |   |   |   |   |   |   |   |   |   |   |   |   |   |   |   |   |   |   avg_length_token > 3.75: 4 (7.0)
|   |   |   |   |   |   |   |   |   |   |   |   |   |   |   |   |   |   commas > 1: 0 (4.0/2.0)
|   |   |   |   |   |   |   |   |   |   |   |   |   past_tense_verb > 0
|   |   |   |   |   |   |   |   |   |   |   |   |   |   num_sentences <= 1
|   |   |   |   |   |   |   |   |   |   |   |   |   |   |   commas <= 1: 0 (121.0/44.0)
|   |   |   |   |   |   |   |   |   |   |   |   |   |   |   commas > 1
|   |   |   |   |   |   |   |   |   |   |   |   |   |   |   |   common_nouns <= 3: 4 (10.0/2.0)
|   |   |   |   |   |   |   |   |   |   |   |   |   |   |   |   common_nouns > 3: 0 (5.0)
|   |   |   |   |   |   |   |   |   |   |   |   |   |   num_sentences > 1
|   |   |   |   |   |   |   |   |   |   |   |   |   |   |   commas <= 1
|   |   |   |   |   |   |   |   |   |   |   |   |   |   |   |   common_nouns <= 2: 0 (5.0)
|   |   |   |   |   |   |   |   |   |   |   |   |   |   |   |   common_nouns > 2: 4 (22.0/7.0)
|   |   |   |   |   |   |   |   |   |   |   |   |   |   |   commas > 1: 0 (4.0/1.0)
|   |   |   |   |   |   |   |   |   |   |   |   coord_conjunction > 0
|   |   |   |   |   |   |   |   |   |   |   |   |   1st_person <= 0
|   |   |   |   |   |   |   |   |   |   |   |   |   |   ellipses <= 0
|   |   |   |   |   |   |   |   |   |   |   |   |   |   |   commas <= 1
|   |   |   |   |   |   |   |   |   |   |   |   |   |   |   |   num_sentences <= 1
|   |   |   |   |   |   |   |   |   |   |   |   |   |   |   |   |   coord_conjunction <= 1
|   |   |   |   |   |   |   |   |   |   |   |   |   |   |   |   |   |   past_tense_verb <= 0: 0 (44.0/20.0)
|   |   |   |   |   |   |   |   |   |   |   |   |   |   |   |   |   |   past_tense_verb > 0
|   |   |   |   |   |   |   |   |   |   |   |   |   |   |   |   |   |   |   avg_length_token <= 3.791667
|   |   |   |   |   |   |   |   |   |   |   |   |   |   |   |   |   |   |   |   common_nouns <= 4: 4 (5.0/1.0)
|   |   |   |   |   |   |   |   |   |   |   |   |   |   |   |   |   |   |   |   common_nouns > 4: 0 (3.0)
|   |   |   |   |   |   |   |   |   |   |   |   |   |   |   |   |   |   |   avg_length_token > 3.791667: 4 (5.0)
|   |   |   |   |   |   |   |   |   |   |   |   |   |   |   |   |   coord_conjunction > 1
|   |   |   |   |   |   |   |   |   |   |   |   |   |   |   |   |   |   past_tense_verb <= 1: 4 (2.0)
|   |   |   |   |   |   |   |   |   |   |   |   |   |   |   |   |   |   past_tense_verb > 1: 0 (2.0)
|   |   |   |   |   |   |   |   |   |   |   |   |   |   |   |   num_sentences > 1
|   |   |   |   |   |   |   |   |   |   |   |   |   |   |   |   |   num_sentences <= 2
|   |   |   |   |   |   |   |   |   |   |   |   |   |   |   |   |   |   avg_length_token <= 4.0625: 4 (10.0)
|   |   |   |   |   |   |   |   |   |   |   |   |   |   |   |   |   |   avg_length_token > 4.0625: 0 (2.0)
|   |   |   |   |   |   |   |   |   |   |   |   |   |   |   |   |   num_sentences > 2: 0 (3.0/1.0)
|   |   |   |   |   |   |   |   |   |   |   |   |   |   |   commas > 1
|   |   |   |   |   |   |   |   |   |   |   |   |   |   |   |   avg_length_sentences <= 15: 0 (11.0)
|   |   |   |   |   |   |   |   |   |   |   |   |   |   |   |   avg_length_sentences > 15: 4 (4.0)
|   |   |   |   |   |   |   |   |   |   |   |   |   |   ellipses > 0
|   |   |   |   |   |   |   |   |   |   |   |   |   |   |   commas <= 3
|   |   |   |   |   |   |   |   |   |   |   |   |   |   |   |   avg_length_sentences <= 5.25: 4 (2.0)
|   |   |   |   |   |   |   |   |   |   |   |   |   |   |   |   avg_length_sentences > 5.25: 0 (11.0/1.0)
|   |   |   |   |   |   |   |   |   |   |   |   |   |   |   commas > 3: 4 (3.0)
|   |   |   |   |   |   |   |   |   |   |   |   |   1st_person > 0
|   |   |   |   |   |   |   |   |   |   |   |   |   |   ellipses <= 0
|   |   |   |   |   |   |   |   |   |   |   |   |   |   |   avg_length_sentences <= 11.5
|   |   |   |   |   |   |   |   |   |   |   |   |   |   |   |   commas <= 1
|   |   |   |   |   |   |   |   |   |   |   |   |   |   |   |   |   avg_length_sentences <= 9.5: 0 (19.0/3.0)
|   |   |   |   |   |   |   |   |   |   |   |   |   |   |   |   |   avg_length_sentences > 9.5: 4 (10.0/1.0)
|   |   |   |   |   |   |   |   |   |   |   |   |   |   |   |   commas > 1: 4 (2.0)
|   |   |   |   |   |   |   |   |   |   |   |   |   |   |   avg_length_sentences > 11.5: 0 (20.0/2.0)
|   |   |   |   |   |   |   |   |   |   |   |   |   |   ellipses > 0
|   |   |   |   |   |   |   |   |   |   |   |   |   |   |   num_sentences <= 1: 4 (3.0/1.0)
|   |   |   |   |   |   |   |   |   |   |   |   |   |   |   num_sentences > 1: 0 (7.0)
|   |   |   |   |   |   |   |   |   |   |   3rd_person > 0
|   |   |   |   |   |   |   |   |   |   |   |   ellipses <= 0
|   |   |   |   |   |   |   |   |   |   |   |   |   num_sentences <= 1
|   |   |   |   |   |   |   |   |   |   |   |   |   |   avg_length_sentences <= 4.5: 4 (8.0)
|   |   |   |   |   |   |   |   |   |   |   |   |   |   avg_length_sentences > 4.5
|   |   |   |   |   |   |   |   |   |   |   |   |   |   |   coord_conjunction <= 0
|   |   |   |   |   |   |   |   |   |   |   |   |   |   |   |   past_tense_verb <= 0
|   |   |   |   |   |   |   |   |   |   |   |   |   |   |   |   |   avg_length_sentences <= 16.5
|   |   |   |   |   |   |   |   |   |   |   |   |   |   |   |   |   |   1st_person <= 0: 0 (55.0/24.0)
|   |   |   |   |   |   |   |   |   |   |   |   |   |   |   |   |   |   1st_person > 0
|   |   |   |   |   |   |   |   |   |   |   |   |   |   |   |   |   |   |   commas <= 1
|   |   |   |   |   |   |   |   |   |   |   |   |   |   |   |   |   |   |   |   avg_length_token <= 3.055556: 0 (3.0)
|   |   |   |   |   |   |   |   |   |   |   |   |   |   |   |   |   |   |   |   avg_length_token > 3.055556
|   |   |   |   |   |   |   |   |   |   |   |   |   |   |   |   |   |   |   |   |   avg_length_sentences <= 12.5: 4 (9.0/2.0)
|   |   |   |   |   |   |   |   |   |   |   |   |   |   |   |   |   |   |   |   |   avg_length_sentences > 12.5: 0 (2.0)
|   |   |   |   |   |   |   |   |   |   |   |   |   |   |   |   |   |   |   commas > 1: 4 (5.0)
|   |   |   |   |   |   |   |   |   |   |   |   |   |   |   |   |   avg_length_sentences > 16.5: 0 (6.0)
|   |   |   |   |   |   |   |   |   |   |   |   |   |   |   |   past_tense_verb > 0
|   |   |   |   |   |   |   |   |   |   |   |   |   |   |   |   |   1st_person <= 0
|   |   |   |   |   |   |   |   |   |   |   |   |   |   |   |   |   |   avg_length_token <= 3.88: 4 (24.0/6.0)
|   |   |   |   |   |   |   |   |   |   |   |   |   |   |   |   |   |   avg_length_token > 3.88: 0 (4.0)
|   |   |   |   |   |   |   |   |   |   |   |   |   |   |   |   |   1st_person > 0
|   |   |   |   |   |   |   |   |   |   |   |   |   |   |   |   |   |   common_nouns <= 4: 0 (8.0)
|   |   |   |   |   |   |   |   |   |   |   |   |   |   |   |   |   |   common_nouns > 4: 4 (2.0)
|   |   |   |   |   |   |   |   |   |   |   |   |   |   |   coord_conjunction > 0
|   |   |   |   |   |   |   |   |   |   |   |   |   |   |   |   1st_person <= 0
|   |   |   |   |   |   |   |   |   |   |   |   |   |   |   |   |   commas <= 1
|   |   |   |   |   |   |   |   |   |   |   |   |   |   |   |   |   |   common_nouns <= 5
|   |   |   |   |   |   |   |   |   |   |   |   |   |   |   |   |   |   |   past_tense_verb <= 0
|   |   |   |   |   |   |   |   |   |   |   |   |   |   |   |   |   |   |   |   avg_length_token <= 3.428571: 4 (4.0)
|   |   |   |   |   |   |   |   |   |   |   |   |   |   |   |   |   |   |   |   avg_length_token > 3.428571
|   |   |   |   |   |   |   |   |   |   |   |   |   |   |   |   |   |   |   |   |   avg_length_sentences <= 8.5: 4 (2.0)
|   |   |   |   |   |   |   |   |   |   |   |   |   |   |   |   |   |   |   |   |   avg_length_sentences > 8.5: 0 (3.0)
|   |   |   |   |   |   |   |   |   |   |   |   |   |   |   |   |   |   |   past_tense_verb > 0: 0 (4.0/2.0)
|   |   |   |   |   |   |   |   |   |   |   |   |   |   |   |   |   |   common_nouns > 5: 0 (2.0)
|   |   |   |   |   |   |   |   |   |   |   |   |   |   |   |   |   commas > 1: 0 (6.0/1.0)
|   |   |   |   |   |   |   |   |   |   |   |   |   |   |   |   1st_person > 0: 4 (6.0)
|   |   |   |   |   |   |   |   |   |   |   |   |   num_sentences > 1: 4 (26.0/8.0)
|   |   |   |   |   |   |   |   |   |   |   |   ellipses > 0
|   |   |   |   |   |   |   |   |   |   |   |   |   commas <= 1
|   |   |   |   |   |   |   |   |   |   |   |   |   |   ellipses <= 1
|   |   |   |   |   |   |   |   |   |   |   |   |   |   |   parentheses <= 1
|   |   |   |   |   |   |   |   |   |   |   |   |   |   |   |   coord_conjunction <= 0
|   |   |   |   |   |   |   |   |   |   |   |   |   |   |   |   |   common_nouns <= 4
|   |   |   |   |   |   |   |   |   |   |   |   |   |   |   |   |   |   common_nouns <= 2
|   |   |   |   |   |   |   |   |   |   |   |   |   |   |   |   |   |   |   1st_person <= 0: 0 (8.0/2.0)
|   |   |   |   |   |   |   |   |   |   |   |   |   |   |   |   |   |   |   1st_person > 0: 4 (3.0)
|   |   |   |   |   |   |   |   |   |   |   |   |   |   |   |   |   |   common_nouns > 2: 4 (6.0/1.0)
|   |   |   |   |   |   |   |   |   |   |   |   |   |   |   |   |   common_nouns > 4: 0 (2.0)
|   |   |   |   |   |   |   |   |   |   |   |   |   |   |   |   coord_conjunction > 0
|   |   |   |   |   |   |   |   |   |   |   |   |   |   |   |   |   common_nouns <= 4: 0 (7.0)
|   |   |   |   |   |   |   |   |   |   |   |   |   |   |   |   |   common_nouns > 4: 4 (2.0)
|   |   |   |   |   |   |   |   |   |   |   |   |   |   |   parentheses > 1: 0 (2.0)
|   |   |   |   |   |   |   |   |   |   |   |   |   |   ellipses > 1: 0 (4.0)
|   |   |   |   |   |   |   |   |   |   |   |   |   commas > 1: 4 (2.0)
|   |   |   |   |   |   |   |   |   |   future_tense_verb > 0
|   |   |   |   |   |   |   |   |   |   |   past_tense_verb <= 0
|   |   |   |   |   |   |   |   |   |   |   |   ellipses <= 0
|   |   |   |   |   |   |   |   |   |   |   |   |   num_sentences <= 2
|   |   |   |   |   |   |   |   |   |   |   |   |   |   avg_length_sentences <= 6.5: 4 (17.0/1.0)
|   |   |   |   |   |   |   |   |   |   |   |   |   |   avg_length_sentences > 6.5
|   |   |   |   |   |   |   |   |   |   |   |   |   |   |   commas <= 1
|   |   |   |   |   |   |   |   |   |   |   |   |   |   |   |   3rd_person <= 0
|   |   |   |   |   |   |   |   |   |   |   |   |   |   |   |   |   1st_person <= 0
|   |   |   |   |   |   |   |   |   |   |   |   |   |   |   |   |   |   common_nouns <= 1: 0 (4.0)
|   |   |   |   |   |   |   |   |   |   |   |   |   |   |   |   |   |   common_nouns > 1
|   |   |   |   |   |   |   |   |   |   |   |   |   |   |   |   |   |   |   common_nouns <= 2: 4 (4.0)
|   |   |   |   |   |   |   |   |   |   |   |   |   |   |   |   |   |   |   common_nouns > 2
|   |   |   |   |   |   |   |   |   |   |   |   |   |   |   |   |   |   |   |   future_tense_verb <= 2
|   |   |   |   |   |   |   |   |   |   |   |   |   |   |   |   |   |   |   |   |   avg_length_sentences <= 10.5: 0 (2.0)
|   |   |   |   |   |   |   |   |   |   |   |   |   |   |   |   |   |   |   |   |   avg_length_sentences > 10.5: 4 (6.0/1.0)
|   |   |   |   |   |   |   |   |   |   |   |   |   |   |   |   |   |   |   |   future_tense_verb > 2: 0 (6.0/1.0)
|   |   |   |   |   |   |   |   |   |   |   |   |   |   |   |   |   1st_person > 0
|   |   |   |   |   |   |   |   |   |   |   |   |   |   |   |   |   |   coord_conjunction <= 0
|   |   |   |   |   |   |   |   |   |   |   |   |   |   |   |   |   |   |   avg_length_token <= 3.655172: 4 (10.0/2.0)
|   |   |   |   |   |   |   |   |   |   |   |   |   |   |   |   |   |   |   avg_length_token > 3.655172: 0 (3.0)
|   |   |   |   |   |   |   |   |   |   |   |   |   |   |   |   |   |   coord_conjunction > 0: 4 (5.0/2.0)
|   |   |   |   |   |   |   |   |   |   |   |   |   |   |   |   3rd_person > 0
|   |   |   |   |   |   |   |   |   |   |   |   |   |   |   |   |   avg_length_token <= 3.5: 4 (6.0)
|   |   |   |   |   |   |   |   |   |   |   |   |   |   |   |   |   avg_length_token > 3.5
|   |   |   |   |   |   |   |   |   |   |   |   |   |   |   |   |   |   future_tense_verb <= 2: 4 (3.0/1.0)
|   |   |   |   |   |   |   |   |   |   |   |   |   |   |   |   |   |   future_tense_verb > 2: 0 (3.0)
|   |   |   |   |   |   |   |   |   |   |   |   |   |   |   commas > 1
|   |   |   |   |   |   |   |   |   |   |   |   |   |   |   |   commas <= 3
|   |   |   |   |   |   |   |   |   |   |   |   |   |   |   |   |   avg_length_token <= 3.928571: 4 (10.0)
|   |   |   |   |   |   |   |   |   |   |   |   |   |   |   |   |   avg_length_token > 3.928571
|   |   |   |   |   |   |   |   |   |   |   |   |   |   |   |   |   |   common_nouns <= 5: 4 (2.0)
|   |   |   |   |   |   |   |   |   |   |   |   |   |   |   |   |   |   common_nouns > 5: 0 (2.0)
|   |   |   |   |   |   |   |   |   |   |   |   |   |   |   |   commas > 3: 0 (2.0)
|   |   |   |   |   |   |   |   |   |   |   |   |   num_sentences > 2: 0 (5.0/1.0)
|   |   |   |   |   |   |   |   |   |   |   |   ellipses > 0
|   |   |   |   |   |   |   |   |   |   |   |   |   1st_person <= 0
|   |   |   |   |   |   |   |   |   |   |   |   |   |   coord_conjunction <= 1
|   |   |   |   |   |   |   |   |   |   |   |   |   |   |   coord_conjunction <= 0
|   |   |   |   |   |   |   |   |   |   |   |   |   |   |   |   common_nouns <= 2: 0 (4.0)
|   |   |   |   |   |   |   |   |   |   |   |   |   |   |   |   common_nouns > 2: 4 (4.0/1.0)
|   |   |   |   |   |   |   |   |   |   |   |   |   |   |   coord_conjunction > 0: 4 (2.0)
|   |   |   |   |   |   |   |   |   |   |   |   |   |   coord_conjunction > 1: 0 (2.0)
|   |   |   |   |   |   |   |   |   |   |   |   |   1st_person > 0: 0 (3.0)
|   |   |   |   |   |   |   |   |   |   |   past_tense_verb > 0
|   |   |   |   |   |   |   |   |   |   |   |   commas <= 2: 0 (7.0/1.0)
|   |   |   |   |   |   |   |   |   |   |   |   commas > 2: 4 (2.0)
|   |   |   |   |   |   |   |   |   upper_case_words > 0
|   |   |   |   |   |   |   |   |   |   past_tense_verb <= 0
|   |   |   |   |   |   |   |   |   |   |   1st_person <= 0
|   |   |   |   |   |   |   |   |   |   |   |   3rd_person <= 0
|   |   |   |   |   |   |   |   |   |   |   |   |   coord_conjunction <= 0
|   |   |   |   |   |   |   |   |   |   |   |   |   |   ellipses <= 0
|   |   |   |   |   |   |   |   |   |   |   |   |   |   |   common_nouns <= 3: 4 (68.0/24.0)
|   |   |   |   |   |   |   |   |   |   |   |   |   |   |   common_nouns > 3
|   |   |   |   |   |   |   |   |   |   |   |   |   |   |   |   avg_length_token <= 3.826087: 0 (12.0/1.0)
|   |   |   |   |   |   |   |   |   |   |   |   |   |   |   |   avg_length_token > 3.826087: 4 (10.0/1.0)
|   |   |   |   |   |   |   |   |   |   |   |   |   |   ellipses > 0
|   |   |   |   |   |   |   |   |   |   |   |   |   |   |   common_nouns <= 3
|   |   |   |   |   |   |   |   |   |   |   |   |   |   |   |   common_nouns <= 2: 4 (5.0)
|   |   |   |   |   |   |   |   |   |   |   |   |   |   |   |   common_nouns > 2: 0 (4.0)
|   |   |   |   |   |   |   |   |   |   |   |   |   |   |   common_nouns > 3: 4 (9.0/3.0)
|   |   |   |   |   |   |   |   |   |   |   |   |   coord_conjunction > 0
|   |   |   |   |   |   |   |   |   |   |   |   |   |   ellipses <= 0: 4 (5.0)
|   |   |   |   |   |   |   |   |   |   |   |   |   |   ellipses > 0: 0 (2.0)
|   |   |   |   |   |   |   |   |   |   |   |   3rd_person > 0: 4 (11.0/1.0)
|   |   |   |   |   |   |   |   |   |   |   1st_person > 0
|   |   |   |   |   |   |   |   |   |   |   |   num_sentences <= 1: 0 (18.0/4.0)
|   |   |   |   |   |   |   |   |   |   |   |   num_sentences > 1: 4 (9.0/3.0)
|   |   |   |   |   |   |   |   |   |   past_tense_verb > 0
|   |   |   |   |   |   |   |   |   |   |   1st_person <= 0: 0 (17.0/3.0)
|   |   |   |   |   |   |   |   |   |   |   1st_person > 0
|   |   |   |   |   |   |   |   |   |   |   |   ellipses <= 0: 4 (10.0/1.0)
|   |   |   |   |   |   |   |   |   |   |   |   ellipses > 0: 0 (2.0)
|   |   |   |   |   |   |   |   proper_nouns > 0
|   |   |   |   |   |   |   |   |   3rd_person <= 0
|   |   |   |   |   |   |   |   |   |   proper_nouns <= 2
|   |   |   |   |   |   |   |   |   |   |   common_nouns <= 5
|   |   |   |   |   |   |   |   |   |   |   |   common_nouns <= 4
|   |   |   |   |   |   |   |   |   |   |   |   |   past_tense_verb <= 0
|   |   |   |   |   |   |   |   |   |   |   |   |   |   commas <= 0
|   |   |   |   |   |   |   |   |   |   |   |   |   |   |   ellipses <= 0
|   |   |   |   |   |   |   |   |   |   |   |   |   |   |   |   proper_nouns <= 1
|   |   |   |   |   |   |   |   |   |   |   |   |   |   |   |   |   coord_conjunction <= 0
|   |   |   |   |   |   |   |   |   |   |   |   |   |   |   |   |   |   num_sentences <= 1
|   |   |   |   |   |   |   |   |   |   |   |   |   |   |   |   |   |   |   common_nouns <= 3
|   |   |   |   |   |   |   |   |   |   |   |   |   |   |   |   |   |   |   |   upper_case_words <= 0
|   |   |   |   |   |   |   |   |   |   |   |   |   |   |   |   |   |   |   |   |   parentheses <= 1
|   |   |   |   |   |   |   |   |   |   |   |   |   |   |   |   |   |   |   |   |   |   avg_length_token <= 3.413793
|   |   |   |   |   |   |   |   |   |   |   |   |   |   |   |   |   |   |   |   |   |   |   avg_length_sentences <= 5.5
|   |   |   |   |   |   |   |   |   |   |   |   |   |   |   |   |   |   |   |   |   |   |   |   avg_length_sentences <= 4.5
|   |   |   |   |   |   |   |   |   |   |   |   |   |   |   |   |   |   |   |   |   |   |   |   |   avg_length_token <= 2.833333: 4 (2.0)
|   |   |   |   |   |   |   |   |   |   |   |   |   |   |   |   |   |   |   |   |   |   |   |   |   avg_length_token > 2.833333: 0 (2.0)
|   |   |   |   |   |   |   |   |   |   |   |   |   |   |   |   |   |   |   |   |   |   |   |   avg_length_sentences > 4.5
|   |   |   |   |   |   |   |   |   |   |   |   |   |   |   |   |   |   |   |   |   |   |   |   |   avg_length_token <= 2.75: 0 (2.0)
|   |   |   |   |   |   |   |   |   |   |   |   |   |   |   |   |   |   |   |   |   |   |   |   |   avg_length_token > 2.75: 4 (3.0/1.0)
|   |   |   |   |   |   |   |   |   |   |   |   |   |   |   |   |   |   |   |   |   |   |   avg_length_sentences > 5.5: 4 (14.0)
|   |   |   |   |   |   |   |   |   |   |   |   |   |   |   |   |   |   |   |   |   |   avg_length_token > 3.413793
|   |   |   |   |   |   |   |   |   |   |   |   |   |   |   |   |   |   |   |   |   |   |   1st_person <= 0
|   |   |   |   |   |   |   |   |   |   |   |   |   |   |   |   |   |   |   |   |   |   |   |   avg_length_token <= 3.954545: 0 (18.0/5.0)
|   |   |   |   |   |   |   |   |   |   |   |   |   |   |   |   |   |   |   |   |   |   |   |   avg_length_token > 3.954545: 4 (8.0/1.0)
|   |   |   |   |   |   |   |   |   |   |   |   |   |   |   |   |   |   |   |   |   |   |   1st_person > 0
|   |   |   |   |   |   |   |   |   |   |   |   |   |   |   |   |   |   |   |   |   |   |   |   common_nouns <= 1
|   |   |   |   |   |   |   |   |   |   |   |   |   |   |   |   |   |   |   |   |   |   |   |   |   avg_length_sentences <= 7.5
|   |   |   |   |   |   |   |   |   |   |   |   |   |   |   |   |   |   |   |   |   |   |   |   |   |   avg_length_token <= 3.916667: 4 (4.0)
|   |   |   |   |   |   |   |   |   |   |   |   |   |   |   |   |   |   |   |   |   |   |   |   |   |   avg_length_token > 3.916667: 0 (2.0)
|   |   |   |   |   |   |   |   |   |   |   |   |   |   |   |   |   |   |   |   |   |   |   |   |   avg_length_sentences > 7.5: 0 (2.0)
|   |   |   |   |   |   |   |   |   |   |   |   |   |   |   |   |   |   |   |   |   |   |   |   common_nouns > 1: 0 (2.0)
|   |   |   |   |   |   |   |   |   |   |   |   |   |   |   |   |   |   |   |   |   parentheses > 1: 0 (3.0/1.0)
|   |   |   |   |   |   |   |   |   |   |   |   |   |   |   |   |   |   |   |   upper_case_words > 0: 4 (6.0/1.0)
|   |   |   |   |   |   |   |   |   |   |   |   |   |   |   |   |   |   |   common_nouns > 3: 4 (4.0)
|   |   |   |   |   |   |   |   |   |   |   |   |   |   |   |   |   |   num_sentences > 1
|   |   |   |   |   |   |   |   |   |   |   |   |   |   |   |   |   |   |   1st_person <= 0
|   |   |   |   |   |   |   |   |   |   |   |   |   |   |   |   |   |   |   |   upper_case_words <= 1: 4 (16.0/3.0)
|   |   |   |   |   |   |   |   |   |   |   |   |   |   |   |   |   |   |   |   upper_case_words > 1: 0 (4.0/1.0)
|   |   |   |   |   |   |   |   |   |   |   |   |   |   |   |   |   |   |   1st_person > 0: 0 (4.0)
|   |   |   |   |   |   |   |   |   |   |   |   |   |   |   |   |   coord_conjunction > 0: 4 (24.0/6.0)
|   |   |   |   |   |   |   |   |   |   |   |   |   |   |   |   proper_nouns > 1
|   |   |   |   |   |   |   |   |   |   |   |   |   |   |   |   |   upper_case_words <= 0
|   |   |   |   |   |   |   |   |   |   |   |   |   |   |   |   |   |   coord_conjunction <= 0
|   |   |   |   |   |   |   |   |   |   |   |   |   |   |   |   |   |   |   common_nouns <= 2
|   |   |   |   |   |   |   |   |   |   |   |   |   |   |   |   |   |   |   |   common_nouns <= 1: 4 (9.0/3.0)
|   |   |   |   |   |   |   |   |   |   |   |   |   |   |   |   |   |   |   |   common_nouns > 1: 0 (6.0)
|   |   |   |   |   |   |   |   |   |   |   |   |   |   |   |   |   |   |   common_nouns > 2: 4 (7.0/1.0)
|   |   |   |   |   |   |   |   |   |   |   |   |   |   |   |   |   |   coord_conjunction > 0: 0 (4.0)
|   |   |   |   |   |   |   |   |   |   |   |   |   |   |   |   |   upper_case_words > 0: 4 (6.0)
|   |   |   |   |   |   |   |   |   |   |   |   |   |   |   ellipses > 0
|   |   |   |   |   |   |   |   |   |   |   |   |   |   |   |   coord_conjunction <= 0
|   |   |   |   |   |   |   |   |   |   |   |   |   |   |   |   |   avg_length_sentences <= 6.25: 0 (5.0/2.0)
|   |   |   |   |   |   |   |   |   |   |   |   |   |   |   |   |   avg_length_sentences > 6.25: 4 (8.0)
|   |   |   |   |   |   |   |   |   |   |   |   |   |   |   |   coord_conjunction > 0: 0 (5.0/1.0)
|   |   |   |   |   |   |   |   |   |   |   |   |   |   commas > 0
|   |   |   |   |   |   |   |   |   |   |   |   |   |   |   commas <= 3
|   |   |   |   |   |   |   |   |   |   |   |   |   |   |   |   upper_case_words <= 1
|   |   |   |   |   |   |   |   |   |   |   |   |   |   |   |   |   num_sentences <= 1
|   |   |   |   |   |   |   |   |   |   |   |   |   |   |   |   |   |   ellipses <= 0
|   |   |   |   |   |   |   |   |   |   |   |   |   |   |   |   |   |   |   avg_length_sentences <= 16
|   |   |   |   |   |   |   |   |   |   |   |   |   |   |   |   |   |   |   |   avg_length_sentences <= 10.5: 4 (9.0/1.0)
|   |   |   |   |   |   |   |   |   |   |   |   |   |   |   |   |   |   |   |   avg_length_sentences > 10.5: 0 (6.0)
|   |   |   |   |   |   |   |   |   |   |   |   |   |   |   |   |   |   |   avg_length_sentences > 16: 4 (3.0)
|   |   |   |   |   |   |   |   |   |   |   |   |   |   |   |   |   |   ellipses > 0: 0 (4.0/1.0)
|   |   |   |   |   |   |   |   |   |   |   |   |   |   |   |   |   num_sentences > 1: 0 (3.0)
|   |   |   |   |   |   |   |   |   |   |   |   |   |   |   |   upper_case_words > 1: 4 (2.0)
|   |   |   |   |   |   |   |   |   |   |   |   |   |   |   commas > 3: 0 (3.0)
|   |   |   |   |   |   |   |   |   |   |   |   |   past_tense_verb > 0
|   |   |   |   |   |   |   |   |   |   |   |   |   |   commas <= 1
|   |   |   |   |   |   |   |   |   |   |   |   |   |   |   ellipses <= 0
|   |   |   |   |   |   |   |   |   |   |   |   |   |   |   |   common_nouns <= 2: 0 (11.0/1.0)
|   |   |   |   |   |   |   |   |   |   |   |   |   |   |   |   common_nouns > 2
|   |   |   |   |   |   |   |   |   |   |   |   |   |   |   |   |   avg_length_token <= 3.814815: 0 (6.0/1.0)
|   |   |   |   |   |   |   |   |   |   |   |   |   |   |   |   |   avg_length_token > 3.814815: 4 (2.0)
|   |   |   |   |   |   |   |   |   |   |   |   |   |   |   ellipses > 0: 4 (5.0/1.0)
|   |   |   |   |   |   |   |   |   |   |   |   |   |   commas > 1: 4 (4.0)
|   |   |   |   |   |   |   |   |   |   |   |   common_nouns > 4
|   |   |   |   |   |   |   |   |   |   |   |   |   avg_length_token <= 4.038462: 4 (20.0/3.0)
|   |   |   |   |   |   |   |   |   |   |   |   |   avg_length_token > 4.038462: 0 (2.0)
|   |   |   |   |   |   |   |   |   |   |   common_nouns > 5
|   |   |   |   |   |   |   |   |   |   |   |   1st_person <= 0
|   |   |   |   |   |   |   |   |   |   |   |   |   future_tense_verb <= 0
|   |   |   |   |   |   |   |   |   |   |   |   |   |   avg_length_sentences <= 17.5: 0 (13.0)
|   |   |   |   |   |   |   |   |   |   |   |   |   |   avg_length_sentences > 17.5: 4 (5.0/1.0)
|   |   |   |   |   |   |   |   |   |   |   |   |   future_tense_verb > 0: 4 (3.0/1.0)
|   |   |   |   |   |   |   |   |   |   |   |   1st_person > 0
|   |   |   |   |   |   |   |   |   |   |   |   |   common_nouns <= 8
|   |   |   |   |   |   |   |   |   |   |   |   |   |   past_tense_verb <= 0
|   |   |   |   |   |   |   |   |   |   |   |   |   |   |   ellipses <= 1: 4 (2.0)
|   |   |   |   |   |   |   |   |   |   |   |   |   |   |   ellipses > 1
|   |   |   |   |   |   |   |   |   |   |   |   |   |   |   |   avg_length_token <= 3.6: 0 (2.0)
|   |   |   |   |   |   |   |   |   |   |   |   |   |   |   |   avg_length_token > 3.6: 4 (2.0)
|   |   |   |   |   |   |   |   |   |   |   |   |   |   past_tense_verb > 0: 0 (4.0)
|   |   |   |   |   |   |   |   |   |   |   |   |   common_nouns > 8: 4 (4.0)
|   |   |   |   |   |   |   |   |   |   proper_nouns > 2
|   |   |   |   |   |   |   |   |   |   |   1st_person <= 0: 4 (14.0/1.0)
|   |   |   |   |   |   |   |   |   |   |   1st_person > 0: 0 (4.0/1.0)
|   |   |   |   |   |   |   |   |   3rd_person > 0
|   |   |   |   |   |   |   |   |   |   num_sentences <= 3
|   |   |   |   |   |   |   |   |   |   |   upper_case_words <= 0
|   |   |   |   |   |   |   |   |   |   |   |   future_tense_verb <= 0
|   |   |   |   |   |   |   |   |   |   |   |   |   past_tense_verb <= 0
|   |   |   |   |   |   |   |   |   |   |   |   |   |   common_nouns <= 2
|   |   |   |   |   |   |   |   |   |   |   |   |   |   |   avg_length_token <= 3.238095
|   |   |   |   |   |   |   |   |   |   |   |   |   |   |   |   avg_length_sentences <= 10.5: 4 (3.0)
|   |   |   |   |   |   |   |   |   |   |   |   |   |   |   |   avg_length_sentences > 10.5: 0 (2.0)
|   |   |   |   |   |   |   |   |   |   |   |   |   |   |   avg_length_token > 3.238095: 0 (3.0)
|   |   |   |   |   |   |   |   |   |   |   |   |   |   common_nouns > 2: 4 (8.0)
|   |   |   |   |   |   |   |   |   |   |   |   |   past_tense_verb > 0
|   |   |   |   |   |   |   |   |   |   |   |   |   |   past_tense_verb <= 1: 0 (11.0/1.0)
|   |   |   |   |   |   |   |   |   |   |   |   |   |   past_tense_verb > 1: 4 (3.0/1.0)
|   |   |   |   |   |   |   |   |   |   |   |   future_tense_verb > 0: 4 (5.0/1.0)
|   |   |   |   |   |   |   |   |   |   |   upper_case_words > 0
|   |   |   |   |   |   |   |   |   |   |   |   num_sentences <= 2: 0 (6.0)
|   |   |   |   |   |   |   |   |   |   |   |   num_sentences > 2: 4 (4.0/1.0)
|   |   |   |   |   |   |   |   |   |   num_sentences > 3: 0 (4.0)
|   |   |   |   |   |   |   3rd_person > 1
|   |   |   |   |   |   |   |   num_sentences <= 2
|   |   |   |   |   |   |   |   |   coord_conjunction <= 0: 4 (33.0/7.0)
|   |   |   |   |   |   |   |   |   coord_conjunction > 0
|   |   |   |   |   |   |   |   |   |   upper_case_words <= 0
|   |   |   |   |   |   |   |   |   |   |   num_sentences <= 1
|   |   |   |   |   |   |   |   |   |   |   |   common_nouns <= 3: 4 (4.0)
|   |   |   |   |   |   |   |   |   |   |   |   common_nouns > 3
|   |   |   |   |   |   |   |   |   |   |   |   |   commas <= 1: 4 (3.0/1.0)
|   |   |   |   |   |   |   |   |   |   |   |   |   commas > 1: 0 (2.0)
|   |   |   |   |   |   |   |   |   |   |   num_sentences > 1: 0 (4.0/1.0)
|   |   |   |   |   |   |   |   |   |   upper_case_words > 0: 0 (4.0)
|   |   |   |   |   |   |   |   num_sentences > 2: 0 (6.0/1.0)
|   |   |   |   |   |   dashes > 0
|   |   |   |   |   |   |   avg_length_token <= 3.962963
|   |   |   |   |   |   |   |   past_tense_verb <= 0
|   |   |   |   |   |   |   |   |   3rd_person <= 0
|   |   |   |   |   |   |   |   |   |   num_sentences <= 1
|   |   |   |   |   |   |   |   |   |   |   ellipses <= 0
|   |   |   |   |   |   |   |   |   |   |   |   avg_length_token <= 2.727273: 0 (5.0)
|   |   |   |   |   |   |   |   |   |   |   |   avg_length_token > 2.727273
|   |   |   |   |   |   |   |   |   |   |   |   |   upper_case_words <= 0
|   |   |   |   |   |   |   |   |   |   |   |   |   |   parentheses <= 1
|   |   |   |   |   |   |   |   |   |   |   |   |   |   |   dashes <= 3
|   |   |   |   |   |   |   |   |   |   |   |   |   |   |   |   avg_length_sentences <= 15.5
|   |   |   |   |   |   |   |   |   |   |   |   |   |   |   |   |   commas <= 1
|   |   |   |   |   |   |   |   |   |   |   |   |   |   |   |   |   |   1st_person <= 0
|   |   |   |   |   |   |   |   |   |   |   |   |   |   |   |   |   |   |   avg_length_sentences <= 5: 4 (4.0)
|   |   |   |   |   |   |   |   |   |   |   |   |   |   |   |   |   |   |   avg_length_sentences > 5
|   |   |   |   |   |   |   |   |   |   |   |   |   |   |   |   |   |   |   |   avg_length_sentences <= 8.5: 0 (2.0)
|   |   |   |   |   |   |   |   |   |   |   |   |   |   |   |   |   |   |   |   avg_length_sentences > 8.5
|   |   |   |   |   |   |   |   |   |   |   |   |   |   |   |   |   |   |   |   |   avg_length_sentences <= 11.5: 4 (9.0/2.0)
|   |   |   |   |   |   |   |   |   |   |   |   |   |   |   |   |   |   |   |   |   avg_length_sentences > 11.5: 0 (4.0/1.0)
|   |   |   |   |   |   |   |   |   |   |   |   |   |   |   |   |   |   1st_person > 0
|   |   |   |   |   |   |   |   |   |   |   |   |   |   |   |   |   |   |   common_nouns <= 3: 0 (3.0)
|   |   |   |   |   |   |   |   |   |   |   |   |   |   |   |   |   |   |   common_nouns > 3: 4 (5.0/1.0)
|   |   |   |   |   |   |   |   |   |   |   |   |   |   |   |   |   commas > 1: 4 (2.0)
|   |   |   |   |   |   |   |   |   |   |   |   |   |   |   |   avg_length_sentences > 15.5: 0 (3.0)
|   |   |   |   |   |   |   |   |   |   |   |   |   |   |   dashes > 3: 4 (2.0)
|   |   |   |   |   |   |   |   |   |   |   |   |   |   parentheses > 1: 4 (3.0)
|   |   |   |   |   |   |   |   |   |   |   |   |   upper_case_words > 0
|   |   |   |   |   |   |   |   |   |   |   |   |   |   proper_nouns <= 0: 4 (3.0/1.0)
|   |   |   |   |   |   |   |   |   |   |   |   |   |   proper_nouns > 0: 0 (3.0)
|   |   |   |   |   |   |   |   |   |   |   ellipses > 0: 4 (3.0)
|   |   |   |   |   |   |   |   |   |   num_sentences > 1
|   |   |   |   |   |   |   |   |   |   |   upper_case_words <= 0: 0 (13.0/1.0)
|   |   |   |   |   |   |   |   |   |   |   upper_case_words > 0: 4 (2.0)
|   |   |   |   |   |   |   |   |   3rd_person > 0
|   |   |   |   |   |   |   |   |   |   parentheses <= 0: 4 (17.0/2.0)
|   |   |   |   |   |   |   |   |   |   parentheses > 0: 0 (2.0)
|   |   |   |   |   |   |   |   past_tense_verb > 0
|   |   |   |   |   |   |   |   |   commas <= 1: 0 (14.0/1.0)
|   |   |   |   |   |   |   |   |   commas > 1: 4 (4.0/1.0)
|   |   |   |   |   |   |   avg_length_token > 3.962963
|   |   |   |   |   |   |   |   parentheses <= 1: 4 (27.0/2.0)
|   |   |   |   |   |   |   |   parentheses > 1: 0 (2.0)
|   |   |   |   |   wh_words > 0
|   |   |   |   |   |   wh_words <= 1
|   |   |   |   |   |   |   proper_nouns <= 0
|   |   |   |   |   |   |   |   past_tense_verb <= 1
|   |   |   |   |   |   |   |   |   ellipses <= 0
|   |   |   |   |   |   |   |   |   |   avg_length_sentences <= 4.833333
|   |   |   |   |   |   |   |   |   |   |   avg_length_token <= 2.833333: 0 (3.0)
|   |   |   |   |   |   |   |   |   |   |   avg_length_token > 2.833333: 4 (12.0)
|   |   |   |   |   |   |   |   |   |   avg_length_sentences > 4.833333
|   |   |   |   |   |   |   |   |   |   |   commas <= 0
|   |   |   |   |   |   |   |   |   |   |   |   3rd_person <= 0: 0 (98.0/26.0)
|   |   |   |   |   |   |   |   |   |   |   |   3rd_person > 0
|   |   |   |   |   |   |   |   |   |   |   |   |   num_sentences <= 1
|   |   |   |   |   |   |   |   |   |   |   |   |   |   avg_length_token <= 3.310345: 0 (4.0/1.0)
|   |   |   |   |   |   |   |   |   |   |   |   |   |   avg_length_token > 3.310345: 4 (9.0/2.0)
|   |   |   |   |   |   |   |   |   |   |   |   |   num_sentences > 1: 0 (7.0)
|   |   |   |   |   |   |   |   |   |   |   commas > 0
|   |   |   |   |   |   |   |   |   |   |   |   dashes <= 0
|   |   |   |   |   |   |   |   |   |   |   |   |   avg_length_token <= 3.7
|   |   |   |   |   |   |   |   |   |   |   |   |   |   num_sentences <= 3: 4 (15.0/4.0)
|   |   |   |   |   |   |   |   |   |   |   |   |   |   num_sentences > 3: 0 (2.0)
|   |   |   |   |   |   |   |   |   |   |   |   |   avg_length_token > 3.7: 0 (7.0)
|   |   |   |   |   |   |   |   |   |   |   |   dashes > 0: 4 (2.0)
|   |   |   |   |   |   |   |   |   ellipses > 0
|   |   |   |   |   |   |   |   |   |   past_tense_verb <= 0
|   |   |   |   |   |   |   |   |   |   |   avg_length_sentences <= 5.5: 0 (2.0)
|   |   |   |   |   |   |   |   |   |   |   avg_length_sentences > 5.5: 4 (13.0/3.0)
|   |   |   |   |   |   |   |   |   |   past_tense_verb > 0: 0 (5.0)
|   |   |   |   |   |   |   |   past_tense_verb > 1: 0 (15.0/2.0)
|   |   |   |   |   |   |   proper_nouns > 0
|   |   |   |   |   |   |   |   num_sentences <= 1
|   |   |   |   |   |   |   |   |   avg_length_token <= 3.761905
|   |   |   |   |   |   |   |   |   |   1st_person <= 0: 4 (5.0/1.0)
|   |   |   |   |   |   |   |   |   |   1st_person > 0: 0 (5.0/1.0)
|   |   |   |   |   |   |   |   |   avg_length_token > 3.761905: 4 (9.0)
|   |   |   |   |   |   |   |   num_sentences > 1
|   |   |   |   |   |   |   |   |   future_tense_verb <= 0: 0 (11.0/2.0)
|   |   |   |   |   |   |   |   |   future_tense_verb > 0: 4 (3.0/1.0)
|   |   |   |   |   |   wh_words > 1
|   |   |   |   |   |   |   ellipses <= 0
|   |   |   |   |   |   |   |   avg_length_token <= 3.851852: 0 (7.0/1.0)
|   |   |   |   |   |   |   |   avg_length_token > 3.851852: 4 (3.0)
|   |   |   |   |   |   |   ellipses > 0: 4 (4.0)
|   |   |   |   1st_person > 1
|   |   |   |   |   proper_nouns <= 1
|   |   |   |   |   |   future_tense_verb <= 0
|   |   |   |   |   |   |   commas <= 1
|   |   |   |   |   |   |   |   3rd_person <= 0
|   |   |   |   |   |   |   |   |   past_tense_verb <= 0
|   |   |   |   |   |   |   |   |   |   wh_words <= 0
|   |   |   |   |   |   |   |   |   |   |   coord_conjunction <= 0
|   |   |   |   |   |   |   |   |   |   |   |   1st_person <= 2
|   |   |   |   |   |   |   |   |   |   |   |   |   common_nouns <= 2: 0 (18.0/5.0)
|   |   |   |   |   |   |   |   |   |   |   |   |   common_nouns > 2
|   |   |   |   |   |   |   |   |   |   |   |   |   |   avg_length_sentences <= 9.25: 4 (8.0/1.0)
|   |   |   |   |   |   |   |   |   |   |   |   |   |   avg_length_sentences > 9.25
|   |   |   |   |   |   |   |   |   |   |   |   |   |   |   common_nouns <= 3: 0 (5.0)
|   |   |   |   |   |   |   |   |   |   |   |   |   |   |   common_nouns > 3
|   |   |   |   |   |   |   |   |   |   |   |   |   |   |   |   common_nouns <= 4: 4 (7.0/1.0)
|   |   |   |   |   |   |   |   |   |   |   |   |   |   |   |   common_nouns > 4: 0 (5.0/1.0)
|   |   |   |   |   |   |   |   |   |   |   |   1st_person > 2: 0 (5.0)
|   |   |   |   |   |   |   |   |   |   |   coord_conjunction > 0: 0 (22.0/3.0)
|   |   |   |   |   |   |   |   |   |   wh_words > 0: 0 (12.0)
|   |   |   |   |   |   |   |   |   past_tense_verb > 0: 0 (47.0/1.0)
|   |   |   |   |   |   |   |   3rd_person > 0
|   |   |   |   |   |   |   |   |   dashes <= 1
|   |   |   |   |   |   |   |   |   |   coord_conjunction <= 0: 4 (18.0/5.0)
|   |   |   |   |   |   |   |   |   |   coord_conjunction > 0: 0 (17.0/3.0)
|   |   |   |   |   |   |   |   |   dashes > 1: 0 (2.0)
|   |   |   |   |   |   |   commas > 1
|   |   |   |   |   |   |   |   1st_person <= 2
|   |   |   |   |   |   |   |   |   wh_words <= 0
|   |   |   |   |   |   |   |   |   |   upper_case_words <= 0
|   |   |   |   |   |   |   |   |   |   |   modern_slang <= 1
|   |   |   |   |   |   |   |   |   |   |   |   avg_length_token <= 3.521739: 0 (8.0)
|   |   |   |   |   |   |   |   |   |   |   |   avg_length_token > 3.521739
|   |   |   |   |   |   |   |   |   |   |   |   |   past_tense_verb <= 0
|   |   |   |   |   |   |   |   |   |   |   |   |   |   coord_conjunction <= 0
|   |   |   |   |   |   |   |   |   |   |   |   |   |   |   avg_length_token <= 4.0625: 4 (5.0)
|   |   |   |   |   |   |   |   |   |   |   |   |   |   |   avg_length_token > 4.0625: 0 (3.0)
|   |   |   |   |   |   |   |   |   |   |   |   |   |   coord_conjunction > 0: 0 (5.0)
|   |   |   |   |   |   |   |   |   |   |   |   |   past_tense_verb > 0: 4 (12.0/2.0)
|   |   |   |   |   |   |   |   |   |   |   modern_slang > 1: 4 (2.0)
|   |   |   |   |   |   |   |   |   |   upper_case_words > 0
|   |   |   |   |   |   |   |   |   |   |   commas <= 3: 4 (5.0)
|   |   |   |   |   |   |   |   |   |   |   commas > 3: 0 (2.0)
|   |   |   |   |   |   |   |   |   wh_words > 0: 4 (5.0/1.0)
|   |   |   |   |   |   |   |   1st_person > 2: 0 (20.0/4.0)
|   |   |   |   |   |   future_tense_verb > 0
|   |   |   |   |   |   |   num_sentences <= 1
|   |   |   |   |   |   |   |   common_nouns <= 1: 4 (4.0/1.0)
|   |   |   |   |   |   |   |   common_nouns > 1: 0 (19.0/7.0)
|   |   |   |   |   |   |   num_sentences > 1: 4 (9.0/1.0)
|   |   |   |   |   proper_nouns > 1
|   |   |   |   |   |   ellipses <= 2
|   |   |   |   |   |   |   proper_nouns <= 2: 4 (10.0/1.0)
|   |   |   |   |   |   |   proper_nouns > 2
|   |   |   |   |   |   |   |   num_sentences <= 1
|   |   |   |   |   |   |   |   |   common_nouns <= 7: 0 (4.0)
|   |   |   |   |   |   |   |   |   common_nouns > 7: 4 (2.0)
|   |   |   |   |   |   |   |   num_sentences > 1: 4 (2.0)
|   |   |   |   |   |   ellipses > 2: 0 (3.0)
|   |   adverbs > 0
|   |   |   parentheses <= 0
|   |   |   |   common_nouns <= 0
|   |   |   |   |   avg_length_sentences <= 7.75
|   |   |   |   |   |   past_tense_verb <= 0
|   |   |   |   |   |   |   adverbs <= 1
|   |   |   |   |   |   |   |   1st_person <= 0
|   |   |   |   |   |   |   |   |   wh_words <= 0
|   |   |   |   |   |   |   |   |   |   3rd_person <= 0: 0 (92.0/27.0)
|   |   |   |   |   |   |   |   |   |   3rd_person > 0
|   |   |   |   |   |   |   |   |   |   |   avg_length_sentences <= 6.5: 4 (3.0)
|   |   |   |   |   |   |   |   |   |   |   avg_length_sentences > 6.5: 0 (2.0)
|   |   |   |   |   |   |   |   |   wh_words > 0: 4 (4.0/1.0)
|   |   |   |   |   |   |   |   1st_person > 0
|   |   |   |   |   |   |   |   |   avg_length_token <= 3.583333: 0 (16.0/1.0)
|   |   |   |   |   |   |   |   |   avg_length_token > 3.583333: 4 (5.0/1.0)
|   |   |   |   |   |   |   adverbs > 1: 0 (29.0/2.0)
|   |   |   |   |   |   past_tense_verb > 0
|   |   |   |   |   |   |   avg_length_sentences <= 5.5: 4 (18.0/5.0)
|   |   |   |   |   |   |   avg_length_sentences > 5.5: 0 (18.0/5.0)
|   |   |   |   |   avg_length_sentences > 7.75
|   |   |   |   |   |   future_tense_verb <= 0: 0 (77.0/5.0)
|   |   |   |   |   |   future_tense_verb > 0
|   |   |   |   |   |   |   1st_person <= 0: 0 (8.0)
|   |   |   |   |   |   |   1st_person > 0: 4 (3.0)
|   |   |   |   common_nouns > 0
|   |   |   |   |   dashes <= 0
|   |   |   |   |   |   adverbs <= 2
|   |   |   |   |   |   |   modern_slang <= 0
|   |   |   |   |   |   |   |   wh_words <= 0
|   |   |   |   |   |   |   |   |   proper_nouns <= 0
|   |   |   |   |   |   |   |   |   |   1st_person <= 2
|   |   |   |   |   |   |   |   |   |   |   adverbs <= 1
|   |   |   |   |   |   |   |   |   |   |   |   past_tense_verb <= 1
|   |   |   |   |   |   |   |   |   |   |   |   |   ellipses <= 0
|   |   |   |   |   |   |   |   |   |   |   |   |   |   upper_case_words <= 0
|   |   |   |   |   |   |   |   |   |   |   |   |   |   |   3rd_person <= 0
|   |   |   |   |   |   |   |   |   |   |   |   |   |   |   |   future_tense_verb <= 0
|   |   |   |   |   |   |   |   |   |   |   |   |   |   |   |   |   coord_conjunction <= 0
|   |   |   |   |   |   |   |   |   |   |   |   |   |   |   |   |   |   1st_person <= 0
|   |   |   |   |   |   |   |   |   |   |   |   |   |   |   |   |   |   |   common_nouns <= 1
|   |   |   |   |   |   |   |   |   |   |   |   |   |   |   |   |   |   |   |   num_sentences <= 1
|   |   |   |   |   |   |   |   |   |   |   |   |   |   |   |   |   |   |   |   |   avg_length_sentences <= 9.5
|   |   |   |   |   |   |   |   |   |   |   |   |   |   |   |   |   |   |   |   |   |   past_tense_verb <= 0
|   |   |   |   |   |   |   |   |   |   |   |   |   |   |   |   |   |   |   |   |   |   |   avg_length_sentences <= 4.5
|   |   |   |   |   |   |   |   |   |   |   |   |   |   |   |   |   |   |   |   |   |   |   |   avg_length_token <= 3.416667: 0 (7.0/1.0)
|   |   |   |   |   |   |   |   |   |   |   |   |   |   |   |   |   |   |   |   |   |   |   |   avg_length_token > 3.416667: 4 (18.0/6.0)
|   |   |   |   |   |   |   |   |   |   |   |   |   |   |   |   |   |   |   |   |   |   |   avg_length_sentences > 4.5: 0 (61.0/16.0)
|   |   |   |   |   |   |   |   |   |   |   |   |   |   |   |   |   |   |   |   |   |   past_tense_verb > 0
|   |   |   |   |   |   |   |   |   |   |   |   |   |   |   |   |   |   |   |   |   |   |   avg_length_sentences <= 5.5: 0 (6.0)
|   |   |   |   |   |   |   |   |   |   |   |   |   |   |   |   |   |   |   |   |   |   |   avg_length_sentences > 5.5
|   |   |   |   |   |   |   |   |   |   |   |   |   |   |   |   |   |   |   |   |   |   |   |   avg_length_token <= 3.380952
|   |   |   |   |   |   |   |   |   |   |   |   |   |   |   |   |   |   |   |   |   |   |   |   |   avg_length_sentences <= 7: 0 (2.0)
|   |   |   |   |   |   |   |   |   |   |   |   |   |   |   |   |   |   |   |   |   |   |   |   |   avg_length_sentences > 7: 4 (3.0/1.0)
|   |   |   |   |   |   |   |   |   |   |   |   |   |   |   |   |   |   |   |   |   |   |   |   avg_length_token > 3.380952: 4 (7.0)
|   |   |   |   |   |   |   |   |   |   |   |   |   |   |   |   |   |   |   |   |   avg_length_sentences > 9.5: 0 (6.0)
|   |   |   |   |   |   |   |   |   |   |   |   |   |   |   |   |   |   |   |   num_sentences > 1: 0 (9.0/1.0)
|   |   |   |   |   |   |   |   |   |   |   |   |   |   |   |   |   |   |   common_nouns > 1
|   |   |   |   |   |   |   |   |   |   |   |   |   |   |   |   |   |   |   |   past_tense_verb <= 0: 0 (144.0/64.0)
|   |   |   |   |   |   |   |   |   |   |   |   |   |   |   |   |   |   |   |   past_tense_verb > 0
|   |   |   |   |   |   |   |   |   |   |   |   |   |   |   |   |   |   |   |   |   common_nouns <= 2
|   |   |   |   |   |   |   |   |   |   |   |   |   |   |   |   |   |   |   |   |   |   commas <= 1
|   |   |   |   |   |   |   |   |   |   |   |   |   |   |   |   |   |   |   |   |   |   |   avg_length_sentences <= 4.75: 0 (2.0)
|   |   |   |   |   |   |   |   |   |   |   |   |   |   |   |   |   |   |   |   |   |   |   avg_length_sentences > 4.75
|   |   |   |   |   |   |   |   |   |   |   |   |   |   |   |   |   |   |   |   |   |   |   |   avg_length_sentences <= 8.5: 4 (11.0/2.0)
|   |   |   |   |   |   |   |   |   |   |   |   |   |   |   |   |   |   |   |   |   |   |   |   avg_length_sentences > 8.5: 0 (4.0/1.0)
|   |   |   |   |   |   |   |   |   |   |   |   |   |   |   |   |   |   |   |   |   |   commas > 1: 0 (4.0/1.0)
|   |   |   |   |   |   |   |   |   |   |   |   |   |   |   |   |   |   |   |   |   common_nouns > 2: 0 (26.0/7.0)
|   |   |   |   |   |   |   |   |   |   |   |   |   |   |   |   |   |   1st_person > 0
|   |   |   |   |   |   |   |   |   |   |   |   |   |   |   |   |   |   |   num_sentences <= 1
|   |   |   |   |   |   |   |   |   |   |   |   |   |   |   |   |   |   |   |   1st_person <= 1
|   |   |   |   |   |   |   |   |   |   |   |   |   |   |   |   |   |   |   |   |   commas <= 1: 0 (107.0/30.0)
|   |   |   |   |   |   |   |   |   |   |   |   |   |   |   |   |   |   |   |   |   commas > 1
|   |   |   |   |   |   |   |   |   |   |   |   |   |   |   |   |   |   |   |   |   |   avg_length_sentences <= 11.5: 4 (10.0/3.0)
|   |   |   |   |   |   |   |   |   |   |   |   |   |   |   |   |   |   |   |   |   |   avg_length_sentences > 11.5
|   |   |   |   |   |   |   |   |   |   |   |   |   |   |   |   |   |   |   |   |   |   |   avg_length_token <= 3.592593: 4 (7.0/2.0)
|   |   |   |   |   |   |   |   |   |   |   |   |   |   |   |   |   |   |   |   |   |   |   avg_length_token > 3.592593: 0 (12.0)
|   |   |   |   |   |   |   |   |   |   |   |   |   |   |   |   |   |   |   |   1st_person > 1
|   |   |   |   |   |   |   |   |   |   |   |   |   |   |   |   |   |   |   |   |   common_nouns <= 3: 0 (14.0)
|   |   |   |   |   |   |   |   |   |   |   |   |   |   |   |   |   |   |   |   |   common_nouns > 3
|   |   |   |   |   |   |   |   |   |   |   |   |   |   |   |   |   |   |   |   |   |   avg_length_sentences <= 16.5
|   |   |   |   |   |   |   |   |   |   |   |   |   |   |   |   |   |   |   |   |   |   |   avg_length_sentences <= 15
|   |   |   |   |   |   |   |   |   |   |   |   |   |   |   |   |   |   |   |   |   |   |   |   avg_length_token <= 3.695652: 0 (3.0)
|   |   |   |   |   |   |   |   |   |   |   |   |   |   |   |   |   |   |   |   |   |   |   |   avg_length_token > 3.695652: 4 (2.0)
|   |   |   |   |   |   |   |   |   |   |   |   |   |   |   |   |   |   |   |   |   |   |   avg_length_sentences > 15: 0 (2.0)
|   |   |   |   |   |   |   |   |   |   |   |   |   |   |   |   |   |   |   |   |   |   avg_length_sentences > 16.5: 4 (2.0)
|   |   |   |   |   |   |   |   |   |   |   |   |   |   |   |   |   |   |   num_sentences > 1
|   |   |   |   |   |   |   |   |   |   |   |   |   |   |   |   |   |   |   |   past_tense_verb <= 0
|   |   |   |   |   |   |   |   |   |   |   |   |   |   |   |   |   |   |   |   |   1st_person <= 1
|   |   |   |   |   |   |   |   |   |   |   |   |   |   |   |   |   |   |   |   |   |   common_nouns <= 5: 4 (12.0/2.0)
|   |   |   |   |   |   |   |   |   |   |   |   |   |   |   |   |   |   |   |   |   |   common_nouns > 5: 0 (5.0)
|   |   |   |   |   |   |   |   |   |   |   |   |   |   |   |   |   |   |   |   |   1st_person > 1: 4 (2.0)
|   |   |   |   |   |   |   |   |   |   |   |   |   |   |   |   |   |   |   |   past_tense_verb > 0
|   |   |   |   |   |   |   |   |   |   |   |   |   |   |   |   |   |   |   |   |   avg_length_token <= 3.695652: 0 (9.0/2.0)
|   |   |   |   |   |   |   |   |   |   |   |   |   |   |   |   |   |   |   |   |   avg_length_token > 3.695652
|   |   |   |   |   |   |   |   |   |   |   |   |   |   |   |   |   |   |   |   |   |   avg_length_sentences <= 5.833333: 0 (2.0)
|   |   |   |   |   |   |   |   |   |   |   |   |   |   |   |   |   |   |   |   |   |   avg_length_sentences > 5.833333: 4 (3.0)
|   |   |   |   |   |   |   |   |   |   |   |   |   |   |   |   |   coord_conjunction > 0
|   |   |   |   |   |   |   |   |   |   |   |   |   |   |   |   |   |   1st_person <= 1
|   |   |   |   |   |   |   |   |   |   |   |   |   |   |   |   |   |   |   past_tense_verb <= 0: 0 (80.0/16.0)
|   |   |   |   |   |   |   |   |   |   |   |   |   |   |   |   |   |   |   past_tense_verb > 0
|   |   |   |   |   |   |   |   |   |   |   |   |   |   |   |   |   |   |   |   1st_person <= 0
|   |   |   |   |   |   |   |   |   |   |   |   |   |   |   |   |   |   |   |   |   avg_length_token <= 3.304348: 0 (4.0)
|   |   |   |   |   |   |   |   |   |   |   |   |   |   |   |   |   |   |   |   |   avg_length_token > 3.304348
|   |   |   |   |   |   |   |   |   |   |   |   |   |   |   |   |   |   |   |   |   |   avg_length_token <= 3.772727: 4 (8.0)
|   |   |   |   |   |   |   |   |   |   |   |   |   |   |   |   |   |   |   |   |   |   avg_length_token > 3.772727
|   |   |   |   |   |   |   |   |   |   |   |   |   |   |   |   |   |   |   |   |   |   |   avg_length_sentences <= 10: 4 (2.0)
|   |   |   |   |   |   |   |   |   |   |   |   |   |   |   |   |   |   |   |   |   |   |   avg_length_sentences > 10: 0 (2.0)
|   |   |   |   |   |   |   |   |   |   |   |   |   |   |   |   |   |   |   |   1st_person > 0
|   |   |   |   |   |   |   |   |   |   |   |   |   |   |   |   |   |   |   |   |   avg_length_token <= 3.692308
|   |   |   |   |   |   |   |   |   |   |   |   |   |   |   |   |   |   |   |   |   |   avg_length_sentences <= 10.5: 0 (2.0)
|   |   |   |   |   |   |   |   |   |   |   |   |   |   |   |   |   |   |   |   |   |   avg_length_sentences > 10.5: 4 (4.0/1.0)
|   |   |   |   |   |   |   |   |   |   |   |   |   |   |   |   |   |   |   |   |   avg_length_token > 3.692308: 0 (6.0)
|   |   |   |   |   |   |   |   |   |   |   |   |   |   |   |   |   |   1st_person > 1
|   |   |   |   |   |   |   |   |   |   |   |   |   |   |   |   |   |   |   avg_length_sentences <= 8.75: 4 (5.0)
|   |   |   |   |   |   |   |   |   |   |   |   |   |   |   |   |   |   |   avg_length_sentences > 8.75
|   |   |   |   |   |   |   |   |   |   |   |   |   |   |   |   |   |   |   |   commas <= 3
|   |   |   |   |   |   |   |   |   |   |   |   |   |   |   |   |   |   |   |   |   past_tense_verb <= 0: 0 (6.0/1.0)
|   |   |   |   |   |   |   |   |   |   |   |   |   |   |   |   |   |   |   |   |   past_tense_verb > 0
|   |   |   |   |   |   |   |   |   |   |   |   |   |   |   |   |   |   |   |   |   |   avg_length_token <= 3.923077: 4 (6.0/1.0)
|   |   |   |   |   |   |   |   |   |   |   |   |   |   |   |   |   |   |   |   |   |   avg_length_token > 3.923077: 0 (2.0)
|   |   |   |   |   |   |   |   |   |   |   |   |   |   |   |   |   |   |   |   commas > 3: 4 (2.0)
|   |   |   |   |   |   |   |   |   |   |   |   |   |   |   |   future_tense_verb > 0
|   |   |   |   |   |   |   |   |   |   |   |   |   |   |   |   |   past_tense_verb <= 0
|   |   |   |   |   |   |   |   |   |   |   |   |   |   |   |   |   |   commas <= 1: 0 (32.0/14.0)
|   |   |   |   |   |   |   |   |   |   |   |   |   |   |   |   |   |   commas > 1
|   |   |   |   |   |   |   |   |   |   |   |   |   |   |   |   |   |   |   future_tense_verb <= 2
|   |   |   |   |   |   |   |   |   |   |   |   |   |   |   |   |   |   |   |   common_nouns <= 3: 0 (2.0)
|   |   |   |   |   |   |   |   |   |   |   |   |   |   |   |   |   |   |   |   common_nouns > 3: 4 (2.0)
|   |   |   |   |   |   |   |   |   |   |   |   |   |   |   |   |   |   |   future_tense_verb > 2: 4 (2.0)
|   |   |   |   |   |   |   |   |   |   |   |   |   |   |   |   |   past_tense_verb > 0: 4 (5.0/1.0)
|   |   |   |   |   |   |   |   |   |   |   |   |   |   |   3rd_person > 0
|   |   |   |   |   |   |   |   |   |   |   |   |   |   |   |   commas <= 1
|   |   |   |   |   |   |   |   |   |   |   |   |   |   |   |   |   future_tense_verb <= 0
|   |   |   |   |   |   |   |   |   |   |   |   |   |   |   |   |   |   3rd_person <= 1
|   |   |   |   |   |   |   |   |   |   |   |   |   |   |   |   |   |   |   past_tense_verb <= 0
|   |   |   |   |   |   |   |   |   |   |   |   |   |   |   |   |   |   |   |   num_sentences <= 1
|   |   |   |   |   |   |   |   |   |   |   |   |   |   |   |   |   |   |   |   |   common_nouns <= 6
|   |   |   |   |   |   |   |   |   |   |   |   |   |   |   |   |   |   |   |   |   |   coord_conjunction <= 0
|   |   |   |   |   |   |   |   |   |   |   |   |   |   |   |   |   |   |   |   |   |   |   1st_person <= 1
|   |   |   |   |   |   |   |   |   |   |   |   |   |   |   |   |   |   |   |   |   |   |   |   1st_person <= 0
|   |   |   |   |   |   |   |   |   |   |   |   |   |   |   |   |   |   |   |   |   |   |   |   |   common_nouns <= 4: 0 (36.0/14.0)
|   |   |   |   |   |   |   |   |   |   |   |   |   |   |   |   |   |   |   |   |   |   |   |   |   common_nouns > 4: 4 (8.0/2.0)
|   |   |   |   |   |   |   |   |   |   |   |   |   |   |   |   |   |   |   |   |   |   |   |   1st_person > 0: 4 (13.0/3.0)
|   |   |   |   |   |   |   |   |   |   |   |   |   |   |   |   |   |   |   |   |   |   |   1st_person > 1: 0 (7.0/1.0)
|   |   |   |   |   |   |   |   |   |   |   |   |   |   |   |   |   |   |   |   |   |   coord_conjunction > 0: 0 (17.0/7.0)
|   |   |   |   |   |   |   |   |   |   |   |   |   |   |   |   |   |   |   |   |   common_nouns > 6: 4 (6.0)
|   |   |   |   |   |   |   |   |   |   |   |   |   |   |   |   |   |   |   |   num_sentences > 1: 4 (27.0/10.0)
|   |   |   |   |   |   |   |   |   |   |   |   |   |   |   |   |   |   |   past_tense_verb > 0
|   |   |   |   |   |   |   |   |   |   |   |   |   |   |   |   |   |   |   |   num_sentences <= 1
|   |   |   |   |   |   |   |   |   |   |   |   |   |   |   |   |   |   |   |   |   1st_person <= 1
|   |   |   |   |   |   |   |   |   |   |   |   |   |   |   |   |   |   |   |   |   |   1st_person <= 0
|   |   |   |   |   |   |   |   |   |   |   |   |   |   |   |   |   |   |   |   |   |   |   avg_length_sentences <= 16: 0 (12.0/4.0)
|   |   |   |   |   |   |   |   |   |   |   |   |   |   |   |   |   |   |   |   |   |   |   avg_length_sentences > 16: 4 (2.0)
|   |   |   |   |   |   |   |   |   |   |   |   |   |   |   |   |   |   |   |   |   |   1st_person > 0
|   |   |   |   |   |   |   |   |   |   |   |   |   |   |   |   |   |   |   |   |   |   |   avg_length_sentences <= 7: 0 (2.0)
|   |   |   |   |   |   |   |   |   |   |   |   |   |   |   |   |   |   |   |   |   |   |   avg_length_sentences > 7: 4 (7.0)
|   |   |   |   |   |   |   |   |   |   |   |   |   |   |   |   |   |   |   |   |   1st_person > 1: 0 (3.0)
|   |   |   |   |   |   |   |   |   |   |   |   |   |   |   |   |   |   |   |   num_sentences > 1
|   |   |   |   |   |   |   |   |   |   |   |   |   |   |   |   |   |   |   |   |   avg_length_token <= 3.05: 4 (2.0)
|   |   |   |   |   |   |   |   |   |   |   |   |   |   |   |   |   |   |   |   |   avg_length_token > 3.05: 0 (12.0)
|   |   |   |   |   |   |   |   |   |   |   |   |   |   |   |   |   |   3rd_person > 1
|   |   |   |   |   |   |   |   |   |   |   |   |   |   |   |   |   |   |   past_tense_verb <= 0
|   |   |   |   |   |   |   |   |   |   |   |   |   |   |   |   |   |   |   |   avg_length_token <= 3.695652: 0 (9.0)
|   |   |   |   |   |   |   |   |   |   |   |   |   |   |   |   |   |   |   |   avg_length_token > 3.695652
|   |   |   |   |   |   |   |   |   |   |   |   |   |   |   |   |   |   |   |   |   1st_person <= 0: 0 (2.0)
|   |   |   |   |   |   |   |   |   |   |   |   |   |   |   |   |   |   |   |   |   1st_person > 0: 4 (2.0)
|   |   |   |   |   |   |   |   |   |   |   |   |   |   |   |   |   |   |   past_tense_verb > 0
|   |   |   |   |   |   |   |   |   |   |   |   |   |   |   |   |   |   |   |   avg_length_token <= 3.3125: 0 (3.0)
|   |   |   |   |   |   |   |   |   |   |   |   |   |   |   |   |   |   |   |   avg_length_token > 3.3125: 4 (9.0/1.0)
|   |   |   |   |   |   |   |   |   |   |   |   |   |   |   |   |   future_tense_verb > 0
|   |   |   |   |   |   |   |   |   |   |   |   |   |   |   |   |   |   common_nouns <= 7: 0 (14.0/1.0)
|   |   |   |   |   |   |   |   |   |   |   |   |   |   |   |   |   |   common_nouns > 7: 4 (2.0)
|   |   |   |   |   |   |   |   |   |   |   |   |   |   |   |   commas > 1
|   |   |   |   |   |   |   |   |   |   |   |   |   |   |   |   |   future_tense_verb <= 2: 0 (43.0/12.0)
|   |   |   |   |   |   |   |   |   |   |   |   |   |   |   |   |   future_tense_verb > 2: 4 (2.0)
|   |   |   |   |   |   |   |   |   |   |   |   |   |   upper_case_words > 0
|   |   |   |   |   |   |   |   |   |   |   |   |   |   |   commas <= 1
|   |   |   |   |   |   |   |   |   |   |   |   |   |   |   |   1st_person <= 1
|   |   |   |   |   |   |   |   |   |   |   |   |   |   |   |   |   common_nouns <= 3
|   |   |   |   |   |   |   |   |   |   |   |   |   |   |   |   |   |   future_tense_verb <= 0
|   |   |   |   |   |   |   |   |   |   |   |   |   |   |   |   |   |   |   common_nouns <= 2
|   |   |   |   |   |   |   |   |   |   |   |   |   |   |   |   |   |   |   |   common_nouns <= 1: 4 (10.0/2.0)
|   |   |   |   |   |   |   |   |   |   |   |   |   |   |   |   |   |   |   |   common_nouns > 1
|   |   |   |   |   |   |   |   |   |   |   |   |   |   |   |   |   |   |   |   |   1st_person <= 0: 0 (6.0/1.0)
|   |   |   |   |   |   |   |   |   |   |   |   |   |   |   |   |   |   |   |   |   1st_person > 0
|   |   |   |   |   |   |   |   |   |   |   |   |   |   |   |   |   |   |   |   |   |   3rd_person <= 0
|   |   |   |   |   |   |   |   |   |   |   |   |   |   |   |   |   |   |   |   |   |   |   upper_case_words <= 2
|   |   |   |   |   |   |   |   |   |   |   |   |   |   |   |   |   |   |   |   |   |   |   |   avg_length_sentences <= 7.5: 4 (2.0)
|   |   |   |   |   |   |   |   |   |   |   |   |   |   |   |   |   |   |   |   |   |   |   |   avg_length_sentences > 7.5: 0 (3.0/1.0)
|   |   |   |   |   |   |   |   |   |   |   |   |   |   |   |   |   |   |   |   |   |   |   upper_case_words > 2: 0 (2.0)
|   |   |   |   |   |   |   |   |   |   |   |   |   |   |   |   |   |   |   |   |   |   3rd_person > 0: 4 (2.0)
|   |   |   |   |   |   |   |   |   |   |   |   |   |   |   |   |   |   |   common_nouns > 2: 4 (9.0/1.0)
|   |   |   |   |   |   |   |   |   |   |   |   |   |   |   |   |   |   future_tense_verb > 0: 0 (2.0)
|   |   |   |   |   |   |   |   |   |   |   |   |   |   |   |   |   common_nouns > 3
|   |   |   |   |   |   |   |   |   |   |   |   |   |   |   |   |   |   common_nouns <= 7: 0 (32.0/5.0)
|   |   |   |   |   |   |   |   |   |   |   |   |   |   |   |   |   |   common_nouns > 7: 4 (2.0)
|   |   |   |   |   |   |   |   |   |   |   |   |   |   |   |   1st_person > 1: 0 (6.0)
|   |   |   |   |   |   |   |   |   |   |   |   |   |   |   commas > 1
|   |   |   |   |   |   |   |   |   |   |   |   |   |   |   |   commas <= 3
|   |   |   |   |   |   |   |   |   |   |   |   |   |   |   |   |   num_sentences <= 1
|   |   |   |   |   |   |   |   |   |   |   |   |   |   |   |   |   |   3rd_person <= 2
|   |   |   |   |   |   |   |   |   |   |   |   |   |   |   |   |   |   |   upper_case_words <= 1
|   |   |   |   |   |   |   |   |   |   |   |   |   |   |   |   |   |   |   |   avg_length_token <= 3.423077
|   |   |   |   |   |   |   |   |   |   |   |   |   |   |   |   |   |   |   |   |   coord_conjunction <= 0: 4 (4.0)
|   |   |   |   |   |   |   |   |   |   |   |   |   |   |   |   |   |   |   |   |   coord_conjunction > 0: 0 (3.0/1.0)
|   |   |   |   |   |   |   |   |   |   |   |   |   |   |   |   |   |   |   |   avg_length_token > 3.423077: 0 (11.0/1.0)
|   |   |   |   |   |   |   |   |   |   |   |   |   |   |   |   |   |   |   upper_case_words > 1: 4 (4.0/1.0)
|   |   |   |   |   |   |   |   |   |   |   |   |   |   |   |   |   |   3rd_person > 2: 4 (2.0)
|   |   |   |   |   |   |   |   |   |   |   |   |   |   |   |   |   num_sentences > 1: 4 (6.0)
|   |   |   |   |   |   |   |   |   |   |   |   |   |   |   |   commas > 3: 4 (5.0)
|   |   |   |   |   |   |   |   |   |   |   |   |   ellipses > 0
|   |   |   |   |   |   |   |   |   |   |   |   |   |   1st_person <= 1
|   |   |   |   |   |   |   |   |   |   |   |   |   |   |   upper_case_words <= 0
|   |   |   |   |   |   |   |   |   |   |   |   |   |   |   |   3rd_person <= 0
|   |   |   |   |   |   |   |   |   |   |   |   |   |   |   |   |   coord_conjunction <= 1
|   |   |   |   |   |   |   |   |   |   |   |   |   |   |   |   |   |   coord_conjunction <= 0
|   |   |   |   |   |   |   |   |   |   |   |   |   |   |   |   |   |   |   commas <= 0
|   |   |   |   |   |   |   |   |   |   |   |   |   |   |   |   |   |   |   |   ellipses <= 1
|   |   |   |   |   |   |   |   |   |   |   |   |   |   |   |   |   |   |   |   |   1st_person <= 0: 0 (60.0/16.0)
|   |   |   |   |   |   |   |   |   |   |   |   |   |   |   |   |   |   |   |   |   1st_person > 0
|   |   |   |   |   |   |   |   |   |   |   |   |   |   |   |   |   |   |   |   |   |   avg_length_sentences <= 5.25: 4 (4.0)
|   |   |   |   |   |   |   |   |   |   |   |   |   |   |   |   |   |   |   |   |   |   avg_length_sentences > 5.25: 0 (17.0/2.0)
|   |   |   |   |   |   |   |   |   |   |   |   |   |   |   |   |   |   |   |   ellipses > 1
|   |   |   |   |   |   |   |   |   |   |   |   |   |   |   |   |   |   |   |   |   num_sentences <= 3
|   |   |   |   |   |   |   |   |   |   |   |   |   |   |   |   |   |   |   |   |   |   common_nouns <= 6
|   |   |   |   |   |   |   |   |   |   |   |   |   |   |   |   |   |   |   |   |   |   |   avg_length_sentences <= 4.833333: 4 (3.0/1.0)
|   |   |   |   |   |   |   |   |   |   |   |   |   |   |   |   |   |   |   |   |   |   |   avg_length_sentences > 4.833333: 0 (7.0)
|   |   |   |   |   |   |   |   |   |   |   |   |   |   |   |   |   |   |   |   |   |   common_nouns > 6: 4 (3.0)
|   |   |   |   |   |   |   |   |   |   |   |   |   |   |   |   |   |   |   |   |   num_sentences > 3: 4 (3.0)
|   |   |   |   |   |   |   |   |   |   |   |   |   |   |   |   |   |   |   commas > 0
|   |   |   |   |   |   |   |   |   |   |   |   |   |   |   |   |   |   |   |   past_tense_verb <= 0
|   |   |   |   |   |   |   |   |   |   |   |   |   |   |   |   |   |   |   |   |   common_nouns <= 3: 4 (4.0)
|   |   |   |   |   |   |   |   |   |   |   |   |   |   |   |   |   |   |   |   |   common_nouns > 3
|   |   |   |   |   |   |   |   |   |   |   |   |   |   |   |   |   |   |   |   |   |   common_nouns <= 5: 0 (2.0)
|   |   |   |   |   |   |   |   |   |   |   |   |   |   |   |   |   |   |   |   |   |   common_nouns > 5: 4 (2.0)
|   |   |   |   |   |   |   |   |   |   |   |   |   |   |   |   |   |   |   |   past_tense_verb > 0: 0 (2.0)
|   |   |   |   |   |   |   |   |   |   |   |   |   |   |   |   |   |   coord_conjunction > 0
|   |   |   |   |   |   |   |   |   |   |   |   |   |   |   |   |   |   |   1st_person <= 0
|   |   |   |   |   |   |   |   |   |   |   |   |   |   |   |   |   |   |   |   avg_length_token <= 3.958333: 0 (9.0/1.0)
|   |   |   |   |   |   |   |   |   |   |   |   |   |   |   |   |   |   |   |   avg_length_token > 3.958333: 4 (2.0)
|   |   |   |   |   |   |   |   |   |   |   |   |   |   |   |   |   |   |   1st_person > 0: 0 (9.0)
|   |   |   |   |   |   |   |   |   |   |   |   |   |   |   |   |   coord_conjunction > 1
|   |   |   |   |   |   |   |   |   |   |   |   |   |   |   |   |   |   1st_person <= 0: 0 (4.0/1.0)
|   |   |   |   |   |   |   |   |   |   |   |   |   |   |   |   |   |   1st_person > 0: 4 (6.0/1.0)
|   |   |   |   |   |   |   |   |   |   |   |   |   |   |   |   3rd_person > 0
|   |   |   |   |   |   |   |   |   |   |   |   |   |   |   |   |   commas <= 1
|   |   |   |   |   |   |   |   |   |   |   |   |   |   |   |   |   |   past_tense_verb <= 0
|   |   |   |   |   |   |   |   |   |   |   |   |   |   |   |   |   |   |   future_tense_verb <= 0
|   |   |   |   |   |   |   |   |   |   |   |   |   |   |   |   |   |   |   |   ellipses <= 1
|   |   |   |   |   |   |   |   |   |   |   |   |   |   |   |   |   |   |   |   |   coord_conjunction <= 0: 4 (9.0/1.0)
|   |   |   |   |   |   |   |   |   |   |   |   |   |   |   |   |   |   |   |   |   coord_conjunction > 0
|   |   |   |   |   |   |   |   |   |   |   |   |   |   |   |   |   |   |   |   |   |   3rd_person <= 1: 0 (5.0/1.0)
|   |   |   |   |   |   |   |   |   |   |   |   |   |   |   |   |   |   |   |   |   |   3rd_person > 1: 4 (3.0/1.0)
|   |   |   |   |   |   |   |   |   |   |   |   |   |   |   |   |   |   |   |   ellipses > 1: 0 (7.0/1.0)
|   |   |   |   |   |   |   |   |   |   |   |   |   |   |   |   |   |   |   future_tense_verb > 0: 4 (2.0)
|   |   |   |   |   |   |   |   |   |   |   |   |   |   |   |   |   |   past_tense_verb > 0: 4 (3.0)
|   |   |   |   |   |   |   |   |   |   |   |   |   |   |   |   |   commas > 1
|   |   |   |   |   |   |   |   |   |   |   |   |   |   |   |   |   |   common_nouns <= 3: 4 (3.0/1.0)
|   |   |   |   |   |   |   |   |   |   |   |   |   |   |   |   |   |   common_nouns > 3: 0 (7.0)
|   |   |   |   |   |   |   |   |   |   |   |   |   |   |   upper_case_words > 0
|   |   |   |   |   |   |   |   |   |   |   |   |   |   |   |   upper_case_words <= 1
|   |   |   |   |   |   |   |   |   |   |   |   |   |   |   |   |   common_nouns <= 3: 0 (8.0)
|   |   |   |   |   |   |   |   |   |   |   |   |   |   |   |   |   common_nouns > 3
|   |   |   |   |   |   |   |   |   |   |   |   |   |   |   |   |   |   1st_person <= 0: 4 (4.0)
|   |   |   |   |   |   |   |   |   |   |   |   |   |   |   |   |   |   1st_person > 0: 0 (5.0/1.0)
|   |   |   |   |   |   |   |   |   |   |   |   |   |   |   |   upper_case_words > 1: 0 (4.0)
|   |   |   |   |   |   |   |   |   |   |   |   |   |   1st_person > 1: 0 (23.0/3.0)
|   |   |   |   |   |   |   |   |   |   |   |   past_tense_verb > 1: 0 (86.0/21.0)
|   |   |   |   |   |   |   |   |   |   |   adverbs > 1
|   |   |   |   |   |   |   |   |   |   |   |   coord_conjunction <= 1
|   |   |   |   |   |   |   |   |   |   |   |   |   commas <= 1
|   |   |   |   |   |   |   |   |   |   |   |   |   |   past_tense_verb <= 0
|   |   |   |   |   |   |   |   |   |   |   |   |   |   |   num_sentences <= 1: 0 (141.0/22.0)
|   |   |   |   |   |   |   |   |   |   |   |   |   |   |   num_sentences > 1
|   |   |   |   |   |   |   |   |   |   |   |   |   |   |   |   avg_length_sentences <= 4.25
|   |   |   |   |   |   |   |   |   |   |   |   |   |   |   |   |   avg_length_sentences <= 3: 0 (2.0)
|   |   |   |   |   |   |   |   |   |   |   |   |   |   |   |   |   avg_length_sentences > 3: 4 (7.0)
|   |   |   |   |   |   |   |   |   |   |   |   |   |   |   |   avg_length_sentences > 4.25
|   |   |   |   |   |   |   |   |   |   |   |   |   |   |   |   |   common_nouns <= 1: 0 (16.0/1.0)
|   |   |   |   |   |   |   |   |   |   |   |   |   |   |   |   |   common_nouns > 1
|   |   |   |   |   |   |   |   |   |   |   |   |   |   |   |   |   |   coord_conjunction <= 0
|   |   |   |   |   |   |   |   |   |   |   |   |   |   |   |   |   |   |   3rd_person <= 0
|   |   |   |   |   |   |   |   |   |   |   |   |   |   |   |   |   |   |   |   avg_length_token <= 3.541667: 0 (10.0)
|   |   |   |   |   |   |   |   |   |   |   |   |   |   |   |   |   |   |   |   avg_length_token > 3.541667
|   |   |   |   |   |   |   |   |   |   |   |   |   |   |   |   |   |   |   |   |   common_nouns <= 3
|   |   |   |   |   |   |   |   |   |   |   |   |   |   |   |   |   |   |   |   |   |   num_sentences <= 2: 4 (11.0/2.0)
|   |   |   |   |   |   |   |   |   |   |   |   |   |   |   |   |   |   |   |   |   |   num_sentences > 2: 0 (3.0)
|   |   |   |   |   |   |   |   |   |   |   |   |   |   |   |   |   |   |   |   |   common_nouns > 3
|   |   |   |   |   |   |   |   |   |   |   |   |   |   |   |   |   |   |   |   |   |   common_nouns <= 7: 0 (25.0/6.0)
|   |   |   |   |   |   |   |   |   |   |   |   |   |   |   |   |   |   |   |   |   |   common_nouns > 7: 4 (3.0)
|   |   |   |   |   |   |   |   |   |   |   |   |   |   |   |   |   |   |   3rd_person > 0
|   |   |   |   |   |   |   |   |   |   |   |   |   |   |   |   |   |   |   |   avg_length_token <= 2.96875: 4 (2.0)
|   |   |   |   |   |   |   |   |   |   |   |   |   |   |   |   |   |   |   |   avg_length_token > 2.96875: 0 (19.0/2.0)
|   |   |   |   |   |   |   |   |   |   |   |   |   |   |   |   |   |   coord_conjunction > 0: 0 (24.0/4.0)
|   |   |   |   |   |   |   |   |   |   |   |   |   |   past_tense_verb > 0
|   |   |   |   |   |   |   |   |   |   |   |   |   |   |   3rd_person <= 0
|   |   |   |   |   |   |   |   |   |   |   |   |   |   |   |   coord_conjunction <= 0
|   |   |   |   |   |   |   |   |   |   |   |   |   |   |   |   |   future_tense_verb <= 0
|   |   |   |   |   |   |   |   |   |   |   |   |   |   |   |   |   |   upper_case_words <= 0
|   |   |   |   |   |   |   |   |   |   |   |   |   |   |   |   |   |   |   past_tense_verb <= 1
|   |   |   |   |   |   |   |   |   |   |   |   |   |   |   |   |   |   |   |   ellipses <= 0
|   |   |   |   |   |   |   |   |   |   |   |   |   |   |   |   |   |   |   |   |   1st_person <= 0
|   |   |   |   |   |   |   |   |   |   |   |   |   |   |   |   |   |   |   |   |   |   avg_length_sentences <= 6.75: 0 (6.0/1.0)
|   |   |   |   |   |   |   |   |   |   |   |   |   |   |   |   |   |   |   |   |   |   avg_length_sentences > 6.75
|   |   |   |   |   |   |   |   |   |   |   |   |   |   |   |   |   |   |   |   |   |   |   common_nouns <= 1
|   |   |   |   |   |   |   |   |   |   |   |   |   |   |   |   |   |   |   |   |   |   |   |   avg_length_sentences <= 8.5: 4 (3.0)
|   |   |   |   |   |   |   |   |   |   |   |   |   |   |   |   |   |   |   |   |   |   |   |   avg_length_sentences > 8.5: 0 (2.0)
|   |   |   |   |   |   |   |   |   |   |   |   |   |   |   |   |   |   |   |   |   |   |   common_nouns > 1: 4 (7.0)
|   |   |   |   |   |   |   |   |   |   |   |   |   |   |   |   |   |   |   |   |   1st_person > 0
|   |   |   |   |   |   |   |   |   |   |   |   |   |   |   |   |   |   |   |   |   |   num_sentences <= 2
|   |   |   |   |   |   |   |   |   |   |   |   |   |   |   |   |   |   |   |   |   |   |   num_sentences <= 1
|   |   |   |   |   |   |   |   |   |   |   |   |   |   |   |   |   |   |   |   |   |   |   |   avg_length_token <= 3.85
|   |   |   |   |   |   |   |   |   |   |   |   |   |   |   |   |   |   |   |   |   |   |   |   |   avg_length_token <= 3.526316: 0 (2.0)
|   |   |   |   |   |   |   |   |   |   |   |   |   |   |   |   |   |   |   |   |   |   |   |   |   avg_length_token > 3.526316: 4 (3.0)
|   |   |   |   |   |   |   |   |   |   |   |   |   |   |   |   |   |   |   |   |   |   |   |   avg_length_token > 3.85: 0 (3.0)
|   |   |   |   |   |   |   |   |   |   |   |   |   |   |   |   |   |   |   |   |   |   |   num_sentences > 1: 0 (4.0)
|   |   |   |   |   |   |   |   |   |   |   |   |   |   |   |   |   |   |   |   |   |   num_sentences > 2: 4 (2.0)
|   |   |   |   |   |   |   |   |   |   |   |   |   |   |   |   |   |   |   |   ellipses > 0: 0 (7.0/2.0)
|   |   |   |   |   |   |   |   |   |   |   |   |   |   |   |   |   |   |   past_tense_verb > 1
|   |   |   |   |   |   |   |   |   |   |   |   |   |   |   |   |   |   |   |   common_nouns <= 6: 0 (8.0/1.0)
|   |   |   |   |   |   |   |   |   |   |   |   |   |   |   |   |   |   |   |   common_nouns > 6: 4 (2.0)
|   |   |   |   |   |   |   |   |   |   |   |   |   |   |   |   |   |   upper_case_words > 0: 0 (7.0/2.0)
|   |   |   |   |   |   |   |   |   |   |   |   |   |   |   |   |   future_tense_verb > 0: 0 (4.0/1.0)
|   |   |   |   |   |   |   |   |   |   |   |   |   |   |   |   coord_conjunction > 0
|   |   |   |   |   |   |   |   |   |   |   |   |   |   |   |   |   past_tense_verb <= 3: 0 (31.0/7.0)
|   |   |   |   |   |   |   |   |   |   |   |   |   |   |   |   |   past_tense_verb > 3: 4 (2.0)
|   |   |   |   |   |   |   |   |   |   |   |   |   |   |   3rd_person > 0
|   |   |   |   |   |   |   |   |   |   |   |   |   |   |   |   avg_length_token <= 3.777778
|   |   |   |   |   |   |   |   |   |   |   |   |   |   |   |   |   avg_length_token <= 3.275862: 0 (9.0)
|   |   |   |   |   |   |   |   |   |   |   |   |   |   |   |   |   avg_length_token > 3.275862
|   |   |   |   |   |   |   |   |   |   |   |   |   |   |   |   |   |   num_sentences <= 2: 4 (6.0)
|   |   |   |   |   |   |   |   |   |   |   |   |   |   |   |   |   |   num_sentences > 2: 0 (5.0/1.0)
|   |   |   |   |   |   |   |   |   |   |   |   |   |   |   |   avg_length_token > 3.777778: 0 (14.0)
|   |   |   |   |   |   |   |   |   |   |   |   |   commas > 1
|   |   |   |   |   |   |   |   |   |   |   |   |   |   future_tense_verb <= 2
|   |   |   |   |   |   |   |   |   |   |   |   |   |   |   avg_length_sentences <= 25
|   |   |   |   |   |   |   |   |   |   |   |   |   |   |   |   common_nouns <= 3
|   |   |   |   |   |   |   |   |   |   |   |   |   |   |   |   |   3rd_person <= 0: 0 (37.0/6.0)
|   |   |   |   |   |   |   |   |   |   |   |   |   |   |   |   |   3rd_person > 0
|   |   |   |   |   |   |   |   |   |   |   |   |   |   |   |   |   |   upper_case_words <= 0
|   |   |   |   |   |   |   |   |   |   |   |   |   |   |   |   |   |   |   avg_length_sentences <= 17: 0 (17.0/3.0)
|   |   |   |   |   |   |   |   |   |   |   |   |   |   |   |   |   |   |   avg_length_sentences > 17: 4 (4.0)
|   |   |   |   |   |   |   |   |   |   |   |   |   |   |   |   |   |   upper_case_words > 0: 0 (6.0/3.0)
|   |   |   |   |   |   |   |   |   |   |   |   |   |   |   |   common_nouns > 3
|   |   |   |   |   |   |   |   |   |   |   |   |   |   |   |   |   past_tense_verb <= 1
|   |   |   |   |   |   |   |   |   |   |   |   |   |   |   |   |   |   past_tense_verb <= 0
|   |   |   |   |   |   |   |   |   |   |   |   |   |   |   |   |   |   |   coord_conjunction <= 0
|   |   |   |   |   |   |   |   |   |   |   |   |   |   |   |   |   |   |   |   1st_person <= 0: 4 (10.0/2.0)
|   |   |   |   |   |   |   |   |   |   |   |   |   |   |   |   |   |   |   |   1st_person > 0
|   |   |   |   |   |   |   |   |   |   |   |   |   |   |   |   |   |   |   |   |   avg_length_token <= 3.826087: 0 (6.0)
|   |   |   |   |   |   |   |   |   |   |   |   |   |   |   |   |   |   |   |   |   avg_length_token > 3.826087: 4 (6.0/1.0)
|   |   |   |   |   |   |   |   |   |   |   |   |   |   |   |   |   |   |   coord_conjunction > 0
|   |   |   |   |   |   |   |   |   |   |   |   |   |   |   |   |   |   |   |   1st_person <= 0: 0 (2.0)
|   |   |   |   |   |   |   |   |   |   |   |   |   |   |   |   |   |   |   |   1st_person > 0
|   |   |   |   |   |   |   |   |   |   |   |   |   |   |   |   |   |   |   |   |   avg_length_sentences <= 17.5: 4 (6.0/1.0)
|   |   |   |   |   |   |   |   |   |   |   |   |   |   |   |   |   |   |   |   |   avg_length_sentences > 17.5: 0 (3.0)
|   |   |   |   |   |   |   |   |   |   |   |   |   |   |   |   |   |   past_tense_verb > 0
|   |   |   |   |   |   |   |   |   |   |   |   |   |   |   |   |   |   |   ellipses <= 0
|   |   |   |   |   |   |   |   |   |   |   |   |   |   |   |   |   |   |   |   coord_conjunction <= 0: 0 (10.0/1.0)
|   |   |   |   |   |   |   |   |   |   |   |   |   |   |   |   |   |   |   |   coord_conjunction > 0
|   |   |   |   |   |   |   |   |   |   |   |   |   |   |   |   |   |   |   |   |   common_nouns <= 5: 0 (2.0)
|   |   |   |   |   |   |   |   |   |   |   |   |   |   |   |   |   |   |   |   |   common_nouns > 5: 4 (4.0/1.0)
|   |   |   |   |   |   |   |   |   |   |   |   |   |   |   |   |   |   |   ellipses > 0: 4 (3.0/1.0)
|   |   |   |   |   |   |   |   |   |   |   |   |   |   |   |   |   past_tense_verb > 1: 4 (8.0/1.0)
|   |   |   |   |   |   |   |   |   |   |   |   |   |   |   avg_length_sentences > 25: 4 (7.0)
|   |   |   |   |   |   |   |   |   |   |   |   |   |   future_tense_verb > 2: 0 (10.0/1.0)
|   |   |   |   |   |   |   |   |   |   |   |   coord_conjunction > 1
|   |   |   |   |   |   |   |   |   |   |   |   |   coord_conjunction <= 2
|   |   |   |   |   |   |   |   |   |   |   |   |   |   ellipses <= 0
|   |   |   |   |   |   |   |   |   |   |   |   |   |   |   common_nouns <= 6: 4 (24.0/4.0)
|   |   |   |   |   |   |   |   |   |   |   |   |   |   |   common_nouns > 6: 0 (7.0/1.0)
|   |   |   |   |   |   |   |   |   |   |   |   |   |   ellipses > 0: 0 (6.0/1.0)
|   |   |   |   |   |   |   |   |   |   |   |   |   coord_conjunction > 2: 0 (4.0)
|   |   |   |   |   |   |   |   |   |   1st_person > 2: 0 (65.0/13.0)
|   |   |   |   |   |   |   |   |   proper_nouns > 0
|   |   |   |   |   |   |   |   |   |   1st_person <= 1
|   |   |   |   |   |   |   |   |   |   |   past_tense_verb <= 1
|   |   |   |   |   |   |   |   |   |   |   |   coord_conjunction <= 0
|   |   |   |   |   |   |   |   |   |   |   |   |   ellipses <= 0
|   |   |   |   |   |   |   |   |   |   |   |   |   |   upper_case_words <= 1
|   |   |   |   |   |   |   |   |   |   |   |   |   |   |   3rd_person <= 0
|   |   |   |   |   |   |   |   |   |   |   |   |   |   |   |   1st_person <= 0
|   |   |   |   |   |   |   |   |   |   |   |   |   |   |   |   |   future_tense_verb <= 1
|   |   |   |   |   |   |   |   |   |   |   |   |   |   |   |   |   |   adverbs <= 1
|   |   |   |   |   |   |   |   |   |   |   |   |   |   |   |   |   |   |   future_tense_verb <= 0
|   |   |   |   |   |   |   |   |   |   |   |   |   |   |   |   |   |   |   |   commas <= 1
|   |   |   |   |   |   |   |   |   |   |   |   |   |   |   |   |   |   |   |   |   past_tense_verb <= 0
|   |   |   |   |   |   |   |   |   |   |   |   |   |   |   |   |   |   |   |   |   |   common_nouns <= 1
|   |   |   |   |   |   |   |   |   |   |   |   |   |   |   |   |   |   |   |   |   |   |   proper_nouns <= 1
|   |   |   |   |   |   |   |   |   |   |   |   |   |   |   |   |   |   |   |   |   |   |   |   num_sentences <= 1
|   |   |   |   |   |   |   |   |   |   |   |   |   |   |   |   |   |   |   |   |   |   |   |   |   avg_length_token <= 3.678571: 0 (7.0/1.0)
|   |   |   |   |   |   |   |   |   |   |   |   |   |   |   |   |   |   |   |   |   |   |   |   |   avg_length_token > 3.678571: 4 (4.0)
|   |   |   |   |   |   |   |   |   |   |   |   |   |   |   |   |   |   |   |   |   |   |   |   num_sentences > 1: 4 (2.0)
|   |   |   |   |   |   |   |   |   |   |   |   |   |   |   |   |   |   |   |   |   |   |   proper_nouns > 1: 4 (2.0)
|   |   |   |   |   |   |   |   |   |   |   |   |   |   |   |   |   |   |   |   |   |   common_nouns > 1
|   |   |   |   |   |   |   |   |   |   |   |   |   |   |   |   |   |   |   |   |   |   |   common_nouns <= 2: 0 (5.0)
|   |   |   |   |   |   |   |   |   |   |   |   |   |   |   |   |   |   |   |   |   |   |   common_nouns > 2
|   |   |   |   |   |   |   |   |   |   |   |   |   |   |   |   |   |   |   |   |   |   |   |   common_nouns <= 3: 4 (6.0)
|   |   |   |   |   |   |   |   |   |   |   |   |   |   |   |   |   |   |   |   |   |   |   |   common_nouns > 3: 0 (13.0/3.0)
|   |   |   |   |   |   |   |   |   |   |   |   |   |   |   |   |   |   |   |   |   past_tense_verb > 0: 0 (8.0/1.0)
|   |   |   |   |   |   |   |   |   |   |   |   |   |   |   |   |   |   |   |   commas > 1: 0 (11.0/2.0)
|   |   |   |   |   |   |   |   |   |   |   |   |   |   |   |   |   |   |   future_tense_verb > 0
|   |   |   |   |   |   |   |   |   |   |   |   |   |   |   |   |   |   |   |   common_nouns <= 2: 0 (2.0)
|   |   |   |   |   |   |   |   |   |   |   |   |   |   |   |   |   |   |   |   common_nouns > 2: 4 (2.0)
|   |   |   |   |   |   |   |   |   |   |   |   |   |   |   |   |   |   adverbs > 1
|   |   |   |   |   |   |   |   |   |   |   |   |   |   |   |   |   |   |   commas <= 1: 0 (6.0/1.0)
|   |   |   |   |   |   |   |   |   |   |   |   |   |   |   |   |   |   |   commas > 1: 4 (6.0/1.0)
|   |   |   |   |   |   |   |   |   |   |   |   |   |   |   |   |   future_tense_verb > 1: 4 (4.0)
|   |   |   |   |   |   |   |   |   |   |   |   |   |   |   |   1st_person > 0
|   |   |   |   |   |   |   |   |   |   |   |   |   |   |   |   |   future_tense_verb <= 0
|   |   |   |   |   |   |   |   |   |   |   |   |   |   |   |   |   |   adverbs <= 1
|   |   |   |   |   |   |   |   |   |   |   |   |   |   |   |   |   |   |   avg_length_token <= 3.6: 0 (11.0/4.0)
|   |   |   |   |   |   |   |   |   |   |   |   |   |   |   |   |   |   |   avg_length_token > 3.6: 4 (22.0/3.0)
|   |   |   |   |   |   |   |   |   |   |   |   |   |   |   |   |   |   adverbs > 1
|   |   |   |   |   |   |   |   |   |   |   |   |   |   |   |   |   |   |   common_nouns <= 2: 4 (9.0/2.0)
|   |   |   |   |   |   |   |   |   |   |   |   |   |   |   |   |   |   |   common_nouns > 2: 0 (13.0/2.0)
|   |   |   |   |   |   |   |   |   |   |   |   |   |   |   |   |   future_tense_verb > 0: 0 (6.0/1.0)
|   |   |   |   |   |   |   |   |   |   |   |   |   |   |   3rd_person > 0
|   |   |   |   |   |   |   |   |   |   |   |   |   |   |   |   3rd_person <= 1
|   |   |   |   |   |   |   |   |   |   |   |   |   |   |   |   |   proper_nouns <= 1: 0 (29.0/7.0)
|   |   |   |   |   |   |   |   |   |   |   |   |   |   |   |   |   proper_nouns > 1
|   |   |   |   |   |   |   |   |   |   |   |   |   |   |   |   |   |   proper_nouns <= 2
|   |   |   |   |   |   |   |   |   |   |   |   |   |   |   |   |   |   |   avg_length_sentences <= 13.5: 4 (7.0/1.0)
|   |   |   |   |   |   |   |   |   |   |   |   |   |   |   |   |   |   |   avg_length_sentences > 13.5: 0 (3.0)
|   |   |   |   |   |   |   |   |   |   |   |   |   |   |   |   |   |   proper_nouns > 2: 0 (3.0/1.0)
|   |   |   |   |   |   |   |   |   |   |   |   |   |   |   |   3rd_person > 1
|   |   |   |   |   |   |   |   |   |   |   |   |   |   |   |   |   proper_nouns <= 2: 4 (5.0/1.0)
|   |   |   |   |   |   |   |   |   |   |   |   |   |   |   |   |   proper_nouns > 2: 0 (2.0)
|   |   |   |   |   |   |   |   |   |   |   |   |   |   upper_case_words > 1
|   |   |   |   |   |   |   |   |   |   |   |   |   |   |   commas <= 2
|   |   |   |   |   |   |   |   |   |   |   |   |   |   |   |   1st_person <= 0
|   |   |   |   |   |   |   |   |   |   |   |   |   |   |   |   |   avg_length_token <= 3.464286: 0 (3.0/1.0)
|   |   |   |   |   |   |   |   |   |   |   |   |   |   |   |   |   avg_length_token > 3.464286: 4 (5.0)
|   |   |   |   |   |   |   |   |   |   |   |   |   |   |   |   1st_person > 0: 0 (2.0)
|   |   |   |   |   |   |   |   |   |   |   |   |   |   |   commas > 2: 4 (3.0)
|   |   |   |   |   |   |   |   |   |   |   |   |   ellipses > 0
|   |   |   |   |   |   |   |   |   |   |   |   |   |   past_tense_verb <= 0
|   |   |   |   |   |   |   |   |   |   |   |   |   |   |   3rd_person <= 0
|   |   |   |   |   |   |   |   |   |   |   |   |   |   |   |   adverbs <= 1
|   |   |   |   |   |   |   |   |   |   |   |   |   |   |   |   |   avg_length_sentences <= 9.666667: 0 (11.0/1.0)
|   |   |   |   |   |   |   |   |   |   |   |   |   |   |   |   |   avg_length_sentences > 9.666667: 4 (2.0)
|   |   |   |   |   |   |   |   |   |   |   |   |   |   |   |   adverbs > 1
|   |   |   |   |   |   |   |   |   |   |   |   |   |   |   |   |   num_sentences <= 1: 0 (3.0)
|   |   |   |   |   |   |   |   |   |   |   |   |   |   |   |   |   num_sentences > 1
|   |   |   |   |   |   |   |   |   |   |   |   |   |   |   |   |   |   ellipses <= 1
|   |   |   |   |   |   |   |   |   |   |   |   |   |   |   |   |   |   |   avg_length_sentences <= 6: 0 (2.0)
|   |   |   |   |   |   |   |   |   |   |   |   |   |   |   |   |   |   |   avg_length_sentences > 6: 4 (3.0)
|   |   |   |   |   |   |   |   |   |   |   |   |   |   |   |   |   |   ellipses > 1: 4 (3.0)
|   |   |   |   |   |   |   |   |   |   |   |   |   |   |   3rd_person > 0
|   |   |   |   |   |   |   |   |   |   |   |   |   |   |   |   1st_person <= 0: 4 (2.0)
|   |   |   |   |   |   |   |   |   |   |   |   |   |   |   |   1st_person > 0
|   |   |   |   |   |   |   |   |   |   |   |   |   |   |   |   |   num_sentences <= 4: 0 (2.0)
|   |   |   |   |   |   |   |   |   |   |   |   |   |   |   |   |   num_sentences > 4: 4 (2.0)
|   |   |   |   |   |   |   |   |   |   |   |   |   |   past_tense_verb > 0: 0 (11.0/1.0)
|   |   |   |   |   |   |   |   |   |   |   |   coord_conjunction > 0
|   |   |   |   |   |   |   |   |   |   |   |   |   coord_conjunction <= 1
|   |   |   |   |   |   |   |   |   |   |   |   |   |   proper_nouns <= 3
|   |   |   |   |   |   |   |   |   |   |   |   |   |   |   num_sentences <= 2: 0 (70.0/19.0)
|   |   |   |   |   |   |   |   |   |   |   |   |   |   |   num_sentences > 2
|   |   |   |   |   |   |   |   |   |   |   |   |   |   |   |   proper_nouns <= 2
|   |   |   |   |   |   |   |   |   |   |   |   |   |   |   |   |   adverbs <= 1
|   |   |   |   |   |   |   |   |   |   |   |   |   |   |   |   |   |   1st_person <= 0
|   |   |   |   |   |   |   |   |   |   |   |   |   |   |   |   |   |   |   num_sentences <= 4
|   |   |   |   |   |   |   |   |   |   |   |   |   |   |   |   |   |   |   |   past_tense_verb <= 0
|   |   |   |   |   |   |   |   |   |   |   |   |   |   |   |   |   |   |   |   |   avg_length_token <= 3.941176: 0 (2.0)
|   |   |   |   |   |   |   |   |   |   |   |   |   |   |   |   |   |   |   |   |   avg_length_token > 3.941176: 4 (2.0)
|   |   |   |   |   |   |   |   |   |   |   |   |   |   |   |   |   |   |   |   past_tense_verb > 0: 4 (3.0)
|   |   |   |   |   |   |   |   |   |   |   |   |   |   |   |   |   |   |   num_sentences > 4: 0 (2.0)
|   |   |   |   |   |   |   |   |   |   |   |   |   |   |   |   |   |   1st_person > 0: 0 (3.0)
|   |   |   |   |   |   |   |   |   |   |   |   |   |   |   |   |   adverbs > 1: 4 (5.0/1.0)
|   |   |   |   |   |   |   |   |   |   |   |   |   |   |   |   proper_nouns > 2: 0 (2.0)
|   |   |   |   |   |   |   |   |   |   |   |   |   |   proper_nouns > 3: 4 (6.0/2.0)
|   |   |   |   |   |   |   |   |   |   |   |   |   coord_conjunction > 1: 0 (9.0/1.0)
|   |   |   |   |   |   |   |   |   |   |   past_tense_verb > 1
|   |   |   |   |   |   |   |   |   |   |   |   avg_length_token <= 4.0625
|   |   |   |   |   |   |   |   |   |   |   |   |   proper_nouns <= 2: 0 (24.0/2.0)
|   |   |   |   |   |   |   |   |   |   |   |   |   proper_nouns > 2
|   |   |   |   |   |   |   |   |   |   |   |   |   |   common_nouns <= 3: 0 (2.0)
|   |   |   |   |   |   |   |   |   |   |   |   |   |   common_nouns > 3: 4 (2.0)
|   |   |   |   |   |   |   |   |   |   |   |   avg_length_token > 4.0625: 4 (3.0)
|   |   |   |   |   |   |   |   |   |   1st_person > 1
|   |   |   |   |   |   |   |   |   |   |   adverbs <= 1
|   |   |   |   |   |   |   |   |   |   |   |   future_tense_verb <= 2
|   |   |   |   |   |   |   |   |   |   |   |   |   3rd_person <= 3
|   |   |   |   |   |   |   |   |   |   |   |   |   |   upper_case_words <= 0
|   |   |   |   |   |   |   |   |   |   |   |   |   |   |   common_nouns <= 4: 0 (14.0/2.0)
|   |   |   |   |   |   |   |   |   |   |   |   |   |   |   common_nouns > 4
|   |   |   |   |   |   |   |   |   |   |   |   |   |   |   |   1st_person <= 2
|   |   |   |   |   |   |   |   |   |   |   |   |   |   |   |   |   avg_length_sentences <= 10.666667: 4 (3.0/1.0)
|   |   |   |   |   |   |   |   |   |   |   |   |   |   |   |   |   avg_length_sentences > 10.666667: 0 (7.0)
|   |   |   |   |   |   |   |   |   |   |   |   |   |   |   |   1st_person > 2: 4 (5.0/1.0)
|   |   |   |   |   |   |   |   |   |   |   |   |   |   upper_case_words > 0
|   |   |   |   |   |   |   |   |   |   |   |   |   |   |   past_tense_verb <= 0: 4 (4.0)
|   |   |   |   |   |   |   |   |   |   |   |   |   |   |   past_tense_verb > 0: 0 (3.0)
|   |   |   |   |   |   |   |   |   |   |   |   |   3rd_person > 3: 4 (2.0)
|   |   |   |   |   |   |   |   |   |   |   |   future_tense_verb > 2: 4 (5.0/1.0)
|   |   |   |   |   |   |   |   |   |   |   adverbs > 1
|   |   |   |   |   |   |   |   |   |   |   |   ellipses <= 1: 4 (38.0/11.0)
|   |   |   |   |   |   |   |   |   |   |   |   ellipses > 1: 0 (3.0)
|   |   |   |   |   |   |   |   wh_words > 0
|   |   |   |   |   |   |   |   |   avg_length_token <= 3.482759
|   |   |   |   |   |   |   |   |   |   adverbs <= 1
|   |   |   |   |   |   |   |   |   |   |   3rd_person <= 1
|   |   |   |   |   |   |   |   |   |   |   |   avg_length_token <= 3.227273
|   |   |   |   |   |   |   |   |   |   |   |   |   avg_length_token <= 3.1875: 0 (32.0/4.0)
|   |   |   |   |   |   |   |   |   |   |   |   |   avg_length_token > 3.1875: 4 (5.0)
|   |   |   |   |   |   |   |   |   |   |   |   avg_length_token > 3.227273: 0 (31.0)
|   |   |   |   |   |   |   |   |   |   |   3rd_person > 1
|   |   |   |   |   |   |   |   |   |   |   |   num_sentences <= 1: 0 (4.0/1.0)
|   |   |   |   |   |   |   |   |   |   |   |   num_sentences > 1: 4 (2.0)
|   |   |   |   |   |   |   |   |   |   adverbs > 1: 0 (28.0/1.0)
|   |   |   |   |   |   |   |   |   avg_length_token > 3.482759
|   |   |   |   |   |   |   |   |   |   future_tense_verb <= 2
|   |   |   |   |   |   |   |   |   |   |   future_tense_verb <= 0
|   |   |   |   |   |   |   |   |   |   |   |   adverbs <= 1
|   |   |   |   |   |   |   |   |   |   |   |   |   ellipses <= 1
|   |   |   |   |   |   |   |   |   |   |   |   |   |   upper_case_words <= 2
|   |   |   |   |   |   |   |   |   |   |   |   |   |   |   coord_conjunction <= 1
|   |   |   |   |   |   |   |   |   |   |   |   |   |   |   |   3rd_person <= 1
|   |   |   |   |   |   |   |   |   |   |   |   |   |   |   |   |   common_nouns <= 7
|   |   |   |   |   |   |   |   |   |   |   |   |   |   |   |   |   |   coord_conjunction <= 0
|   |   |   |   |   |   |   |   |   |   |   |   |   |   |   |   |   |   |   proper_nouns <= 0
|   |   |   |   |   |   |   |   |   |   |   |   |   |   |   |   |   |   |   |   3rd_person <= 0
|   |   |   |   |   |   |   |   |   |   |   |   |   |   |   |   |   |   |   |   |   avg_length_token <= 3.655172
|   |   |   |   |   |   |   |   |   |   |   |   |   |   |   |   |   |   |   |   |   |   num_sentences <= 1: 0 (7.0/2.0)
|   |   |   |   |   |   |   |   |   |   |   |   |   |   |   |   |   |   |   |   |   |   num_sentences > 1: 4 (5.0)
|   |   |   |   |   |   |   |   |   |   |   |   |   |   |   |   |   |   |   |   |   avg_length_token > 3.655172: 0 (30.0/4.0)
|   |   |   |   |   |   |   |   |   |   |   |   |   |   |   |   |   |   |   |   3rd_person > 0
|   |   |   |   |   |   |   |   |   |   |   |   |   |   |   |   |   |   |   |   |   wh_words <= 1
|   |   |   |   |   |   |   |   |   |   |   |   |   |   |   |   |   |   |   |   |   |   avg_length_token <= 3.703704: 0 (5.0)
|   |   |   |   |   |   |   |   |   |   |   |   |   |   |   |   |   |   |   |   |   |   avg_length_token > 3.703704: 4 (9.0/2.0)
|   |   |   |   |   |   |   |   |   |   |   |   |   |   |   |   |   |   |   |   |   wh_words > 1: 0 (2.0)
|   |   |   |   |   |   |   |   |   |   |   |   |   |   |   |   |   |   |   proper_nouns > 0
|   |   |   |   |   |   |   |   |   |   |   |   |   |   |   |   |   |   |   |   proper_nouns <= 1: 4 (6.0/1.0)
|   |   |   |   |   |   |   |   |   |   |   |   |   |   |   |   |   |   |   |   proper_nouns > 1: 0 (2.0)
|   |   |   |   |   |   |   |   |   |   |   |   |   |   |   |   |   |   coord_conjunction > 0
|   |   |   |   |   |   |   |   |   |   |   |   |   |   |   |   |   |   |   past_tense_verb <= 0: 0 (11.0)
|   |   |   |   |   |   |   |   |   |   |   |   |   |   |   |   |   |   |   past_tense_verb > 0
|   |   |   |   |   |   |   |   |   |   |   |   |   |   |   |   |   |   |   |   past_tense_verb <= 1: 4 (2.0)
|   |   |   |   |   |   |   |   |   |   |   |   |   |   |   |   |   |   |   |   past_tense_verb > 1: 0 (5.0/1.0)
|   |   |   |   |   |   |   |   |   |   |   |   |   |   |   |   |   common_nouns > 7
|   |   |   |   |   |   |   |   |   |   |   |   |   |   |   |   |   |   avg_length_token <= 3.961538: 4 (9.0/1.0)
|   |   |   |   |   |   |   |   |   |   |   |   |   |   |   |   |   |   avg_length_token > 3.961538: 0 (3.0)
|   |   |   |   |   |   |   |   |   |   |   |   |   |   |   |   3rd_person > 1
|   |   |   |   |   |   |   |   |   |   |   |   |   |   |   |   |   3rd_person <= 2
|   |   |   |   |   |   |   |   |   |   |   |   |   |   |   |   |   |   avg_length_sentences <= 6.6: 0 (3.0)
|   |   |   |   |   |   |   |   |   |   |   |   |   |   |   |   |   |   avg_length_sentences > 6.6
|   |   |   |   |   |   |   |   |   |   |   |   |   |   |   |   |   |   |   1st_person <= 0: 4 (8.0)
|   |   |   |   |   |   |   |   |   |   |   |   |   |   |   |   |   |   |   1st_person > 0
|   |   |   |   |   |   |   |   |   |   |   |   |   |   |   |   |   |   |   |   1st_person <= 1: 0 (2.0)
|   |   |   |   |   |   |   |   |   |   |   |   |   |   |   |   |   |   |   |   1st_person > 1: 4 (2.0)
|   |   |   |   |   |   |   |   |   |   |   |   |   |   |   |   |   3rd_person > 2: 0 (2.0)
|   |   |   |   |   |   |   |   |   |   |   |   |   |   |   coord_conjunction > 1: 0 (6.0)
|   |   |   |   |   |   |   |   |   |   |   |   |   |   upper_case_words > 2
|   |   |   |   |   |   |   |   |   |   |   |   |   |   |   commas <= 1: 4 (5.0)
|   |   |   |   |   |   |   |   |   |   |   |   |   |   |   commas > 1: 0 (2.0)
|   |   |   |   |   |   |   |   |   |   |   |   |   ellipses > 1
|   |   |   |   |   |   |   |   |   |   |   |   |   |   num_sentences <= 2: 0 (2.0)
|   |   |   |   |   |   |   |   |   |   |   |   |   |   num_sentences > 2: 4 (5.0)
|   |   |   |   |   |   |   |   |   |   |   |   adverbs > 1
